digraph Tree {
node [shape=box, style="filled", color="black"] ;
0 [label="UK <= 0.5\ngini = 0.55\nsamples = 1302\nvalue = [210, 306, 786]", fillcolor="#c2a0f2"] ;
1 [label="Nscore <= -0.99\ngini = 0.33\nsamples = 604\nvalue = [19, 101, 484]", fillcolor="#9f68eb"] ;
0 -> 1 [labeldistance=2.5, labelangle=45, headlabel="True"] ;
2 [label="Cscore <= -1.45\ngini = 0.48\nsamples = 84\nvalue = [1, 31, 52]", fillcolor="#cdb1f5"] ;
1 -> 2 ;
3 [label="Ascore <= 0.65\ngini = 0.24\nsamples = 7\nvalue = [0, 6, 1]", fillcolor="#5ae996"] ;
2 -> 3 ;
4 [label="gini = 0.0\nsamples = 6\nvalue = [0, 6, 0]", fillcolor="#39e581"] ;
3 -> 4 ;
5 [label="gini = 0.0\nsamples = 1\nvalue = [0, 0, 1]", fillcolor="#8139e5"] ;
3 -> 5 ;
6 [label="Nscore <= -1.26\ngini = 0.46\nsamples = 77\nvalue = [1, 25, 51]", fillcolor="#c09cf2"] ;
2 -> 6 ;
7 [label="ls_18 <= 0.5\ngini = 0.37\nsamples = 53\nvalue = [0, 13, 40]", fillcolor="#aa79ed"] ;
6 -> 7 ;
8 [label="Nscore <= -2.13\ngini = 0.34\nsamples = 51\nvalue = [0, 11, 40]", fillcolor="#a46fec"] ;
7 -> 8 ;
9 [label="other_c <= 0.5\ngini = 0.5\nsamples = 13\nvalue = [0, 6, 7]", fillcolor="#ede3fb"] ;
8 -> 9 ;
10 [label="Impulsive <= 0.36\ngini = 0.42\nsamples = 10\nvalue = [0, 3, 7]", fillcolor="#b78ef0"] ;
9 -> 10 ;
11 [label="other_e <= 0.5\ngini = 0.22\nsamples = 8\nvalue = [0, 1, 7]", fillcolor="#9355e9"] ;
10 -> 11 ;
12 [label="gini = 0.0\nsamples = 7\nvalue = [0, 0, 7]", fillcolor="#8139e5"] ;
11 -> 12 ;
13 [label="gini = 0.0\nsamples = 1\nvalue = [0, 1, 0]", fillcolor="#39e581"] ;
11 -> 13 ;
14 [label="gini = 0.0\nsamples = 2\nvalue = [0, 2, 0]", fillcolor="#39e581"] ;
10 -> 14 ;
15 [label="gini = 0.0\nsamples = 3\nvalue = [0, 3, 0]", fillcolor="#39e581"] ;
9 -> 15 ;
16 [label="Age_45-54 <= 0.5\ngini = 0.23\nsamples = 38\nvalue = [0, 5, 33]", fillcolor="#9457e9"] ;
8 -> 16 ;
17 [label="Escore <= 0.56\ngini = 0.19\nsamples = 37\nvalue = [0, 4, 33]", fillcolor="#9051e8"] ;
16 -> 17 ;
18 [label="gini = 0.0\nsamples = 16\nvalue = [0, 0, 16]", fillcolor="#8139e5"] ;
17 -> 18 ;
19 [label="Escore <= 0.72\ngini = 0.31\nsamples = 21\nvalue = [0, 4, 17]", fillcolor="#9f68eb"] ;
17 -> 19 ;
20 [label="gini = 0.0\nsamples = 1\nvalue = [0, 1, 0]", fillcolor="#39e581"] ;
19 -> 20 ;
21 [label="no_degree <= 0.5\ngini = 0.26\nsamples = 20\nvalue = [0, 3, 17]", fillcolor="#975cea"] ;
19 -> 21 ;
22 [label="gini = 0.0\nsamples = 9\nvalue = [0, 0, 9]", fillcolor="#8139e5"] ;
21 -> 22 ;
23 [label="australia <= 0.5\ngini = 0.4\nsamples = 11\nvalue = [0, 3, 8]", fillcolor="#b083ef"] ;
21 -> 23 ;
24 [label="Ascore <= -0.31\ngini = 0.32\nsamples = 10\nvalue = [0, 2, 8]", fillcolor="#a06aec"] ;
23 -> 24 ;
25 [label="Ascore <= -0.76\ngini = 0.48\nsamples = 5\nvalue = [0, 2, 3]", fillcolor="#d5bdf6"] ;
24 -> 25 ;
26 [label="gini = 0.0\nsamples = 3\nvalue = [0, 0, 3]", fillcolor="#8139e5"] ;
25 -> 26 ;
27 [label="gini = 0.0\nsamples = 2\nvalue = [0, 2, 0]", fillcolor="#39e581"] ;
25 -> 27 ;
28 [label="gini = 0.0\nsamples = 5\nvalue = [0, 0, 5]", fillcolor="#8139e5"] ;
24 -> 28 ;
29 [label="gini = 0.0\nsamples = 1\nvalue = [0, 1, 0]", fillcolor="#39e581"] ;
23 -> 29 ;
30 [label="gini = 0.0\nsamples = 1\nvalue = [0, 1, 0]", fillcolor="#39e581"] ;
16 -> 30 ;
31 [label="gini = 0.0\nsamples = 2\nvalue = [0, 2, 0]", fillcolor="#39e581"] ;
7 -> 31 ;
32 [label="Age_45-54 <= 0.5\ngini = 0.54\nsamples = 24\nvalue = [1, 12, 11]", fillcolor="#f0fdf5"] ;
6 -> 32 ;
33 [label="Age_25-34 <= 0.5\ngini = 0.52\nsamples = 20\nvalue = [1, 12, 7]", fillcolor="#b3f5cf"] ;
32 -> 33 ;
34 [label="Ascore <= -1.11\ngini = 0.34\nsamples = 14\nvalue = [0, 11, 3]", fillcolor="#6feca3"] ;
33 -> 34 ;
35 [label="gini = 0.0\nsamples = 1\nvalue = [0, 0, 1]", fillcolor="#8139e5"] ;
34 -> 35 ;
36 [label="Oscore <= -0.78\ngini = 0.26\nsamples = 13\nvalue = [0, 11, 2]", fillcolor="#5dea98"] ;
34 -> 36 ;
37 [label="gini = 0.0\nsamples = 1\nvalue = [0, 0, 1]", fillcolor="#8139e5"] ;
36 -> 37 ;
38 [label="Ascore <= 1.11\ngini = 0.15\nsamples = 12\nvalue = [0, 11, 1]", fillcolor="#4be78c"] ;
36 -> 38 ;
39 [label="gini = 0.0\nsamples = 10\nvalue = [0, 10, 0]", fillcolor="#39e581"] ;
38 -> 39 ;
40 [label="Female <= 0.5\ngini = 0.5\nsamples = 2\nvalue = [0, 1, 1]", fillcolor="#ffffff"] ;
38 -> 40 ;
41 [label="gini = 0.0\nsamples = 1\nvalue = [0, 1, 0]", fillcolor="#39e581"] ;
40 -> 41 ;
42 [label="gini = 0.0\nsamples = 1\nvalue = [0, 0, 1]", fillcolor="#8139e5"] ;
40 -> 42 ;
43 [label="Escore <= 1.04\ngini = 0.5\nsamples = 6\nvalue = [1, 1, 4]", fillcolor="#b388ef"] ;
33 -> 43 ;
44 [label="gini = 0.0\nsamples = 4\nvalue = [0, 0, 4]", fillcolor="#8139e5"] ;
43 -> 44 ;
45 [label="Escore <= 1.28\ngini = 0.5\nsamples = 2\nvalue = [1, 1, 0]", fillcolor="#ffffff"] ;
43 -> 45 ;
46 [label="gini = 0.0\nsamples = 1\nvalue = [0, 1, 0]", fillcolor="#39e581"] ;
45 -> 46 ;
47 [label="gini = 0.0\nsamples = 1\nvalue = [1, 0, 0]", fillcolor="#e58139"] ;
45 -> 47 ;
48 [label="gini = 0.0\nsamples = 4\nvalue = [0, 0, 4]", fillcolor="#8139e5"] ;
32 -> 48 ;
49 [label="SS <= -0.69\ngini = 0.29\nsamples = 520\nvalue = [18, 70, 432]", fillcolor="#9a60ea"] ;
1 -> 49 ;
50 [label="Oscore <= 0.22\ngini = 0.53\nsamples = 76\nvalue = [10, 18, 48]", fillcolor="#be99f2"] ;
49 -> 50 ;
51 [label="Female <= 0.5\ngini = 0.6\nsamples = 53\nvalue = [9, 16, 28]", fillcolor="#d6bff7"] ;
50 -> 51 ;
52 [label="Oscore <= -1.82\ngini = 0.36\nsamples = 21\nvalue = [0, 5, 16]", fillcolor="#a877ed"] ;
51 -> 52 ;
53 [label="gini = 0.0\nsamples = 2\nvalue = [0, 2, 0]", fillcolor="#39e581"] ;
52 -> 53 ;
54 [label="other_c <= 0.5\ngini = 0.27\nsamples = 19\nvalue = [0, 3, 16]", fillcolor="#995eea"] ;
52 -> 54 ;
55 [label="Ascore <= 0.94\ngini = 0.2\nsamples = 18\nvalue = [0, 2, 16]", fillcolor="#9152e8"] ;
54 -> 55 ;
56 [label="Cscore <= -0.71\ngini = 0.11\nsamples = 17\nvalue = [0, 1, 16]", fillcolor="#8945e7"] ;
55 -> 56 ;
57 [label="Cscore <= -1.02\ngini = 0.44\nsamples = 3\nvalue = [0, 1, 2]", fillcolor="#c09cf2"] ;
56 -> 57 ;
58 [label="gini = 0.0\nsamples = 2\nvalue = [0, 0, 2]", fillcolor="#8139e5"] ;
57 -> 58 ;
59 [label="gini = 0.0\nsamples = 1\nvalue = [0, 1, 0]", fillcolor="#39e581"] ;
57 -> 59 ;
60 [label="gini = 0.0\nsamples = 14\nvalue = [0, 0, 14]", fillcolor="#8139e5"] ;
56 -> 60 ;
61 [label="gini = 0.0\nsamples = 1\nvalue = [0, 1, 0]", fillcolor="#39e581"] ;
55 -> 61 ;
62 [label="gini = 0.0\nsamples = 1\nvalue = [0, 1, 0]", fillcolor="#39e581"] ;
54 -> 62 ;
63 [label="Escore <= -1.3\ngini = 0.66\nsamples = 32\nvalue = [9, 11, 12]", fillcolor="#f9f6fe"] ;
51 -> 63 ;
64 [label="Nscore <= 0.57\ngini = 0.51\nsamples = 11\nvalue = [1, 3, 7]", fillcolor="#c09cf2"] ;
63 -> 64 ;
65 [label="Nscore <= 0.13\ngini = 0.44\nsamples = 3\nvalue = [1, 2, 0]", fillcolor="#9cf2c0"] ;
64 -> 65 ;
66 [label="gini = 0.0\nsamples = 2\nvalue = [0, 2, 0]", fillcolor="#39e581"] ;
65 -> 66 ;
67 [label="gini = 0.0\nsamples = 1\nvalue = [1, 0, 0]", fillcolor="#e58139"] ;
65 -> 67 ;
68 [label="Ascore <= 2.4\ngini = 0.22\nsamples = 8\nvalue = [0, 1, 7]", fillcolor="#9355e9"] ;
64 -> 68 ;
69 [label="gini = 0.0\nsamples = 7\nvalue = [0, 0, 7]", fillcolor="#8139e5"] ;
68 -> 69 ;
70 [label="gini = 0.0\nsamples = 1\nvalue = [0, 1, 0]", fillcolor="#39e581"] ;
68 -> 70 ;
71 [label="Age_35-44 <= 0.5\ngini = 0.65\nsamples = 21\nvalue = [8, 8, 5]", fillcolor="#ffffff"] ;
63 -> 71 ;
72 [label="SS <= -1.81\ngini = 0.62\nsamples = 16\nvalue = [4, 8, 4]", fillcolor="#bdf6d5"] ;
71 -> 72 ;
73 [label="Escore <= -0.64\ngini = 0.38\nsamples = 4\nvalue = [1, 0, 3]", fillcolor="#ab7bee"] ;
72 -> 73 ;
74 [label="gini = 0.0\nsamples = 1\nvalue = [1, 0, 0]", fillcolor="#e58139"] ;
73 -> 74 ;
75 [label="gini = 0.0\nsamples = 3\nvalue = [0, 0, 3]", fillcolor="#8139e5"] ;
73 -> 75 ;
76 [label="Cscore <= 1.55\ngini = 0.49\nsamples = 12\nvalue = [3, 8, 1]", fillcolor="#91f1b9"] ;
72 -> 76 ;
77 [label="master <= 0.5\ngini = 0.34\nsamples = 10\nvalue = [1, 8, 1]", fillcolor="#65eb9d"] ;
76 -> 77 ;
78 [label="other_c <= 0.5\ngini = 0.2\nsamples = 9\nvalue = [0, 8, 1]", fillcolor="#52e891"] ;
77 -> 78 ;
79 [label="gini = 0.0\nsamples = 7\nvalue = [0, 7, 0]", fillcolor="#39e581"] ;
78 -> 79 ;
80 [label="Impulsive <= -0.59\ngini = 0.5\nsamples = 2\nvalue = [0, 1, 1]", fillcolor="#ffffff"] ;
78 -> 80 ;
81 [label="gini = 0.0\nsamples = 1\nvalue = [0, 0, 1]", fillcolor="#8139e5"] ;
80 -> 81 ;
82 [label="gini = 0.0\nsamples = 1\nvalue = [0, 1, 0]", fillcolor="#39e581"] ;
80 -> 82 ;
83 [label="gini = 0.0\nsamples = 1\nvalue = [1, 0, 0]", fillcolor="#e58139"] ;
77 -> 83 ;
84 [label="gini = 0.0\nsamples = 2\nvalue = [2, 0, 0]", fillcolor="#e58139"] ;
76 -> 84 ;
85 [label="Oscore <= -1.96\ngini = 0.32\nsamples = 5\nvalue = [4, 0, 1]", fillcolor="#eca06a"] ;
71 -> 85 ;
86 [label="gini = 0.0\nsamples = 1\nvalue = [0, 0, 1]", fillcolor="#8139e5"] ;
85 -> 86 ;
87 [label="gini = 0.0\nsamples = 4\nvalue = [4, 0, 0]", fillcolor="#e58139"] ;
85 -> 87 ;
88 [label="australia <= 0.5\ngini = 0.23\nsamples = 23\nvalue = [1, 2, 20]", fillcolor="#9355e9"] ;
50 -> 88 ;
89 [label="Ascore <= -1.35\ngini = 0.17\nsamples = 22\nvalue = [1, 1, 20]", fillcolor="#8d4ce7"] ;
88 -> 89 ;
90 [label="gini = 0.0\nsamples = 1\nvalue = [0, 1, 0]", fillcolor="#39e581"] ;
89 -> 90 ;
91 [label="Cscore <= -1.51\ngini = 0.09\nsamples = 21\nvalue = [1, 0, 20]", fillcolor="#8743e6"] ;
89 -> 91 ;
92 [label="university <= 0.5\ngini = 0.44\nsamples = 3\nvalue = [1, 0, 2]", fillcolor="#c09cf2"] ;
91 -> 92 ;
93 [label="gini = 0.0\nsamples = 2\nvalue = [0, 0, 2]", fillcolor="#8139e5"] ;
92 -> 93 ;
94 [label="gini = 0.0\nsamples = 1\nvalue = [1, 0, 0]", fillcolor="#e58139"] ;
92 -> 94 ;
95 [label="gini = 0.0\nsamples = 18\nvalue = [0, 0, 18]", fillcolor="#8139e5"] ;
91 -> 95 ;
96 [label="gini = 0.0\nsamples = 1\nvalue = [0, 1, 0]", fillcolor="#39e581"] ;
88 -> 96 ;
97 [label="no_degree <= 0.5\ngini = 0.24\nsamples = 444\nvalue = [8, 52, 384]", fillcolor="#9457e9"] ;
49 -> 97 ;
98 [label="Impulsive <= -1.97\ngini = 0.17\nsamples = 239\nvalue = [6, 16, 217]", fillcolor="#8d4de8"] ;
97 -> 98 ;
99 [label="gini = 0.0\nsamples = 1\nvalue = [0, 1, 0]", fillcolor="#39e581"] ;
98 -> 99 ;
100 [label="master <= 0.5\ngini = 0.16\nsamples = 238\nvalue = [6, 15, 217]", fillcolor="#8d4ce7"] ;
98 -> 100 ;
101 [label="Ascore <= 2.61\ngini = 0.13\nsamples = 211\nvalue = [4, 10, 197]", fillcolor="#8a47e7"] ;
100 -> 101 ;
102 [label="canada <= 0.5\ngini = 0.12\nsamples = 209\nvalue = [4, 9, 196]", fillcolor="#8946e7"] ;
101 -> 102 ;
103 [label="Ascore <= -2.0\ngini = 0.09\nsamples = 180\nvalue = [3, 5, 172]", fillcolor="#8742e6"] ;
102 -> 103 ;
104 [label="Cscore <= 0.38\ngini = 0.35\nsamples = 9\nvalue = [0, 2, 7]", fillcolor="#a572ec"] ;
103 -> 104 ;
105 [label="gini = 0.0\nsamples = 6\nvalue = [0, 0, 6]", fillcolor="#8139e5"] ;
104 -> 105 ;
106 [label="diploma <= 0.5\ngini = 0.44\nsamples = 3\nvalue = [0, 2, 1]", fillcolor="#9cf2c0"] ;
104 -> 106 ;
107 [label="gini = 0.0\nsamples = 2\nvalue = [0, 2, 0]", fillcolor="#39e581"] ;
106 -> 107 ;
108 [label="gini = 0.0\nsamples = 1\nvalue = [0, 0, 1]", fillcolor="#8139e5"] ;
106 -> 108 ;
109 [label="Oscore <= -1.35\ngini = 0.07\nsamples = 171\nvalue = [3, 3, 165]", fillcolor="#8540e6"] ;
103 -> 109 ;
110 [label="Nscore <= 0.03\ngini = 0.28\nsamples = 6\nvalue = [1, 0, 5]", fillcolor="#9a61ea"] ;
109 -> 110 ;
111 [label="gini = 0.0\nsamples = 1\nvalue = [1, 0, 0]", fillcolor="#e58139"] ;
110 -> 111 ;
112 [label="gini = 0.0\nsamples = 5\nvalue = [0, 0, 5]", fillcolor="#8139e5"] ;
110 -> 112 ;
113 [label="Cscore <= 1.55\ngini = 0.06\nsamples = 165\nvalue = [2, 3, 160]", fillcolor="#853fe6"] ;
109 -> 113 ;
114 [label="australia <= 0.5\ngini = 0.05\nsamples = 158\nvalue = [2, 2, 154]", fillcolor="#843ee6"] ;
113 -> 114 ;
115 [label="doctorate <= 0.5\ngini = 0.03\nsamples = 139\nvalue = [1, 1, 137]", fillcolor="#833ce5"] ;
114 -> 115 ;
116 [label="Ascore <= 0.68\ngini = 0.02\nsamples = 130\nvalue = [0, 1, 129]", fillcolor="#823be5"] ;
115 -> 116 ;
117 [label="gini = 0.0\nsamples = 107\nvalue = [0, 0, 107]", fillcolor="#8139e5"] ;
116 -> 117 ;
118 [label="Escore <= -0.82\ngini = 0.08\nsamples = 23\nvalue = [0, 1, 22]", fillcolor="#8742e6"] ;
116 -> 118 ;
119 [label="Escore <= -1.09\ngini = 0.32\nsamples = 5\nvalue = [0, 1, 4]", fillcolor="#a06aec"] ;
118 -> 119 ;
120 [label="gini = 0.0\nsamples = 3\nvalue = [0, 0, 3]", fillcolor="#8139e5"] ;
119 -> 120 ;
121 [label="Impulsive <= -0.8\ngini = 0.5\nsamples = 2\nvalue = [0, 1, 1]", fillcolor="#ffffff"] ;
119 -> 121 ;
122 [label="gini = 0.0\nsamples = 1\nvalue = [0, 0, 1]", fillcolor="#8139e5"] ;
121 -> 122 ;
123 [label="gini = 0.0\nsamples = 1\nvalue = [0, 1, 0]", fillcolor="#39e581"] ;
121 -> 123 ;
124 [label="gini = 0.0\nsamples = 18\nvalue = [0, 0, 18]", fillcolor="#8139e5"] ;
118 -> 124 ;
125 [label="SS <= -0.37\ngini = 0.2\nsamples = 9\nvalue = [1, 0, 8]", fillcolor="#9152e8"] ;
115 -> 125 ;
126 [label="gini = 0.0\nsamples = 1\nvalue = [1, 0, 0]", fillcolor="#e58139"] ;
125 -> 126 ;
127 [label="gini = 0.0\nsamples = 8\nvalue = [0, 0, 8]", fillcolor="#8139e5"] ;
125 -> 127 ;
128 [label="Nscore <= -0.2\ngini = 0.19\nsamples = 19\nvalue = [1, 1, 17]", fillcolor="#8f4fe8"] ;
114 -> 128 ;
129 [label="SS <= 0.81\ngini = 0.62\nsamples = 4\nvalue = [1, 1, 2]", fillcolor="#d5bdf6"] ;
128 -> 129 ;
130 [label="gini = 0.0\nsamples = 2\nvalue = [0, 0, 2]", fillcolor="#8139e5"] ;
129 -> 130 ;
131 [label="Oscore <= 0.2\ngini = 0.5\nsamples = 2\nvalue = [1, 1, 0]", fillcolor="#ffffff"] ;
129 -> 131 ;
132 [label="gini = 0.0\nsamples = 1\nvalue = [1, 0, 0]", fillcolor="#e58139"] ;
131 -> 132 ;
133 [label="gini = 0.0\nsamples = 1\nvalue = [0, 1, 0]", fillcolor="#39e581"] ;
131 -> 133 ;
134 [label="gini = 0.0\nsamples = 15\nvalue = [0, 0, 15]", fillcolor="#8139e5"] ;
128 -> 134 ;
135 [label="Cscore <= 1.72\ngini = 0.24\nsamples = 7\nvalue = [0, 1, 6]", fillcolor="#965ae9"] ;
113 -> 135 ;
136 [label="gini = 0.0\nsamples = 1\nvalue = [0, 1, 0]", fillcolor="#39e581"] ;
135 -> 136 ;
137 [label="gini = 0.0\nsamples = 6\nvalue = [0, 0, 6]", fillcolor="#8139e5"] ;
135 -> 137 ;
138 [label="Cscore <= -2.11\ngini = 0.29\nsamples = 29\nvalue = [1, 4, 24]", fillcolor="#9a61ea"] ;
102 -> 138 ;
139 [label="gini = 0.0\nsamples = 1\nvalue = [0, 1, 0]", fillcolor="#39e581"] ;
138 -> 139 ;
140 [label="Cscore <= 1.64\ngini = 0.25\nsamples = 28\nvalue = [1, 3, 24]", fillcolor="#9559e9"] ;
138 -> 140 ;
141 [label="Ascore <= -1.14\ngini = 0.2\nsamples = 27\nvalue = [1, 2, 24]", fillcolor="#9051e8"] ;
140 -> 141 ;
142 [label="diploma <= 0.5\ngini = 0.44\nsamples = 6\nvalue = [0, 2, 4]", fillcolor="#c09cf2"] ;
141 -> 142 ;
143 [label="gini = 0.0\nsamples = 3\nvalue = [0, 0, 3]", fillcolor="#8139e5"] ;
142 -> 143 ;
144 [label="Impulsive <= 1.2\ngini = 0.44\nsamples = 3\nvalue = [0, 2, 1]", fillcolor="#9cf2c0"] ;
142 -> 144 ;
145 [label="gini = 0.0\nsamples = 2\nvalue = [0, 2, 0]", fillcolor="#39e581"] ;
144 -> 145 ;
146 [label="gini = 0.0\nsamples = 1\nvalue = [0, 0, 1]", fillcolor="#8139e5"] ;
144 -> 146 ;
147 [label="Age_45-54 <= 0.5\ngini = 0.09\nsamples = 21\nvalue = [1, 0, 20]", fillcolor="#8743e6"] ;
141 -> 147 ;
148 [label="gini = 0.0\nsamples = 18\nvalue = [0, 0, 18]", fillcolor="#8139e5"] ;
147 -> 148 ;
149 [label="Nscore <= 0.53\ngini = 0.44\nsamples = 3\nvalue = [1, 0, 2]", fillcolor="#c09cf2"] ;
147 -> 149 ;
150 [label="gini = 0.0\nsamples = 1\nvalue = [1, 0, 0]", fillcolor="#e58139"] ;
149 -> 150 ;
151 [label="gini = 0.0\nsamples = 2\nvalue = [0, 0, 2]", fillcolor="#8139e5"] ;
149 -> 151 ;
152 [label="gini = 0.0\nsamples = 1\nvalue = [0, 1, 0]", fillcolor="#39e581"] ;
140 -> 152 ;
153 [label="Nscore <= 1.1\ngini = 0.5\nsamples = 2\nvalue = [0, 1, 1]", fillcolor="#ffffff"] ;
101 -> 153 ;
154 [label="gini = 0.0\nsamples = 1\nvalue = [0, 1, 0]", fillcolor="#39e581"] ;
153 -> 154 ;
155 [label="gini = 0.0\nsamples = 1\nvalue = [0, 0, 1]", fillcolor="#8139e5"] ;
153 -> 155 ;
156 [label="Escore <= -0.23\ngini = 0.41\nsamples = 27\nvalue = [2, 5, 20]", fillcolor="#a978ed"] ;
100 -> 156 ;
157 [label="Nscore <= 0.52\ngini = 0.58\nsamples = 10\nvalue = [1, 4, 5]", fillcolor="#eadefb"] ;
156 -> 157 ;
158 [label="SS <= 1.34\ngini = 0.57\nsamples = 7\nvalue = [1, 4, 2]", fillcolor="#b0f5cd"] ;
157 -> 158 ;
159 [label="gini = 0.0\nsamples = 4\nvalue = [0, 4, 0]", fillcolor="#39e581"] ;
158 -> 159 ;
160 [label="white <= 0.5\ngini = 0.44\nsamples = 3\nvalue = [1, 0, 2]", fillcolor="#c09cf2"] ;
158 -> 160 ;
161 [label="gini = 0.0\nsamples = 1\nvalue = [1, 0, 0]", fillcolor="#e58139"] ;
160 -> 161 ;
162 [label="gini = 0.0\nsamples = 2\nvalue = [0, 0, 2]", fillcolor="#8139e5"] ;
160 -> 162 ;
163 [label="gini = 0.0\nsamples = 3\nvalue = [0, 0, 3]", fillcolor="#8139e5"] ;
157 -> 163 ;
164 [label="Oscore <= 2.02\ngini = 0.21\nsamples = 17\nvalue = [1, 1, 15]", fillcolor="#9152e8"] ;
156 -> 164 ;
165 [label="Impulsive <= -0.46\ngini = 0.12\nsamples = 16\nvalue = [0, 1, 15]", fillcolor="#8946e7"] ;
164 -> 165 ;
166 [label="other_c <= 0.5\ngini = 0.5\nsamples = 2\nvalue = [0, 1, 1]", fillcolor="#ffffff"] ;
165 -> 166 ;
167 [label="gini = 0.0\nsamples = 1\nvalue = [0, 1, 0]", fillcolor="#39e581"] ;
166 -> 167 ;
168 [label="gini = 0.0\nsamples = 1\nvalue = [0, 0, 1]", fillcolor="#8139e5"] ;
166 -> 168 ;
169 [label="gini = 0.0\nsamples = 14\nvalue = [0, 0, 14]", fillcolor="#8139e5"] ;
165 -> 169 ;
170 [label="gini = 0.0\nsamples = 1\nvalue = [1, 0, 0]", fillcolor="#e58139"] ;
164 -> 170 ;
171 [label="Escore <= -1.57\ngini = 0.31\nsamples = 205\nvalue = [2, 36, 167]", fillcolor="#9d66eb"] ;
97 -> 171 ;
172 [label="Oscore <= 1.34\ngini = 0.47\nsamples = 21\nvalue = [0, 8, 13]", fillcolor="#cfb3f5"] ;
171 -> 172 ;
173 [label="Cscore <= -0.96\ngini = 0.43\nsamples = 19\nvalue = [0, 6, 13]", fillcolor="#bb94f1"] ;
172 -> 173 ;
174 [label="Cscore <= -2.44\ngini = 0.2\nsamples = 9\nvalue = [0, 1, 8]", fillcolor="#9152e8"] ;
173 -> 174 ;
175 [label="SS <= 0.5\ngini = 0.5\nsamples = 2\nvalue = [0, 1, 1]", fillcolor="#ffffff"] ;
174 -> 175 ;
176 [label="gini = 0.0\nsamples = 1\nvalue = [0, 0, 1]", fillcolor="#8139e5"] ;
175 -> 176 ;
177 [label="gini = 0.0\nsamples = 1\nvalue = [0, 1, 0]", fillcolor="#39e581"] ;
175 -> 177 ;
178 [label="gini = 0.0\nsamples = 7\nvalue = [0, 0, 7]", fillcolor="#8139e5"] ;
174 -> 178 ;
179 [label="Nscore <= 1.37\ngini = 0.5\nsamples = 10\nvalue = [0, 5, 5]", fillcolor="#ffffff"] ;
173 -> 179 ;
180 [label="Nscore <= 0.13\ngini = 0.41\nsamples = 7\nvalue = [0, 2, 5]", fillcolor="#b388ef"] ;
179 -> 180 ;
181 [label="Nscore <= -0.31\ngini = 0.44\nsamples = 3\nvalue = [0, 2, 1]", fillcolor="#9cf2c0"] ;
180 -> 181 ;
182 [label="gini = 0.0\nsamples = 1\nvalue = [0, 0, 1]", fillcolor="#8139e5"] ;
181 -> 182 ;
183 [label="gini = 0.0\nsamples = 2\nvalue = [0, 2, 0]", fillcolor="#39e581"] ;
181 -> 183 ;
184 [label="gini = 0.0\nsamples = 4\nvalue = [0, 0, 4]", fillcolor="#8139e5"] ;
180 -> 184 ;
185 [label="gini = 0.0\nsamples = 3\nvalue = [0, 3, 0]", fillcolor="#39e581"] ;
179 -> 185 ;
186 [label="gini = 0.0\nsamples = 2\nvalue = [0, 2, 0]", fillcolor="#39e581"] ;
172 -> 186 ;
187 [label="Cscore <= 1.22\ngini = 0.28\nsamples = 184\nvalue = [2, 28, 154]", fillcolor="#995fea"] ;
171 -> 187 ;
188 [label="Ascore <= 2.14\ngini = 0.26\nsamples = 179\nvalue = [2, 25, 152]", fillcolor="#975cea"] ;
187 -> 188 ;
189 [label="Nscore <= -0.63\ngini = 0.25\nsamples = 178\nvalue = [2, 24, 152]", fillcolor="#965ae9"] ;
188 -> 189 ;
190 [label="Oscore <= 0.51\ngini = 0.41\nsamples = 21\nvalue = [0, 6, 15]", fillcolor="#b388ef"] ;
189 -> 190 ;
191 [label="Cscore <= 0.13\ngini = 0.5\nsamples = 12\nvalue = [0, 6, 6]", fillcolor="#ffffff"] ;
190 -> 191 ;
192 [label="Oscore <= 0.14\ngini = 0.41\nsamples = 7\nvalue = [0, 5, 2]", fillcolor="#88efb3"] ;
191 -> 192 ;
193 [label="gini = 0.0\nsamples = 4\nvalue = [0, 4, 0]", fillcolor="#39e581"] ;
192 -> 193 ;
194 [label="Escore <= 0.88\ngini = 0.44\nsamples = 3\nvalue = [0, 1, 2]", fillcolor="#c09cf2"] ;
192 -> 194 ;
195 [label="gini = 0.0\nsamples = 2\nvalue = [0, 0, 2]", fillcolor="#8139e5"] ;
194 -> 195 ;
196 [label="gini = 0.0\nsamples = 1\nvalue = [0, 1, 0]", fillcolor="#39e581"] ;
194 -> 196 ;
197 [label="Oscore <= 0.13\ngini = 0.32\nsamples = 5\nvalue = [0, 1, 4]", fillcolor="#a06aec"] ;
191 -> 197 ;
198 [label="gini = 0.0\nsamples = 4\nvalue = [0, 0, 4]", fillcolor="#8139e5"] ;
197 -> 198 ;
199 [label="gini = 0.0\nsamples = 1\nvalue = [0, 1, 0]", fillcolor="#39e581"] ;
197 -> 199 ;
200 [label="gini = 0.0\nsamples = 9\nvalue = [0, 0, 9]", fillcolor="#8139e5"] ;
190 -> 200 ;
201 [label="Ascore <= -1.93\ngini = 0.23\nsamples = 157\nvalue = [2, 18, 137]", fillcolor="#9355e9"] ;
189 -> 201 ;
202 [label="Nscore <= 0.88\ngini = 0.48\nsamples = 5\nvalue = [0, 2, 3]", fillcolor="#d5bdf6"] ;
201 -> 202 ;
203 [label="gini = 0.0\nsamples = 2\nvalue = [0, 2, 0]", fillcolor="#39e581"] ;
202 -> 203 ;
204 [label="gini = 0.0\nsamples = 3\nvalue = [0, 0, 3]", fillcolor="#8139e5"] ;
202 -> 204 ;
205 [label="Oscore <= 0.8\ngini = 0.21\nsamples = 152\nvalue = [2, 16, 134]", fillcolor="#9253e8"] ;
201 -> 205 ;
206 [label="Female <= 0.5\ngini = 0.14\nsamples = 95\nvalue = [1, 6, 88]", fillcolor="#8b49e7"] ;
205 -> 206 ;
207 [label="Escore <= 0.24\ngini = 0.06\nsamples = 64\nvalue = [0, 2, 62]", fillcolor="#853fe6"] ;
206 -> 207 ;
208 [label="gini = 0.0\nsamples = 44\nvalue = [0, 0, 44]", fillcolor="#8139e5"] ;
207 -> 208 ;
209 [label="Oscore <= 0.14\ngini = 0.18\nsamples = 20\nvalue = [0, 2, 18]", fillcolor="#8f4fe8"] ;
207 -> 209 ;
210 [label="SS <= 0.42\ngini = 0.41\nsamples = 7\nvalue = [0, 2, 5]", fillcolor="#b388ef"] ;
209 -> 210 ;
211 [label="gini = 0.0\nsamples = 1\nvalue = [0, 1, 0]", fillcolor="#39e581"] ;
210 -> 211 ;
212 [label="Impulsive <= 1.09\ngini = 0.28\nsamples = 6\nvalue = [0, 1, 5]", fillcolor="#9a61ea"] ;
210 -> 212 ;
213 [label="gini = 0.0\nsamples = 4\nvalue = [0, 0, 4]", fillcolor="#8139e5"] ;
212 -> 213 ;
214 [label="Escore <= 0.72\ngini = 0.5\nsamples = 2\nvalue = [0, 1, 1]", fillcolor="#ffffff"] ;
212 -> 214 ;
215 [label="gini = 0.0\nsamples = 1\nvalue = [0, 0, 1]", fillcolor="#8139e5"] ;
214 -> 215 ;
216 [label="gini = 0.0\nsamples = 1\nvalue = [0, 1, 0]", fillcolor="#39e581"] ;
214 -> 216 ;
217 [label="gini = 0.0\nsamples = 13\nvalue = [0, 0, 13]", fillcolor="#8139e5"] ;
209 -> 217 ;
218 [label="SS <= 0.58\ngini = 0.28\nsamples = 31\nvalue = [1, 4, 26]", fillcolor="#985eea"] ;
206 -> 218 ;
219 [label="Nscore <= 1.49\ngini = 0.43\nsamples = 18\nvalue = [1, 4, 13]", fillcolor="#ae80ee"] ;
218 -> 219 ;
220 [label="Cscore <= -0.78\ngini = 0.36\nsamples = 17\nvalue = [0, 4, 13]", fillcolor="#a876ed"] ;
219 -> 220 ;
221 [label="canada <= 0.5\ngini = 0.44\nsamples = 3\nvalue = [0, 2, 1]", fillcolor="#9cf2c0"] ;
220 -> 221 ;
222 [label="gini = 0.0\nsamples = 2\nvalue = [0, 2, 0]", fillcolor="#39e581"] ;
221 -> 222 ;
223 [label="gini = 0.0\nsamples = 1\nvalue = [0, 0, 1]", fillcolor="#8139e5"] ;
221 -> 223 ;
224 [label="SS <= 0.24\ngini = 0.24\nsamples = 14\nvalue = [0, 2, 12]", fillcolor="#965ae9"] ;
220 -> 224 ;
225 [label="Nscore <= 1.3\ngini = 0.14\nsamples = 13\nvalue = [0, 1, 12]", fillcolor="#8c49e7"] ;
224 -> 225 ;
226 [label="gini = 0.0\nsamples = 10\nvalue = [0, 0, 10]", fillcolor="#8139e5"] ;
225 -> 226 ;
227 [label="Oscore <= 0.21\ngini = 0.44\nsamples = 3\nvalue = [0, 1, 2]", fillcolor="#c09cf2"] ;
225 -> 227 ;
228 [label="gini = 0.0\nsamples = 1\nvalue = [0, 1, 0]", fillcolor="#39e581"] ;
227 -> 228 ;
229 [label="gini = 0.0\nsamples = 2\nvalue = [0, 0, 2]", fillcolor="#8139e5"] ;
227 -> 229 ;
230 [label="gini = 0.0\nsamples = 1\nvalue = [0, 1, 0]", fillcolor="#39e581"] ;
224 -> 230 ;
231 [label="gini = 0.0\nsamples = 1\nvalue = [1, 0, 0]", fillcolor="#e58139"] ;
219 -> 231 ;
232 [label="gini = 0.0\nsamples = 13\nvalue = [0, 0, 13]", fillcolor="#8139e5"] ;
218 -> 232 ;
233 [label="Nscore <= 0.27\ngini = 0.32\nsamples = 57\nvalue = [1, 10, 46]", fillcolor="#9e67eb"] ;
205 -> 233 ;
234 [label="Escore <= 1.21\ngini = 0.08\nsamples = 24\nvalue = [1, 0, 23]", fillcolor="#8642e6"] ;
233 -> 234 ;
235 [label="gini = 0.0\nsamples = 18\nvalue = [0, 0, 18]", fillcolor="#8139e5"] ;
234 -> 235 ;
236 [label="Cscore <= -0.34\ngini = 0.28\nsamples = 6\nvalue = [1, 0, 5]", fillcolor="#9a61ea"] ;
234 -> 236 ;
237 [label="gini = 0.0\nsamples = 4\nvalue = [0, 0, 4]", fillcolor="#8139e5"] ;
236 -> 237 ;
238 [label="Nscore <= -0.36\ngini = 0.5\nsamples = 2\nvalue = [1, 0, 1]", fillcolor="#ffffff"] ;
236 -> 238 ;
239 [label="gini = 0.0\nsamples = 1\nvalue = [0, 0, 1]", fillcolor="#8139e5"] ;
238 -> 239 ;
240 [label="gini = 0.0\nsamples = 1\nvalue = [1, 0, 0]", fillcolor="#e58139"] ;
238 -> 240 ;
241 [label="Impulsive <= -0.46\ngini = 0.42\nsamples = 33\nvalue = [0, 10, 23]", fillcolor="#b88ff0"] ;
233 -> 241 ;
242 [label="Ascore <= -0.09\ngini = 0.38\nsamples = 4\nvalue = [0, 3, 1]", fillcolor="#7beeab"] ;
241 -> 242 ;
243 [label="gini = 0.0\nsamples = 1\nvalue = [0, 0, 1]", fillcolor="#8139e5"] ;
242 -> 243 ;
244 [label="gini = 0.0\nsamples = 3\nvalue = [0, 3, 0]", fillcolor="#39e581"] ;
242 -> 244 ;
245 [label="canada <= 0.5\ngini = 0.37\nsamples = 29\nvalue = [0, 7, 22]", fillcolor="#a978ed"] ;
241 -> 245 ;
246 [label="Female <= 0.5\ngini = 0.34\nsamples = 28\nvalue = [0, 6, 22]", fillcolor="#a36fec"] ;
245 -> 246 ;
247 [label="Ascore <= 0.51\ngini = 0.44\nsamples = 18\nvalue = [0, 6, 12]", fillcolor="#c09cf2"] ;
246 -> 247 ;
248 [label="Oscore <= 1.45\ngini = 0.5\nsamples = 13\nvalue = [0, 6, 7]", fillcolor="#ede3fb"] ;
247 -> 248 ;
249 [label="Escore <= 1.2\ngini = 0.41\nsamples = 7\nvalue = [0, 5, 2]", fillcolor="#88efb3"] ;
248 -> 249 ;
250 [label="Cscore <= -1.45\ngini = 0.28\nsamples = 6\nvalue = [0, 5, 1]", fillcolor="#61ea9a"] ;
249 -> 250 ;
251 [label="Nscore <= 0.77\ngini = 0.5\nsamples = 2\nvalue = [0, 1, 1]", fillcolor="#ffffff"] ;
250 -> 251 ;
252 [label="gini = 0.0\nsamples = 1\nvalue = [0, 1, 0]", fillcolor="#39e581"] ;
251 -> 252 ;
253 [label="gini = 0.0\nsamples = 1\nvalue = [0, 0, 1]", fillcolor="#8139e5"] ;
251 -> 253 ;
254 [label="gini = 0.0\nsamples = 4\nvalue = [0, 4, 0]", fillcolor="#39e581"] ;
250 -> 254 ;
255 [label="gini = 0.0\nsamples = 1\nvalue = [0, 0, 1]", fillcolor="#8139e5"] ;
249 -> 255 ;
256 [label="Ascore <= 0.21\ngini = 0.28\nsamples = 6\nvalue = [0, 1, 5]", fillcolor="#9a61ea"] ;
248 -> 256 ;
257 [label="gini = 0.0\nsamples = 5\nvalue = [0, 0, 5]", fillcolor="#8139e5"] ;
256 -> 257 ;
258 [label="gini = 0.0\nsamples = 1\nvalue = [0, 1, 0]", fillcolor="#39e581"] ;
256 -> 258 ;
259 [label="gini = 0.0\nsamples = 5\nvalue = [0, 0, 5]", fillcolor="#8139e5"] ;
247 -> 259 ;
260 [label="gini = 0.0\nsamples = 10\nvalue = [0, 0, 10]", fillcolor="#8139e5"] ;
246 -> 260 ;
261 [label="gini = 0.0\nsamples = 1\nvalue = [0, 1, 0]", fillcolor="#39e581"] ;
245 -> 261 ;
262 [label="gini = 0.0\nsamples = 1\nvalue = [0, 1, 0]", fillcolor="#39e581"] ;
188 -> 262 ;
263 [label="Ascore <= 0.37\ngini = 0.48\nsamples = 5\nvalue = [0, 3, 2]", fillcolor="#bdf6d5"] ;
187 -> 263 ;
264 [label="gini = 0.0\nsamples = 3\nvalue = [0, 3, 0]", fillcolor="#39e581"] ;
263 -> 264 ;
265 [label="gini = 0.0\nsamples = 2\nvalue = [0, 0, 2]", fillcolor="#8139e5"] ;
263 -> 265 ;
266 [label="SS <= -0.37\ngini = 0.65\nsamples = 698\nvalue = [191, 205, 302]", fillcolor="#e6d8fa"] ;
0 -> 266 [labeldistance=2.5, labelangle=-45, headlabel="False"] ;
267 [label="Cscore <= 0.19\ngini = 0.66\nsamples = 334\nvalue = [133, 113, 88]", fillcolor="#fdf4ed"] ;
266 -> 267 ;
268 [label="Impulsive <= -0.46\ngini = 0.66\nsamples = 128\nvalue = [34, 47, 47]", fillcolor="#ffffff"] ;
267 -> 268 ;
269 [label="Oscore <= -0.65\ngini = 0.64\nsamples = 76\nvalue = [24, 34, 18]", fillcolor="#d9fae7"] ;
268 -> 269 ;
270 [label="Ascore <= 0.14\ngini = 0.62\nsamples = 40\nvalue = [18, 16, 6]", fillcolor="#fdf5ef"] ;
269 -> 270 ;
271 [label="Escore <= -1.78\ngini = 0.34\nsamples = 14\nvalue = [11, 3, 0]", fillcolor="#eca36f"] ;
270 -> 271 ;
272 [label="gini = 0.0\nsamples = 1\nvalue = [0, 1, 0]", fillcolor="#39e581"] ;
271 -> 272 ;
273 [label="Cscore <= 0.06\ngini = 0.26\nsamples = 13\nvalue = [11, 2, 0]", fillcolor="#ea985d"] ;
271 -> 273 ;
274 [label="gini = 0.0\nsamples = 9\nvalue = [9, 0, 0]", fillcolor="#e58139"] ;
273 -> 274 ;
275 [label="Ascore <= -0.38\ngini = 0.5\nsamples = 4\nvalue = [2, 2, 0]", fillcolor="#ffffff"] ;
273 -> 275 ;
276 [label="gini = 0.0\nsamples = 2\nvalue = [0, 2, 0]", fillcolor="#39e581"] ;
275 -> 276 ;
277 [label="gini = 0.0\nsamples = 2\nvalue = [2, 0, 0]", fillcolor="#e58139"] ;
275 -> 277 ;
278 [label="white <= 0.5\ngini = 0.62\nsamples = 26\nvalue = [7, 13, 6]", fillcolor="#c0f7d7"] ;
270 -> 278 ;
279 [label="gini = 0.0\nsamples = 4\nvalue = [4, 0, 0]", fillcolor="#e58139"] ;
278 -> 279 ;
280 [label="Nscore <= 1.55\ngini = 0.56\nsamples = 22\nvalue = [3, 13, 6]", fillcolor="#a8f4c8"] ;
278 -> 280 ;
281 [label="SS <= -0.69\ngini = 0.44\nsamples = 18\nvalue = [2, 13, 3]", fillcolor="#7beeab"] ;
280 -> 281 ;
282 [label="Nscore <= -1.93\ngini = 0.24\nsamples = 15\nvalue = [1, 13, 1]", fillcolor="#55e993"] ;
281 -> 282 ;
283 [label="gini = 0.0\nsamples = 1\nvalue = [1, 0, 0]", fillcolor="#e58139"] ;
282 -> 283 ;
284 [label="Cscore <= 0.06\ngini = 0.13\nsamples = 14\nvalue = [0, 13, 1]", fillcolor="#48e78b"] ;
282 -> 284 ;
285 [label="gini = 0.0\nsamples = 12\nvalue = [0, 12, 0]", fillcolor="#39e581"] ;
284 -> 285 ;
286 [label="Age_55-64 <= 0.5\ngini = 0.5\nsamples = 2\nvalue = [0, 1, 1]", fillcolor="#ffffff"] ;
284 -> 286 ;
287 [label="gini = 0.0\nsamples = 1\nvalue = [0, 1, 0]", fillcolor="#39e581"] ;
286 -> 287 ;
288 [label="gini = 0.0\nsamples = 1\nvalue = [0, 0, 1]", fillcolor="#8139e5"] ;
286 -> 288 ;
289 [label="Oscore <= -1.27\ngini = 0.44\nsamples = 3\nvalue = [1, 0, 2]", fillcolor="#c09cf2"] ;
281 -> 289 ;
290 [label="gini = 0.0\nsamples = 1\nvalue = [1, 0, 0]", fillcolor="#e58139"] ;
289 -> 290 ;
291 [label="gini = 0.0\nsamples = 2\nvalue = [0, 0, 2]", fillcolor="#8139e5"] ;
289 -> 291 ;
292 [label="Escore <= -0.97\ngini = 0.38\nsamples = 4\nvalue = [1, 0, 3]", fillcolor="#ab7bee"] ;
280 -> 292 ;
293 [label="gini = 0.0\nsamples = 3\nvalue = [0, 0, 3]", fillcolor="#8139e5"] ;
292 -> 293 ;
294 [label="gini = 0.0\nsamples = 1\nvalue = [1, 0, 0]", fillcolor="#e58139"] ;
292 -> 294 ;
295 [label="Age_35-44 <= 0.5\ngini = 0.61\nsamples = 36\nvalue = [6, 18, 12]", fillcolor="#cef8e0"] ;
269 -> 295 ;
296 [label="Ascore <= 0.36\ngini = 0.58\nsamples = 28\nvalue = [6, 16, 6]", fillcolor="#a5f3c6"] ;
295 -> 296 ;
297 [label="Oscore <= -0.25\ngini = 0.5\nsamples = 24\nvalue = [3, 16, 5]", fillcolor="#8cf0b6"] ;
296 -> 297 ;
298 [label="ls_16 <= 0.5\ngini = 0.18\nsamples = 10\nvalue = [0, 9, 1]", fillcolor="#4fe88f"] ;
297 -> 298 ;
299 [label="gini = 0.0\nsamples = 9\nvalue = [0, 9, 0]", fillcolor="#39e581"] ;
298 -> 299 ;
300 [label="gini = 0.0\nsamples = 1\nvalue = [0, 0, 1]", fillcolor="#8139e5"] ;
298 -> 300 ;
301 [label="SS <= -0.69\ngini = 0.62\nsamples = 14\nvalue = [3, 7, 4]", fillcolor="#c4f7d9"] ;
297 -> 301 ;
302 [label="Nscore <= -0.32\ngini = 0.66\nsamples = 11\nvalue = [3, 4, 4]", fillcolor="#ffffff"] ;
301 -> 302 ;
303 [label="gini = 0.0\nsamples = 2\nvalue = [0, 2, 0]", fillcolor="#39e581"] ;
302 -> 303 ;
304 [label="Escore <= -1.09\ngini = 0.64\nsamples = 9\nvalue = [3, 2, 4]", fillcolor="#eadefb"] ;
302 -> 304 ;
305 [label="Oscore <= -0.02\ngini = 0.44\nsamples = 3\nvalue = [2, 1, 0]", fillcolor="#f2c09c"] ;
304 -> 305 ;
306 [label="gini = 0.0\nsamples = 2\nvalue = [2, 0, 0]", fillcolor="#e58139"] ;
305 -> 306 ;
307 [label="gini = 0.0\nsamples = 1\nvalue = [0, 1, 0]", fillcolor="#39e581"] ;
305 -> 307 ;
308 [label="Oscore <= 0.65\ngini = 0.5\nsamples = 6\nvalue = [1, 1, 4]", fillcolor="#b388ef"] ;
304 -> 308 ;
309 [label="gini = 0.0\nsamples = 4\nvalue = [0, 0, 4]", fillcolor="#8139e5"] ;
308 -> 309 ;
310 [label="Ascore <= 0.14\ngini = 0.5\nsamples = 2\nvalue = [1, 1, 0]", fillcolor="#ffffff"] ;
308 -> 310 ;
311 [label="gini = 0.0\nsamples = 1\nvalue = [1, 0, 0]", fillcolor="#e58139"] ;
310 -> 311 ;
312 [label="gini = 0.0\nsamples = 1\nvalue = [0, 1, 0]", fillcolor="#39e581"] ;
310 -> 312 ;
313 [label="gini = 0.0\nsamples = 3\nvalue = [0, 3, 0]", fillcolor="#39e581"] ;
301 -> 313 ;
314 [label="Oscore <= -0.45\ngini = 0.38\nsamples = 4\nvalue = [3, 0, 1]", fillcolor="#eeab7b"] ;
296 -> 314 ;
315 [label="gini = 0.0\nsamples = 1\nvalue = [0, 0, 1]", fillcolor="#8139e5"] ;
314 -> 315 ;
316 [label="gini = 0.0\nsamples = 3\nvalue = [3, 0, 0]", fillcolor="#e58139"] ;
314 -> 316 ;
317 [label="Escore <= -1.16\ngini = 0.38\nsamples = 8\nvalue = [0, 2, 6]", fillcolor="#ab7bee"] ;
295 -> 317 ;
318 [label="Ascore <= 0.52\ngini = 0.44\nsamples = 3\nvalue = [0, 2, 1]", fillcolor="#9cf2c0"] ;
317 -> 318 ;
319 [label="gini = 0.0\nsamples = 1\nvalue = [0, 0, 1]", fillcolor="#8139e5"] ;
318 -> 319 ;
320 [label="gini = 0.0\nsamples = 2\nvalue = [0, 2, 0]", fillcolor="#39e581"] ;
318 -> 320 ;
321 [label="gini = 0.0\nsamples = 5\nvalue = [0, 0, 5]", fillcolor="#8139e5"] ;
317 -> 321 ;
322 [label="Nscore <= -0.86\ngini = 0.59\nsamples = 52\nvalue = [10, 13, 29]", fillcolor="#cbaef4"] ;
268 -> 322 ;
323 [label="Escore <= 0.56\ngini = 0.57\nsamples = 9\nvalue = [5, 3, 1]", fillcolor="#f6d5bd"] ;
322 -> 323 ;
324 [label="gini = 0.0\nsamples = 4\nvalue = [4, 0, 0]", fillcolor="#e58139"] ;
323 -> 324 ;
325 [label="Oscore <= -0.65\ngini = 0.56\nsamples = 5\nvalue = [1, 3, 1]", fillcolor="#9cf2c0"] ;
323 -> 325 ;
326 [label="Escore <= 0.96\ngini = 0.5\nsamples = 2\nvalue = [1, 0, 1]", fillcolor="#ffffff"] ;
325 -> 326 ;
327 [label="gini = 0.0\nsamples = 1\nvalue = [0, 0, 1]", fillcolor="#8139e5"] ;
326 -> 327 ;
328 [label="gini = 0.0\nsamples = 1\nvalue = [1, 0, 0]", fillcolor="#e58139"] ;
326 -> 328 ;
329 [label="gini = 0.0\nsamples = 3\nvalue = [0, 3, 0]", fillcolor="#39e581"] ;
325 -> 329 ;
330 [label="Oscore <= -1.76\ngini = 0.51\nsamples = 43\nvalue = [5, 10, 28]", fillcolor="#ba93f1"] ;
322 -> 330 ;
331 [label="Age_65+ <= 0.5\ngini = 0.44\nsamples = 3\nvalue = [1, 2, 0]", fillcolor="#9cf2c0"] ;
330 -> 331 ;
332 [label="gini = 0.0\nsamples = 2\nvalue = [0, 2, 0]", fillcolor="#39e581"] ;
331 -> 332 ;
333 [label="gini = 0.0\nsamples = 1\nvalue = [1, 0, 0]", fillcolor="#e58139"] ;
331 -> 333 ;
334 [label="Age_55-64 <= 0.5\ngini = 0.46\nsamples = 40\nvalue = [4, 8, 28]", fillcolor="#b083ef"] ;
330 -> 334 ;
335 [label="asian <= 0.5\ngini = 0.41\nsamples = 36\nvalue = [4, 5, 27]", fillcolor="#a672ed"] ;
334 -> 335 ;
336 [label="Age_45-54 <= 0.5\ngini = 0.38\nsamples = 35\nvalue = [3, 5, 27]", fillcolor="#a36eec"] ;
335 -> 336 ;
337 [label="Female <= 0.5\ngini = 0.29\nsamples = 24\nvalue = [3, 1, 20]", fillcolor="#995fea"] ;
336 -> 337 ;
338 [label="Nscore <= 0.99\ngini = 0.46\nsamples = 13\nvalue = [3, 1, 9]", fillcolor="#b388ef"] ;
337 -> 338 ;
339 [label="no_degree <= 0.5\ngini = 0.31\nsamples = 11\nvalue = [1, 1, 9]", fillcolor="#9a61ea"] ;
338 -> 339 ;
340 [label="Oscore <= -1.2\ngini = 0.18\nsamples = 10\nvalue = [0, 1, 9]", fillcolor="#8f4fe8"] ;
339 -> 340 ;
341 [label="Impulsive <= -0.01\ngini = 0.5\nsamples = 2\nvalue = [0, 1, 1]", fillcolor="#ffffff"] ;
340 -> 341 ;
342 [label="gini = 0.0\nsamples = 1\nvalue = [0, 0, 1]", fillcolor="#8139e5"] ;
341 -> 342 ;
343 [label="gini = 0.0\nsamples = 1\nvalue = [0, 1, 0]", fillcolor="#39e581"] ;
341 -> 343 ;
344 [label="gini = 0.0\nsamples = 8\nvalue = [0, 0, 8]", fillcolor="#8139e5"] ;
340 -> 344 ;
345 [label="gini = 0.0\nsamples = 1\nvalue = [1, 0, 0]", fillcolor="#e58139"] ;
339 -> 345 ;
346 [label="gini = 0.0\nsamples = 2\nvalue = [2, 0, 0]", fillcolor="#e58139"] ;
338 -> 346 ;
347 [label="gini = 0.0\nsamples = 11\nvalue = [0, 0, 11]", fillcolor="#8139e5"] ;
337 -> 347 ;
348 [label="Oscore <= 0.37\ngini = 0.46\nsamples = 11\nvalue = [0, 4, 7]", fillcolor="#c9aaf4"] ;
336 -> 348 ;
349 [label="Escore <= 0.72\ngini = 0.24\nsamples = 7\nvalue = [0, 1, 6]", fillcolor="#965ae9"] ;
348 -> 349 ;
350 [label="gini = 0.0\nsamples = 6\nvalue = [0, 0, 6]", fillcolor="#8139e5"] ;
349 -> 350 ;
351 [label="gini = 0.0\nsamples = 1\nvalue = [0, 1, 0]", fillcolor="#39e581"] ;
349 -> 351 ;
352 [label="Ascore <= -0.39\ngini = 0.38\nsamples = 4\nvalue = [0, 3, 1]", fillcolor="#7beeab"] ;
348 -> 352 ;
353 [label="gini = 0.0\nsamples = 1\nvalue = [0, 0, 1]", fillcolor="#8139e5"] ;
352 -> 353 ;
354 [label="gini = 0.0\nsamples = 3\nvalue = [0, 3, 0]", fillcolor="#39e581"] ;
352 -> 354 ;
355 [label="gini = 0.0\nsamples = 1\nvalue = [1, 0, 0]", fillcolor="#e58139"] ;
335 -> 355 ;
356 [label="Cscore <= -0.21\ngini = 0.38\nsamples = 4\nvalue = [0, 3, 1]", fillcolor="#7beeab"] ;
334 -> 356 ;
357 [label="gini = 0.0\nsamples = 3\nvalue = [0, 3, 0]", fillcolor="#39e581"] ;
356 -> 357 ;
358 [label="gini = 0.0\nsamples = 1\nvalue = [0, 0, 1]", fillcolor="#8139e5"] ;
356 -> 358 ;
359 [label="Oscore <= 0.06\ngini = 0.63\nsamples = 206\nvalue = [99, 66, 41]", fillcolor="#f9e1d0"] ;
267 -> 359 ;
360 [label="white <= 0.5\ngini = 0.59\nsamples = 156\nvalue = [83, 52, 21]", fillcolor="#f7d9c4"] ;
359 -> 360 ;
361 [label="other_e <= 0.5\ngini = 0.29\nsamples = 12\nvalue = [10, 1, 1]", fillcolor="#ea985d"] ;
360 -> 361 ;
362 [label="diploma <= 0.5\ngini = 0.17\nsamples = 11\nvalue = [10, 1, 0]", fillcolor="#e88e4d"] ;
361 -> 362 ;
363 [label="gini = 0.0\nsamples = 8\nvalue = [8, 0, 0]", fillcolor="#e58139"] ;
362 -> 363 ;
364 [label="Oscore <= -0.65\ngini = 0.44\nsamples = 3\nvalue = [2, 1, 0]", fillcolor="#f2c09c"] ;
362 -> 364 ;
365 [label="gini = 0.0\nsamples = 2\nvalue = [2, 0, 0]", fillcolor="#e58139"] ;
364 -> 365 ;
366 [label="gini = 0.0\nsamples = 1\nvalue = [0, 1, 0]", fillcolor="#39e581"] ;
364 -> 366 ;
367 [label="gini = 0.0\nsamples = 1\nvalue = [0, 0, 1]", fillcolor="#8139e5"] ;
361 -> 367 ;
368 [label="SS <= -1.01\ngini = 0.6\nsamples = 144\nvalue = [73, 51, 20]", fillcolor="#f9e1d0"] ;
360 -> 368 ;
369 [label="Ascore <= 0.68\ngini = 0.56\nsamples = 69\nvalue = [41, 18, 10]", fillcolor="#f3c6a6"] ;
368 -> 369 ;
370 [label="no_degree <= 0.5\ngini = 0.6\nsamples = 40\nvalue = [20, 14, 6]", fillcolor="#f9e2d1"] ;
369 -> 370 ;
371 [label="Age_65+ <= 0.5\ngini = 0.59\nsamples = 37\nvalue = [20, 11, 6]", fillcolor="#f6d3ba"] ;
370 -> 371 ;
372 [label="Escore <= -0.88\ngini = 0.57\nsamples = 34\nvalue = [20, 8, 6]", fillcolor="#f3c5a4"] ;
371 -> 372 ;
373 [label="Cscore <= 1.04\ngini = 0.22\nsamples = 8\nvalue = [7, 0, 1]", fillcolor="#e99355"] ;
372 -> 373 ;
374 [label="gini = 0.0\nsamples = 7\nvalue = [7, 0, 0]", fillcolor="#e58139"] ;
373 -> 374 ;
375 [label="gini = 0.0\nsamples = 1\nvalue = [0, 0, 1]", fillcolor="#8139e5"] ;
373 -> 375 ;
376 [label="Escore <= -0.51\ngini = 0.62\nsamples = 26\nvalue = [13, 8, 5]", fillcolor="#f8dcc8"] ;
372 -> 376 ;
377 [label="Ascore <= 0.28\ngini = 0.56\nsamples = 5\nvalue = [1, 1, 3]", fillcolor="#c09cf2"] ;
376 -> 377 ;
378 [label="gini = 0.0\nsamples = 3\nvalue = [0, 0, 3]", fillcolor="#8139e5"] ;
377 -> 378 ;
379 [label="ls_18 <= 0.5\ngini = 0.5\nsamples = 2\nvalue = [1, 1, 0]", fillcolor="#ffffff"] ;
377 -> 379 ;
380 [label="gini = 0.0\nsamples = 1\nvalue = [0, 1, 0]", fillcolor="#39e581"] ;
379 -> 380 ;
381 [label="gini = 0.0\nsamples = 1\nvalue = [1, 0, 0]", fillcolor="#e58139"] ;
379 -> 381 ;
382 [label="Ascore <= -0.23\ngini = 0.55\nsamples = 21\nvalue = [12, 7, 2]", fillcolor="#f6d2b8"] ;
376 -> 382 ;
383 [label="SS <= -1.81\ngini = 0.24\nsamples = 7\nvalue = [6, 1, 0]", fillcolor="#e9965a"] ;
382 -> 383 ;
384 [label="Nscore <= 0.62\ngini = 0.5\nsamples = 2\nvalue = [1, 1, 0]", fillcolor="#ffffff"] ;
383 -> 384 ;
385 [label="gini = 0.0\nsamples = 1\nvalue = [0, 1, 0]", fillcolor="#39e581"] ;
384 -> 385 ;
386 [label="gini = 0.0\nsamples = 1\nvalue = [1, 0, 0]", fillcolor="#e58139"] ;
384 -> 386 ;
387 [label="gini = 0.0\nsamples = 5\nvalue = [5, 0, 0]", fillcolor="#e58139"] ;
383 -> 387 ;
388 [label="Cscore <= 0.76\ngini = 0.61\nsamples = 14\nvalue = [6, 6, 2]", fillcolor="#ffffff"] ;
382 -> 388 ;
389 [label="master <= 0.5\ngini = 0.45\nsamples = 7\nvalue = [1, 5, 1]", fillcolor="#7beeab"] ;
388 -> 389 ;
390 [label="gini = 0.0\nsamples = 5\nvalue = [0, 5, 0]", fillcolor="#39e581"] ;
389 -> 390 ;
391 [label="Escore <= 0.49\ngini = 0.5\nsamples = 2\nvalue = [1, 0, 1]", fillcolor="#ffffff"] ;
389 -> 391 ;
392 [label="gini = 0.0\nsamples = 1\nvalue = [1, 0, 0]", fillcolor="#e58139"] ;
391 -> 392 ;
393 [label="gini = 0.0\nsamples = 1\nvalue = [0, 0, 1]", fillcolor="#8139e5"] ;
391 -> 393 ;
394 [label="SS <= -1.63\ngini = 0.45\nsamples = 7\nvalue = [5, 1, 1]", fillcolor="#eeab7b"] ;
388 -> 394 ;
395 [label="Ascore <= 0.07\ngini = 0.5\nsamples = 2\nvalue = [0, 1, 1]", fillcolor="#ffffff"] ;
394 -> 395 ;
396 [label="gini = 0.0\nsamples = 1\nvalue = [0, 1, 0]", fillcolor="#39e581"] ;
395 -> 396 ;
397 [label="gini = 0.0\nsamples = 1\nvalue = [0, 0, 1]", fillcolor="#8139e5"] ;
395 -> 397 ;
398 [label="gini = 0.0\nsamples = 5\nvalue = [5, 0, 0]", fillcolor="#e58139"] ;
394 -> 398 ;
399 [label="gini = 0.0\nsamples = 3\nvalue = [0, 3, 0]", fillcolor="#39e581"] ;
371 -> 399 ;
400 [label="gini = 0.0\nsamples = 3\nvalue = [0, 3, 0]", fillcolor="#39e581"] ;
370 -> 400 ;
401 [label="Cscore <= 1.93\ngini = 0.44\nsamples = 29\nvalue = [21, 4, 4]", fillcolor="#eda978"] ;
369 -> 401 ;
402 [label="Oscore <= -1.9\ngini = 0.41\nsamples = 28\nvalue = [21, 3, 4]", fillcolor="#eda673"] ;
401 -> 402 ;
403 [label="gini = 0.0\nsamples = 1\nvalue = [0, 1, 0]", fillcolor="#39e581"] ;
402 -> 403 ;
404 [label="Escore <= -1.02\ngini = 0.37\nsamples = 27\nvalue = [21, 2, 4]", fillcolor="#eca26d"] ;
402 -> 404 ;
405 [label="Ascore <= 0.85\ngini = 0.67\nsamples = 3\nvalue = [1, 1, 1]", fillcolor="#ffffff"] ;
404 -> 405 ;
406 [label="gini = 0.0\nsamples = 1\nvalue = [1, 0, 0]", fillcolor="#e58139"] ;
405 -> 406 ;
407 [label="Cscore <= 0.51\ngini = 0.5\nsamples = 2\nvalue = [0, 1, 1]", fillcolor="#ffffff"] ;
405 -> 407 ;
408 [label="gini = 0.0\nsamples = 1\nvalue = [0, 0, 1]", fillcolor="#8139e5"] ;
407 -> 408 ;
409 [label="gini = 0.0\nsamples = 1\nvalue = [0, 1, 0]", fillcolor="#39e581"] ;
407 -> 409 ;
410 [label="Escore <= 1.04\ngini = 0.29\nsamples = 24\nvalue = [20, 1, 3]", fillcolor="#ea995f"] ;
404 -> 410 ;
411 [label="Impulsive <= -0.01\ngini = 0.19\nsamples = 20\nvalue = [18, 1, 1]", fillcolor="#e88e4e"] ;
410 -> 411 ;
412 [label="master <= 0.5\ngini = 0.1\nsamples = 19\nvalue = [18, 0, 1]", fillcolor="#e68844"] ;
411 -> 412 ;
413 [label="gini = 0.0\nsamples = 16\nvalue = [16, 0, 0]", fillcolor="#e58139"] ;
412 -> 413 ;
414 [label="Impulsive <= -1.05\ngini = 0.44\nsamples = 3\nvalue = [2, 0, 1]", fillcolor="#f2c09c"] ;
412 -> 414 ;
415 [label="gini = 0.0\nsamples = 2\nvalue = [2, 0, 0]", fillcolor="#e58139"] ;
414 -> 415 ;
416 [label="gini = 0.0\nsamples = 1\nvalue = [0, 0, 1]", fillcolor="#8139e5"] ;
414 -> 416 ;
417 [label="gini = 0.0\nsamples = 1\nvalue = [0, 1, 0]", fillcolor="#39e581"] ;
411 -> 417 ;
418 [label="Cscore <= 1.12\ngini = 0.5\nsamples = 4\nvalue = [2, 0, 2]", fillcolor="#ffffff"] ;
410 -> 418 ;
419 [label="gini = 0.0\nsamples = 2\nvalue = [0, 0, 2]", fillcolor="#8139e5"] ;
418 -> 419 ;
420 [label="gini = 0.0\nsamples = 2\nvalue = [2, 0, 0]", fillcolor="#e58139"] ;
418 -> 420 ;
421 [label="gini = 0.0\nsamples = 1\nvalue = [0, 1, 0]", fillcolor="#39e581"] ;
401 -> 421 ;
422 [label="Female <= 0.5\ngini = 0.61\nsamples = 75\nvalue = [32, 33, 10]", fillcolor="#fafefc"] ;
368 -> 422 ;
423 [label="Nscore <= -0.57\ngini = 0.59\nsamples = 15\nvalue = [8, 2, 5]", fillcolor="#f7d9c4"] ;
422 -> 423 ;
424 [label="Escore <= -0.76\ngini = 0.32\nsamples = 10\nvalue = [8, 0, 2]", fillcolor="#eca06a"] ;
423 -> 424 ;
425 [label="gini = 0.0\nsamples = 2\nvalue = [0, 0, 2]", fillcolor="#8139e5"] ;
424 -> 425 ;
426 [label="gini = 0.0\nsamples = 8\nvalue = [8, 0, 0]", fillcolor="#e58139"] ;
424 -> 426 ;
427 [label="Ascore <= 0.45\ngini = 0.48\nsamples = 5\nvalue = [0, 2, 3]", fillcolor="#d5bdf6"] ;
423 -> 427 ;
428 [label="gini = 0.0\nsamples = 3\nvalue = [0, 0, 3]", fillcolor="#8139e5"] ;
427 -> 428 ;
429 [label="gini = 0.0\nsamples = 2\nvalue = [0, 2, 0]", fillcolor="#39e581"] ;
427 -> 429 ;
430 [label="Escore <= -0.37\ngini = 0.57\nsamples = 60\nvalue = [24, 31, 5]", fillcolor="#d8fae6"] ;
422 -> 430 ;
431 [label="doctorate <= 0.5\ngini = 0.28\nsamples = 12\nvalue = [2, 10, 0]", fillcolor="#61ea9a"] ;
430 -> 431 ;
432 [label="Nscore <= -1.6\ngini = 0.17\nsamples = 11\nvalue = [1, 10, 0]", fillcolor="#4de88e"] ;
431 -> 432 ;
433 [label="gini = 0.0\nsamples = 1\nvalue = [1, 0, 0]", fillcolor="#e58139"] ;
432 -> 433 ;
434 [label="gini = 0.0\nsamples = 10\nvalue = [0, 10, 0]", fillcolor="#39e581"] ;
432 -> 434 ;
435 [label="gini = 0.0\nsamples = 1\nvalue = [1, 0, 0]", fillcolor="#e58139"] ;
431 -> 435 ;
436 [label="Impulsive <= -0.46\ngini = 0.59\nsamples = 48\nvalue = [22, 21, 5]", fillcolor="#fefaf8"] ;
430 -> 436 ;
437 [label="Cscore <= 1.93\ngini = 0.52\nsamples = 26\nvalue = [16, 8, 2]", fillcolor="#f3c7a7"] ;
436 -> 437 ;
438 [label="Nscore <= -0.41\ngini = 0.46\nsamples = 23\nvalue = [16, 5, 2]", fillcolor="#efb286"] ;
437 -> 438 ;
439 [label="gini = 0.0\nsamples = 7\nvalue = [7, 0, 0]", fillcolor="#e58139"] ;
438 -> 439 ;
440 [label="university <= 0.5\ngini = 0.57\nsamples = 16\nvalue = [9, 5, 2]", fillcolor="#f6d1b7"] ;
438 -> 440 ;
441 [label="Escore <= 0.24\ngini = 0.57\nsamples = 7\nvalue = [1, 4, 2]", fillcolor="#b0f5cd"] ;
440 -> 441 ;
442 [label="gini = 0.0\nsamples = 4\nvalue = [0, 4, 0]", fillcolor="#39e581"] ;
441 -> 442 ;
443 [label="Cscore <= 0.78\ngini = 0.44\nsamples = 3\nvalue = [1, 0, 2]", fillcolor="#c09cf2"] ;
441 -> 443 ;
444 [label="gini = 0.0\nsamples = 1\nvalue = [1, 0, 0]", fillcolor="#e58139"] ;
443 -> 444 ;
445 [label="gini = 0.0\nsamples = 2\nvalue = [0, 0, 2]", fillcolor="#8139e5"] ;
443 -> 445 ;
446 [label="Oscore <= -1.48\ngini = 0.2\nsamples = 9\nvalue = [8, 1, 0]", fillcolor="#e89152"] ;
440 -> 446 ;
447 [label="gini = 0.0\nsamples = 1\nvalue = [0, 1, 0]", fillcolor="#39e581"] ;
446 -> 447 ;
448 [label="gini = 0.0\nsamples = 8\nvalue = [8, 0, 0]", fillcolor="#e58139"] ;
446 -> 448 ;
449 [label="gini = 0.0\nsamples = 3\nvalue = [0, 3, 0]", fillcolor="#39e581"] ;
437 -> 449 ;
450 [label="Oscore <= -0.65\ngini = 0.56\nsamples = 22\nvalue = [6, 13, 3]", fillcolor="#a8f4c8"] ;
436 -> 450 ;
451 [label="Nscore <= -2.11\ngini = 0.31\nsamples = 11\nvalue = [1, 9, 1]", fillcolor="#61ea9a"] ;
450 -> 451 ;
452 [label="Oscore <= -2.02\ngini = 0.5\nsamples = 2\nvalue = [0, 1, 1]", fillcolor="#ffffff"] ;
451 -> 452 ;
453 [label="gini = 0.0\nsamples = 1\nvalue = [0, 1, 0]", fillcolor="#39e581"] ;
452 -> 453 ;
454 [label="gini = 0.0\nsamples = 1\nvalue = [0, 0, 1]", fillcolor="#8139e5"] ;
452 -> 454 ;
455 [label="Age_35-44 <= 0.5\ngini = 0.2\nsamples = 9\nvalue = [1, 8, 0]", fillcolor="#52e891"] ;
451 -> 455 ;
456 [label="gini = 0.0\nsamples = 6\nvalue = [0, 6, 0]", fillcolor="#39e581"] ;
455 -> 456 ;
457 [label="Nscore <= -1.11\ngini = 0.44\nsamples = 3\nvalue = [1, 2, 0]", fillcolor="#9cf2c0"] ;
455 -> 457 ;
458 [label="gini = 0.0\nsamples = 1\nvalue = [0, 1, 0]", fillcolor="#39e581"] ;
457 -> 458 ;
459 [label="university <= 0.5\ngini = 0.5\nsamples = 2\nvalue = [1, 1, 0]", fillcolor="#ffffff"] ;
457 -> 459 ;
460 [label="gini = 0.0\nsamples = 1\nvalue = [0, 1, 0]", fillcolor="#39e581"] ;
459 -> 460 ;
461 [label="gini = 0.0\nsamples = 1\nvalue = [1, 0, 0]", fillcolor="#e58139"] ;
459 -> 461 ;
462 [label="Oscore <= -0.1\ngini = 0.63\nsamples = 11\nvalue = [5, 4, 2]", fillcolor="#fbede3"] ;
450 -> 462 ;
463 [label="Nscore <= 0.04\ngini = 0.53\nsamples = 8\nvalue = [5, 1, 2]", fillcolor="#f2c09c"] ;
462 -> 463 ;
464 [label="Cscore <= 1.72\ngini = 0.45\nsamples = 7\nvalue = [5, 1, 1]", fillcolor="#eeab7b"] ;
463 -> 464 ;
465 [label="Ascore <= 0.85\ngini = 0.28\nsamples = 6\nvalue = [5, 1, 0]", fillcolor="#ea9a61"] ;
464 -> 465 ;
466 [label="gini = 0.0\nsamples = 4\nvalue = [4, 0, 0]", fillcolor="#e58139"] ;
465 -> 466 ;
467 [label="Escore <= 1.44\ngini = 0.5\nsamples = 2\nvalue = [1, 1, 0]", fillcolor="#ffffff"] ;
465 -> 467 ;
468 [label="gini = 0.0\nsamples = 1\nvalue = [0, 1, 0]", fillcolor="#39e581"] ;
467 -> 468 ;
469 [label="gini = 0.0\nsamples = 1\nvalue = [1, 0, 0]", fillcolor="#e58139"] ;
467 -> 469 ;
470 [label="gini = 0.0\nsamples = 1\nvalue = [0, 0, 1]", fillcolor="#8139e5"] ;
464 -> 470 ;
471 [label="gini = 0.0\nsamples = 1\nvalue = [0, 0, 1]", fillcolor="#8139e5"] ;
463 -> 471 ;
472 [label="gini = 0.0\nsamples = 3\nvalue = [0, 3, 0]", fillcolor="#39e581"] ;
462 -> 472 ;
473 [label="Nscore <= -0.2\ngini = 0.66\nsamples = 50\nvalue = [16, 14, 20]", fillcolor="#f0e8fc"] ;
359 -> 473 ;
474 [label="Cscore <= 1.55\ngini = 0.59\nsamples = 29\nvalue = [12, 3, 14]", fillcolor="#f0e8fc"] ;
473 -> 474 ;
475 [label="diploma <= 0.5\ngini = 0.54\nsamples = 24\nvalue = [8, 2, 14]", fillcolor="#d0b5f5"] ;
474 -> 475 ;
476 [label="Ascore <= -0.09\ngini = 0.47\nsamples = 21\nvalue = [6, 1, 14]", fillcolor="#bc95f1"] ;
475 -> 476 ;
477 [label="Nscore <= -0.99\ngini = 0.44\nsamples = 6\nvalue = [4, 0, 2]", fillcolor="#f2c09c"] ;
476 -> 477 ;
478 [label="SS <= -0.69\ngini = 0.44\nsamples = 3\nvalue = [1, 0, 2]", fillcolor="#c09cf2"] ;
477 -> 478 ;
479 [label="gini = 0.0\nsamples = 1\nvalue = [1, 0, 0]", fillcolor="#e58139"] ;
478 -> 479 ;
480 [label="gini = 0.0\nsamples = 2\nvalue = [0, 0, 2]", fillcolor="#8139e5"] ;
478 -> 480 ;
481 [label="gini = 0.0\nsamples = 3\nvalue = [3, 0, 0]", fillcolor="#e58139"] ;
477 -> 481 ;
482 [label="Ascore <= 1.28\ngini = 0.34\nsamples = 15\nvalue = [2, 1, 12]", fillcolor="#9e67eb"] ;
476 -> 482 ;
483 [label="Ascore <= 0.06\ngini = 0.26\nsamples = 14\nvalue = [1, 1, 12]", fillcolor="#9457e9"] ;
482 -> 483 ;
484 [label="Cscore <= 0.59\ngini = 0.44\nsamples = 3\nvalue = [1, 0, 2]", fillcolor="#c09cf2"] ;
483 -> 484 ;
485 [label="gini = 0.0\nsamples = 1\nvalue = [1, 0, 0]", fillcolor="#e58139"] ;
484 -> 485 ;
486 [label="gini = 0.0\nsamples = 2\nvalue = [0, 0, 2]", fillcolor="#8139e5"] ;
484 -> 486 ;
487 [label="Nscore <= -1.38\ngini = 0.17\nsamples = 11\nvalue = [0, 1, 10]", fillcolor="#8e4de8"] ;
483 -> 487 ;
488 [label="Escore <= 0.88\ngini = 0.44\nsamples = 3\nvalue = [0, 1, 2]", fillcolor="#c09cf2"] ;
487 -> 488 ;
489 [label="gini = 0.0\nsamples = 1\nvalue = [0, 1, 0]", fillcolor="#39e581"] ;
488 -> 489 ;
490 [label="gini = 0.0\nsamples = 2\nvalue = [0, 0, 2]", fillcolor="#8139e5"] ;
488 -> 490 ;
491 [label="gini = 0.0\nsamples = 8\nvalue = [0, 0, 8]", fillcolor="#8139e5"] ;
487 -> 491 ;
492 [label="gini = 0.0\nsamples = 1\nvalue = [1, 0, 0]", fillcolor="#e58139"] ;
482 -> 492 ;
493 [label="SS <= -1.01\ngini = 0.44\nsamples = 3\nvalue = [2, 1, 0]", fillcolor="#f2c09c"] ;
475 -> 493 ;
494 [label="gini = 0.0\nsamples = 1\nvalue = [0, 1, 0]", fillcolor="#39e581"] ;
493 -> 494 ;
495 [label="gini = 0.0\nsamples = 2\nvalue = [2, 0, 0]", fillcolor="#e58139"] ;
493 -> 495 ;
496 [label="Escore <= 1.66\ngini = 0.32\nsamples = 5\nvalue = [4, 1, 0]", fillcolor="#eca06a"] ;
474 -> 496 ;
497 [label="gini = 0.0\nsamples = 4\nvalue = [4, 0, 0]", fillcolor="#e58139"] ;
496 -> 497 ;
498 [label="gini = 0.0\nsamples = 1\nvalue = [0, 1, 0]", fillcolor="#39e581"] ;
496 -> 498 ;
499 [label="Female <= 0.5\ngini = 0.61\nsamples = 21\nvalue = [4, 11, 6]", fillcolor="#bdf6d5"] ;
473 -> 499 ;
500 [label="gini = 0.0\nsamples = 5\nvalue = [0, 5, 0]", fillcolor="#39e581"] ;
499 -> 500 ;
501 [label="Oscore <= 0.22\ngini = 0.66\nsamples = 16\nvalue = [4, 6, 6]", fillcolor="#ffffff"] ;
499 -> 501 ;
502 [label="no_degree <= 0.5\ngini = 0.38\nsamples = 4\nvalue = [3, 1, 0]", fillcolor="#eeab7b"] ;
501 -> 502 ;
503 [label="gini = 0.0\nsamples = 3\nvalue = [3, 0, 0]", fillcolor="#e58139"] ;
502 -> 503 ;
504 [label="gini = 0.0\nsamples = 1\nvalue = [0, 1, 0]", fillcolor="#39e581"] ;
502 -> 504 ;
505 [label="Escore <= -0.37\ngini = 0.57\nsamples = 12\nvalue = [1, 5, 6]", fillcolor="#ede3fb"] ;
501 -> 505 ;
506 [label="gini = 0.0\nsamples = 3\nvalue = [0, 3, 0]", fillcolor="#39e581"] ;
505 -> 506 ;
507 [label="Impulsive <= -0.01\ngini = 0.49\nsamples = 9\nvalue = [1, 2, 6]", fillcolor="#b78ef0"] ;
505 -> 507 ;
508 [label="Cscore <= 0.95\ngini = 0.28\nsamples = 6\nvalue = [1, 0, 5]", fillcolor="#9a61ea"] ;
507 -> 508 ;
509 [label="SS <= -0.69\ngini = 0.5\nsamples = 2\nvalue = [1, 0, 1]", fillcolor="#ffffff"] ;
508 -> 509 ;
510 [label="gini = 0.0\nsamples = 1\nvalue = [1, 0, 0]", fillcolor="#e58139"] ;
509 -> 510 ;
511 [label="gini = 0.0\nsamples = 1\nvalue = [0, 0, 1]", fillcolor="#8139e5"] ;
509 -> 511 ;
512 [label="gini = 0.0\nsamples = 4\nvalue = [0, 0, 4]", fillcolor="#8139e5"] ;
508 -> 512 ;
513 [label="Escore <= -0.08\ngini = 0.44\nsamples = 3\nvalue = [0, 2, 1]", fillcolor="#9cf2c0"] ;
507 -> 513 ;
514 [label="gini = 0.0\nsamples = 1\nvalue = [0, 0, 1]", fillcolor="#8139e5"] ;
513 -> 514 ;
515 [label="gini = 0.0\nsamples = 2\nvalue = [0, 2, 0]", fillcolor="#39e581"] ;
513 -> 515 ;
516 [label="Cscore <= 0.34\ngini = 0.57\nsamples = 364\nvalue = [58, 92, 214]", fillcolor="#c6a6f3"] ;
266 -> 516 ;
517 [label="SS <= 1.0\ngini = 0.49\nsamples = 236\nvalue = [20, 60, 156]", fillcolor="#ba93f1"] ;
516 -> 517 ;
518 [label="ls_18 <= 0.5\ngini = 0.53\nsamples = 197\nvalue = [19, 57, 121]", fillcolor="#c5a4f3"] ;
517 -> 518 ;
519 [label="Ascore <= 1.71\ngini = 0.52\nsamples = 189\nvalue = [18, 52, 119]", fillcolor="#c19ef2"] ;
518 -> 519 ;
520 [label="Escore <= -1.94\ngini = 0.51\nsamples = 184\nvalue = [15, 52, 117]", fillcolor="#c19ef2"] ;
519 -> 520 ;
521 [label="gini = 0.0\nsamples = 2\nvalue = [0, 2, 0]", fillcolor="#39e581"] ;
520 -> 521 ;
522 [label="Cscore <= -1.71\ngini = 0.5\nsamples = 182\nvalue = [15, 50, 117]", fillcolor="#bf9af2"] ;
520 -> 522 ;
523 [label="gini = 0.0\nsamples = 7\nvalue = [0, 0, 7]", fillcolor="#8139e5"] ;
522 -> 523 ;
524 [label="Age_55-64 <= 0.5\ngini = 0.52\nsamples = 175\nvalue = [15, 50, 110]", fillcolor="#c3a0f3"] ;
522 -> 524 ;
525 [label="Oscore <= 0.97\ngini = 0.5\nsamples = 163\nvalue = [13, 44, 106]", fillcolor="#bd98f1"] ;
524 -> 525 ;
526 [label="Nscore <= -0.0\ngini = 0.51\nsamples = 146\nvalue = [11, 43, 92]", fillcolor="#c3a1f3"] ;
525 -> 526 ;
527 [label="Impulsive <= 0.36\ngini = 0.59\nsamples = 63\nvalue = [8, 22, 33]", fillcolor="#ddcaf8"] ;
526 -> 527 ;
528 [label="Age_35-44 <= 0.5\ngini = 0.52\nsamples = 41\nvalue = [4, 11, 26]", fillcolor="#c09cf2"] ;
527 -> 528 ;
529 [label="SS <= -0.07\ngini = 0.42\nsamples = 30\nvalue = [0, 9, 21]", fillcolor="#b78ef0"] ;
528 -> 529 ;
530 [label="Oscore <= 0.22\ngini = 0.48\nsamples = 10\nvalue = [0, 6, 4]", fillcolor="#bdf6d5"] ;
529 -> 530 ;
531 [label="gini = 0.0\nsamples = 5\nvalue = [0, 5, 0]", fillcolor="#39e581"] ;
530 -> 531 ;
532 [label="Impulsive <= -0.46\ngini = 0.32\nsamples = 5\nvalue = [0, 1, 4]", fillcolor="#a06aec"] ;
530 -> 532 ;
533 [label="gini = 0.0\nsamples = 1\nvalue = [0, 1, 0]", fillcolor="#39e581"] ;
532 -> 533 ;
534 [label="gini = 0.0\nsamples = 4\nvalue = [0, 0, 4]", fillcolor="#8139e5"] ;
532 -> 534 ;
535 [label="Nscore <= -0.41\ngini = 0.26\nsamples = 20\nvalue = [0, 3, 17]", fillcolor="#975cea"] ;
529 -> 535 ;
536 [label="university <= 0.5\ngini = 0.12\nsamples = 16\nvalue = [0, 1, 15]", fillcolor="#8946e7"] ;
535 -> 536 ;
537 [label="gini = 0.0\nsamples = 12\nvalue = [0, 0, 12]", fillcolor="#8139e5"] ;
536 -> 537 ;
538 [label="Cscore <= -0.01\ngini = 0.38\nsamples = 4\nvalue = [0, 1, 3]", fillcolor="#ab7bee"] ;
536 -> 538 ;
539 [label="gini = 0.0\nsamples = 3\nvalue = [0, 0, 3]", fillcolor="#8139e5"] ;
538 -> 539 ;
540 [label="gini = 0.0\nsamples = 1\nvalue = [0, 1, 0]", fillcolor="#39e581"] ;
538 -> 540 ;
541 [label="Oscore <= 0.06\ngini = 0.5\nsamples = 4\nvalue = [0, 2, 2]", fillcolor="#ffffff"] ;
535 -> 541 ;
542 [label="gini = 0.0\nsamples = 2\nvalue = [0, 2, 0]", fillcolor="#39e581"] ;
541 -> 542 ;
543 [label="gini = 0.0\nsamples = 2\nvalue = [0, 0, 2]", fillcolor="#8139e5"] ;
541 -> 543 ;
544 [label="Ascore <= -0.84\ngini = 0.63\nsamples = 11\nvalue = [4, 2, 5]", fillcolor="#ede3fb"] ;
528 -> 544 ;
545 [label="SS <= 0.09\ngini = 0.44\nsamples = 3\nvalue = [0, 2, 1]", fillcolor="#9cf2c0"] ;
544 -> 545 ;
546 [label="gini = 0.0\nsamples = 1\nvalue = [0, 0, 1]", fillcolor="#8139e5"] ;
545 -> 546 ;
547 [label="gini = 0.0\nsamples = 2\nvalue = [0, 2, 0]", fillcolor="#39e581"] ;
545 -> 547 ;
548 [label="Ascore <= 0.85\ngini = 0.5\nsamples = 8\nvalue = [4, 0, 4]", fillcolor="#ffffff"] ;
544 -> 548 ;
549 [label="ls_16 <= 0.5\ngini = 0.44\nsamples = 6\nvalue = [2, 0, 4]", fillcolor="#c09cf2"] ;
548 -> 549 ;
550 [label="gini = 0.0\nsamples = 4\nvalue = [0, 0, 4]", fillcolor="#8139e5"] ;
549 -> 550 ;
551 [label="gini = 0.0\nsamples = 2\nvalue = [2, 0, 0]", fillcolor="#e58139"] ;
549 -> 551 ;
552 [label="gini = 0.0\nsamples = 2\nvalue = [2, 0, 0]", fillcolor="#e58139"] ;
548 -> 552 ;
553 [label="Escore <= -0.75\ngini = 0.62\nsamples = 22\nvalue = [4, 11, 7]", fillcolor="#caf8dd"] ;
527 -> 553 ;
554 [label="Impulsive <= 1.2\ngini = 0.44\nsamples = 3\nvalue = [2, 1, 0]", fillcolor="#f2c09c"] ;
553 -> 554 ;
555 [label="gini = 0.0\nsamples = 2\nvalue = [2, 0, 0]", fillcolor="#e58139"] ;
554 -> 555 ;
556 [label="gini = 0.0\nsamples = 1\nvalue = [0, 1, 0]", fillcolor="#39e581"] ;
554 -> 556 ;
557 [label="Age_45-54 <= 0.5\ngini = 0.58\nsamples = 19\nvalue = [2, 10, 7]", fillcolor="#cef8e0"] ;
553 -> 557 ;
558 [label="Ascore <= -0.68\ngini = 0.44\nsamples = 15\nvalue = [0, 10, 5]", fillcolor="#9cf2c0"] ;
557 -> 558 ;
559 [label="Escore <= 0.17\ngini = 0.48\nsamples = 5\nvalue = [0, 2, 3]", fillcolor="#d5bdf6"] ;
558 -> 559 ;
560 [label="gini = 0.0\nsamples = 2\nvalue = [0, 0, 2]", fillcolor="#8139e5"] ;
559 -> 560 ;
561 [label="Age_35-44 <= 0.5\ngini = 0.44\nsamples = 3\nvalue = [0, 2, 1]", fillcolor="#9cf2c0"] ;
559 -> 561 ;
562 [label="gini = 0.0\nsamples = 1\nvalue = [0, 0, 1]", fillcolor="#8139e5"] ;
561 -> 562 ;
563 [label="gini = 0.0\nsamples = 2\nvalue = [0, 2, 0]", fillcolor="#39e581"] ;
561 -> 563 ;
564 [label="master <= 0.5\ngini = 0.32\nsamples = 10\nvalue = [0, 8, 2]", fillcolor="#6aeca0"] ;
558 -> 564 ;
565 [label="Age_35-44 <= 0.5\ngini = 0.2\nsamples = 9\nvalue = [0, 8, 1]", fillcolor="#52e891"] ;
564 -> 565 ;
566 [label="gini = 0.0\nsamples = 6\nvalue = [0, 6, 0]", fillcolor="#39e581"] ;
565 -> 566 ;
567 [label="Nscore <= -0.41\ngini = 0.44\nsamples = 3\nvalue = [0, 2, 1]", fillcolor="#9cf2c0"] ;
565 -> 567 ;
568 [label="gini = 0.0\nsamples = 2\nvalue = [0, 2, 0]", fillcolor="#39e581"] ;
567 -> 568 ;
569 [label="gini = 0.0\nsamples = 1\nvalue = [0, 0, 1]", fillcolor="#8139e5"] ;
567 -> 569 ;
570 [label="gini = 0.0\nsamples = 1\nvalue = [0, 0, 1]", fillcolor="#8139e5"] ;
564 -> 570 ;
571 [label="Escore <= -0.15\ngini = 0.5\nsamples = 4\nvalue = [2, 0, 2]", fillcolor="#ffffff"] ;
557 -> 571 ;
572 [label="gini = 0.0\nsamples = 2\nvalue = [0, 0, 2]", fillcolor="#8139e5"] ;
571 -> 572 ;
573 [label="gini = 0.0\nsamples = 2\nvalue = [2, 0, 0]", fillcolor="#e58139"] ;
571 -> 573 ;
574 [label="Oscore <= -0.78\ngini = 0.43\nsamples = 83\nvalue = [3, 21, 59]", fillcolor="#b286ef"] ;
526 -> 574 ;
575 [label="Ascore <= 1.03\ngini = 0.33\nsamples = 26\nvalue = [3, 2, 21]", fillcolor="#9c64eb"] ;
574 -> 575 ;
576 [label="Escore <= 0.09\ngini = 0.28\nsamples = 25\nvalue = [2, 2, 21]", fillcolor="#975bea"] ;
575 -> 576 ;
577 [label="gini = 0.0\nsamples = 14\nvalue = [0, 0, 14]", fillcolor="#8139e5"] ;
576 -> 577 ;
578 [label="Escore <= 0.56\ngini = 0.53\nsamples = 11\nvalue = [2, 2, 7]", fillcolor="#b991f1"] ;
576 -> 578 ;
579 [label="Cscore <= -0.14\ngini = 0.62\nsamples = 4\nvalue = [2, 1, 1]", fillcolor="#f6d5bd"] ;
578 -> 579 ;
580 [label="gini = 0.0\nsamples = 2\nvalue = [2, 0, 0]", fillcolor="#e58139"] ;
579 -> 580 ;
581 [label="Nscore <= 0.48\ngini = 0.5\nsamples = 2\nvalue = [0, 1, 1]", fillcolor="#ffffff"] ;
579 -> 581 ;
582 [label="gini = 0.0\nsamples = 1\nvalue = [0, 0, 1]", fillcolor="#8139e5"] ;
581 -> 582 ;
583 [label="gini = 0.0\nsamples = 1\nvalue = [0, 1, 0]", fillcolor="#39e581"] ;
581 -> 583 ;
584 [label="master <= 0.5\ngini = 0.24\nsamples = 7\nvalue = [0, 1, 6]", fillcolor="#965ae9"] ;
578 -> 584 ;
585 [label="gini = 0.0\nsamples = 6\nvalue = [0, 0, 6]", fillcolor="#8139e5"] ;
584 -> 585 ;
586 [label="gini = 0.0\nsamples = 1\nvalue = [0, 1, 0]", fillcolor="#39e581"] ;
584 -> 586 ;
587 [label="gini = 0.0\nsamples = 1\nvalue = [1, 0, 0]", fillcolor="#e58139"] ;
575 -> 587 ;
588 [label="Cscore <= -0.78\ngini = 0.44\nsamples = 57\nvalue = [0, 19, 38]", fillcolor="#c09cf2"] ;
574 -> 588 ;
589 [label="diploma <= 0.5\ngini = 0.5\nsamples = 15\nvalue = [0, 8, 7]", fillcolor="#e6fcef"] ;
588 -> 589 ;
590 [label="Age_45-54 <= 0.5\ngini = 0.32\nsamples = 10\nvalue = [0, 8, 2]", fillcolor="#6aeca0"] ;
589 -> 590 ;
591 [label="no_degree <= 0.5\ngini = 0.2\nsamples = 9\nvalue = [0, 8, 1]", fillcolor="#52e891"] ;
590 -> 591 ;
592 [label="gini = 0.0\nsamples = 7\nvalue = [0, 7, 0]", fillcolor="#39e581"] ;
591 -> 592 ;
593 [label="Ascore <= -0.55\ngini = 0.5\nsamples = 2\nvalue = [0, 1, 1]", fillcolor="#ffffff"] ;
591 -> 593 ;
594 [label="gini = 0.0\nsamples = 1\nvalue = [0, 0, 1]", fillcolor="#8139e5"] ;
593 -> 594 ;
595 [label="gini = 0.0\nsamples = 1\nvalue = [0, 1, 0]", fillcolor="#39e581"] ;
593 -> 595 ;
596 [label="gini = 0.0\nsamples = 1\nvalue = [0, 0, 1]", fillcolor="#8139e5"] ;
590 -> 596 ;
597 [label="gini = 0.0\nsamples = 5\nvalue = [0, 0, 5]", fillcolor="#8139e5"] ;
589 -> 597 ;
598 [label="Cscore <= -0.07\ngini = 0.39\nsamples = 42\nvalue = [0, 11, 31]", fillcolor="#ae7fee"] ;
588 -> 598 ;
599 [label="Escore <= 0.16\ngini = 0.26\nsamples = 26\nvalue = [0, 4, 22]", fillcolor="#985dea"] ;
598 -> 599 ;
600 [label="Impulsive <= -1.05\ngini = 0.09\nsamples = 21\nvalue = [0, 1, 20]", fillcolor="#8743e6"] ;
599 -> 600 ;
601 [label="Escore <= -0.15\ngini = 0.5\nsamples = 2\nvalue = [0, 1, 1]", fillcolor="#ffffff"] ;
600 -> 601 ;
602 [label="gini = 0.0\nsamples = 1\nvalue = [0, 1, 0]", fillcolor="#39e581"] ;
601 -> 602 ;
603 [label="gini = 0.0\nsamples = 1\nvalue = [0, 0, 1]", fillcolor="#8139e5"] ;
601 -> 603 ;
604 [label="gini = 0.0\nsamples = 19\nvalue = [0, 0, 19]", fillcolor="#8139e5"] ;
600 -> 604 ;
605 [label="university <= 0.5\ngini = 0.48\nsamples = 5\nvalue = [0, 3, 2]", fillcolor="#bdf6d5"] ;
599 -> 605 ;
606 [label="gini = 0.0\nsamples = 3\nvalue = [0, 3, 0]", fillcolor="#39e581"] ;
605 -> 606 ;
607 [label="gini = 0.0\nsamples = 2\nvalue = [0, 0, 2]", fillcolor="#8139e5"] ;
605 -> 607 ;
608 [label="Escore <= -0.23\ngini = 0.49\nsamples = 16\nvalue = [0, 7, 9]", fillcolor="#e3d3f9"] ;
598 -> 608 ;
609 [label="gini = 0.0\nsamples = 6\nvalue = [0, 6, 0]", fillcolor="#39e581"] ;
608 -> 609 ;
610 [label="white <= 0.5\ngini = 0.18\nsamples = 10\nvalue = [0, 1, 9]", fillcolor="#8f4fe8"] ;
608 -> 610 ;
611 [label="gini = 0.0\nsamples = 1\nvalue = [0, 1, 0]", fillcolor="#39e581"] ;
610 -> 611 ;
612 [label="gini = 0.0\nsamples = 9\nvalue = [0, 0, 9]", fillcolor="#8139e5"] ;
610 -> 612 ;
613 [label="Nscore <= 0.97\ngini = 0.3\nsamples = 17\nvalue = [2, 1, 14]", fillcolor="#9a61ea"] ;
525 -> 613 ;
614 [label="gini = 0.0\nsamples = 12\nvalue = [0, 0, 12]", fillcolor="#8139e5"] ;
613 -> 614 ;
615 [label="Nscore <= 1.79\ngini = 0.64\nsamples = 5\nvalue = [2, 1, 2]", fillcolor="#ffffff"] ;
613 -> 615 ;
616 [label="Nscore <= 1.13\ngini = 0.5\nsamples = 4\nvalue = [2, 0, 2]", fillcolor="#ffffff"] ;
615 -> 616 ;
617 [label="gini = 0.0\nsamples = 1\nvalue = [1, 0, 0]", fillcolor="#e58139"] ;
616 -> 617 ;
618 [label="Ascore <= 0.62\ngini = 0.44\nsamples = 3\nvalue = [1, 0, 2]", fillcolor="#c09cf2"] ;
616 -> 618 ;
619 [label="gini = 0.0\nsamples = 2\nvalue = [0, 0, 2]", fillcolor="#8139e5"] ;
618 -> 619 ;
620 [label="gini = 0.0\nsamples = 1\nvalue = [1, 0, 0]", fillcolor="#e58139"] ;
618 -> 620 ;
621 [label="gini = 0.0\nsamples = 1\nvalue = [0, 1, 0]", fillcolor="#39e581"] ;
615 -> 621 ;
622 [label="Escore <= -0.64\ngini = 0.61\nsamples = 12\nvalue = [2, 6, 4]", fillcolor="#cef8e0"] ;
524 -> 622 ;
623 [label="Oscore <= -0.92\ngini = 0.5\nsamples = 6\nvalue = [1, 1, 4]", fillcolor="#b388ef"] ;
622 -> 623 ;
624 [label="black_white <= 0.5\ngini = 0.5\nsamples = 2\nvalue = [1, 1, 0]", fillcolor="#ffffff"] ;
623 -> 624 ;
625 [label="gini = 0.0\nsamples = 1\nvalue = [1, 0, 0]", fillcolor="#e58139"] ;
624 -> 625 ;
626 [label="gini = 0.0\nsamples = 1\nvalue = [0, 1, 0]", fillcolor="#39e581"] ;
624 -> 626 ;
627 [label="gini = 0.0\nsamples = 4\nvalue = [0, 0, 4]", fillcolor="#8139e5"] ;
623 -> 627 ;
628 [label="SS <= 0.58\ngini = 0.28\nsamples = 6\nvalue = [1, 5, 0]", fillcolor="#61ea9a"] ;
622 -> 628 ;
629 [label="gini = 0.0\nsamples = 5\nvalue = [0, 5, 0]", fillcolor="#39e581"] ;
628 -> 629 ;
630 [label="gini = 0.0\nsamples = 1\nvalue = [1, 0, 0]", fillcolor="#e58139"] ;
628 -> 630 ;
631 [label="Impulsive <= -0.46\ngini = 0.48\nsamples = 5\nvalue = [3, 0, 2]", fillcolor="#f6d5bd"] ;
519 -> 631 ;
632 [label="gini = 0.0\nsamples = 2\nvalue = [0, 0, 2]", fillcolor="#8139e5"] ;
631 -> 632 ;
633 [label="gini = 0.0\nsamples = 3\nvalue = [3, 0, 0]", fillcolor="#e58139"] ;
631 -> 633 ;
634 [label="Impulsive <= 0.54\ngini = 0.53\nsamples = 8\nvalue = [1, 5, 2]", fillcolor="#9cf2c0"] ;
518 -> 634 ;
635 [label="Ascore <= 0.07\ngini = 0.62\nsamples = 4\nvalue = [1, 1, 2]", fillcolor="#d5bdf6"] ;
634 -> 635 ;
636 [label="Escore <= -0.75\ngini = 0.5\nsamples = 2\nvalue = [1, 1, 0]", fillcolor="#ffffff"] ;
635 -> 636 ;
637 [label="gini = 0.0\nsamples = 1\nvalue = [1, 0, 0]", fillcolor="#e58139"] ;
636 -> 637 ;
638 [label="gini = 0.0\nsamples = 1\nvalue = [0, 1, 0]", fillcolor="#39e581"] ;
636 -> 638 ;
639 [label="gini = 0.0\nsamples = 2\nvalue = [0, 0, 2]", fillcolor="#8139e5"] ;
635 -> 639 ;
640 [label="gini = 0.0\nsamples = 4\nvalue = [0, 4, 0]", fillcolor="#39e581"] ;
634 -> 640 ;
641 [label="Oscore <= -1.7\ngini = 0.19\nsamples = 39\nvalue = [1, 3, 35]", fillcolor="#8f4fe8"] ;
517 -> 641 ;
642 [label="gini = 0.0\nsamples = 1\nvalue = [1, 0, 0]", fillcolor="#e58139"] ;
641 -> 642 ;
643 [label="Nscore <= -0.3\ngini = 0.15\nsamples = 38\nvalue = [0, 3, 35]", fillcolor="#8c4ae7"] ;
641 -> 643 ;
644 [label="Cscore <= -0.72\ngini = 0.38\nsamples = 8\nvalue = [0, 2, 6]", fillcolor="#ab7bee"] ;
643 -> 644 ;
645 [label="Cscore <= -1.08\ngini = 0.44\nsamples = 3\nvalue = [0, 2, 1]", fillcolor="#9cf2c0"] ;
644 -> 645 ;
646 [label="gini = 0.0\nsamples = 1\nvalue = [0, 0, 1]", fillcolor="#8139e5"] ;
645 -> 646 ;
647 [label="gini = 0.0\nsamples = 2\nvalue = [0, 2, 0]", fillcolor="#39e581"] ;
645 -> 647 ;
648 [label="gini = 0.0\nsamples = 5\nvalue = [0, 0, 5]", fillcolor="#8139e5"] ;
644 -> 648 ;
649 [label="Ascore <= -1.63\ngini = 0.06\nsamples = 30\nvalue = [0, 1, 29]", fillcolor="#8540e6"] ;
643 -> 649 ;
650 [label="Nscore <= 1.49\ngini = 0.44\nsamples = 3\nvalue = [0, 1, 2]", fillcolor="#c09cf2"] ;
649 -> 650 ;
651 [label="gini = 0.0\nsamples = 1\nvalue = [0, 1, 0]", fillcolor="#39e581"] ;
650 -> 651 ;
652 [label="gini = 0.0\nsamples = 2\nvalue = [0, 0, 2]", fillcolor="#8139e5"] ;
650 -> 652 ;
653 [label="gini = 0.0\nsamples = 27\nvalue = [0, 0, 27]", fillcolor="#8139e5"] ;
649 -> 653 ;
654 [label="Oscore <= -0.1\ngini = 0.64\nsamples = 128\nvalue = [38, 32, 58]", fillcolor="#e3d3f9"] ;
516 -> 654 ;
655 [label="Escore <= -1.02\ngini = 0.65\nsamples = 58\nvalue = [25, 17, 16]", fillcolor="#fae6d8"] ;
654 -> 655 ;
656 [label="gini = 0.0\nsamples = 6\nvalue = [0, 0, 6]", fillcolor="#8139e5"] ;
655 -> 656 ;
657 [label="diploma <= 0.5\ngini = 0.62\nsamples = 52\nvalue = [25, 17, 10]", fillcolor="#f9e2d2"] ;
655 -> 657 ;
658 [label="Oscore <= -0.25\ngini = 0.63\nsamples = 39\nvalue = [15, 17, 7]", fillcolor="#effdf5"] ;
657 -> 658 ;
659 [label="Cscore <= 0.85\ngini = 0.63\nsamples = 35\nvalue = [11, 17, 7]", fillcolor="#cef8e0"] ;
658 -> 659 ;
660 [label="ls_16 <= 0.5\ngini = 0.5\nsamples = 18\nvalue = [3, 12, 3]", fillcolor="#88efb3"] ;
659 -> 660 ;
661 [label="Age_35-44 <= 0.5\ngini = 0.42\nsamples = 15\nvalue = [1, 11, 3]", fillcolor="#7beeab"] ;
660 -> 661 ;
662 [label="Ascore <= -0.92\ngini = 0.36\nsamples = 14\nvalue = [1, 11, 2]", fillcolor="#6beca0"] ;
661 -> 662 ;
663 [label="gini = 0.0\nsamples = 1\nvalue = [0, 0, 1]", fillcolor="#8139e5"] ;
662 -> 663 ;
664 [label="Nscore <= -0.57\ngini = 0.27\nsamples = 13\nvalue = [1, 11, 1]", fillcolor="#5ae996"] ;
662 -> 664 ;
665 [label="master <= 0.5\ngini = 0.56\nsamples = 5\nvalue = [1, 3, 1]", fillcolor="#9cf2c0"] ;
664 -> 665 ;
666 [label="Age_25-34 <= 0.5\ngini = 0.38\nsamples = 4\nvalue = [0, 3, 1]", fillcolor="#7beeab"] ;
665 -> 666 ;
667 [label="gini = 0.0\nsamples = 3\nvalue = [0, 3, 0]", fillcolor="#39e581"] ;
666 -> 667 ;
668 [label="gini = 0.0\nsamples = 1\nvalue = [0, 0, 1]", fillcolor="#8139e5"] ;
666 -> 668 ;
669 [label="gini = 0.0\nsamples = 1\nvalue = [1, 0, 0]", fillcolor="#e58139"] ;
665 -> 669 ;
670 [label="gini = 0.0\nsamples = 8\nvalue = [0, 8, 0]", fillcolor="#39e581"] ;
664 -> 670 ;
671 [label="gini = 0.0\nsamples = 1\nvalue = [0, 0, 1]", fillcolor="#8139e5"] ;
661 -> 671 ;
672 [label="SS <= 0.09\ngini = 0.44\nsamples = 3\nvalue = [2, 1, 0]", fillcolor="#f2c09c"] ;
660 -> 672 ;
673 [label="gini = 0.0\nsamples = 1\nvalue = [0, 1, 0]", fillcolor="#39e581"] ;
672 -> 673 ;
674 [label="gini = 0.0\nsamples = 2\nvalue = [2, 0, 0]", fillcolor="#e58139"] ;
672 -> 674 ;
675 [label="Nscore <= -0.05\ngini = 0.64\nsamples = 17\nvalue = [8, 5, 4]", fillcolor="#f8e0ce"] ;
659 -> 675 ;
676 [label="university <= 0.5\ngini = 0.66\nsamples = 14\nvalue = [5, 5, 4]", fillcolor="#ffffff"] ;
675 -> 676 ;
677 [label="Oscore <= -0.58\ngini = 0.5\nsamples = 6\nvalue = [0, 3, 3]", fillcolor="#ffffff"] ;
676 -> 677 ;
678 [label="gini = 0.0\nsamples = 2\nvalue = [0, 0, 2]", fillcolor="#8139e5"] ;
677 -> 678 ;
679 [label="no_degree <= 0.5\ngini = 0.38\nsamples = 4\nvalue = [0, 3, 1]", fillcolor="#7beeab"] ;
677 -> 679 ;
680 [label="gini = 0.0\nsamples = 3\nvalue = [0, 3, 0]", fillcolor="#39e581"] ;
679 -> 680 ;
681 [label="gini = 0.0\nsamples = 1\nvalue = [0, 0, 1]", fillcolor="#8139e5"] ;
679 -> 681 ;
682 [label="Oscore <= -0.98\ngini = 0.53\nsamples = 8\nvalue = [5, 2, 1]", fillcolor="#f2c09c"] ;
676 -> 682 ;
683 [label="Cscore <= 1.72\ngini = 0.5\nsamples = 2\nvalue = [0, 1, 1]", fillcolor="#ffffff"] ;
682 -> 683 ;
684 [label="gini = 0.0\nsamples = 1\nvalue = [0, 1, 0]", fillcolor="#39e581"] ;
683 -> 684 ;
685 [label="gini = 0.0\nsamples = 1\nvalue = [0, 0, 1]", fillcolor="#8139e5"] ;
683 -> 685 ;
686 [label="black_white <= 0.5\ngini = 0.28\nsamples = 6\nvalue = [5, 1, 0]", fillcolor="#ea9a61"] ;
682 -> 686 ;
687 [label="gini = 0.0\nsamples = 5\nvalue = [5, 0, 0]", fillcolor="#e58139"] ;
686 -> 687 ;
688 [label="gini = 0.0\nsamples = 1\nvalue = [0, 1, 0]", fillcolor="#39e581"] ;
686 -> 688 ;
689 [label="gini = 0.0\nsamples = 3\nvalue = [3, 0, 0]", fillcolor="#e58139"] ;
675 -> 689 ;
690 [label="gini = 0.0\nsamples = 4\nvalue = [4, 0, 0]", fillcolor="#e58139"] ;
658 -> 690 ;
691 [label="Age_25-34 <= 0.5\ngini = 0.36\nsamples = 13\nvalue = [10, 0, 3]", fillcolor="#eda774"] ;
657 -> 691 ;
692 [label="Escore <= -0.76\ngini = 0.17\nsamples = 11\nvalue = [10, 0, 1]", fillcolor="#e88e4d"] ;
691 -> 692 ;
693 [label="gini = 0.0\nsamples = 1\nvalue = [0, 0, 1]", fillcolor="#8139e5"] ;
692 -> 693 ;
694 [label="gini = 0.0\nsamples = 10\nvalue = [10, 0, 0]", fillcolor="#e58139"] ;
692 -> 694 ;
695 [label="gini = 0.0\nsamples = 2\nvalue = [0, 0, 2]", fillcolor="#8139e5"] ;
691 -> 695 ;
696 [label="Escore <= 1.2\ngini = 0.56\nsamples = 70\nvalue = [13, 15, 42]", fillcolor="#c19ef2"] ;
654 -> 696 ;
697 [label="Nscore <= -0.73\ngini = 0.51\nsamples = 45\nvalue = [3, 14, 28]", fillcolor="#c6a6f3"] ;
696 -> 697 ;
698 [label="Female <= 0.5\ngini = 0.54\nsamples = 12\nvalue = [1, 7, 4]", fillcolor="#b5f5d0"] ;
697 -> 698 ;
699 [label="Escore <= 0.24\ngini = 0.57\nsamples = 7\nvalue = [1, 2, 4]", fillcolor="#cdb0f5"] ;
698 -> 699 ;
700 [label="Age_35-44 <= 0.5\ngini = 0.44\nsamples = 3\nvalue = [1, 2, 0]", fillcolor="#9cf2c0"] ;
699 -> 700 ;
701 [label="gini = 0.0\nsamples = 2\nvalue = [0, 2, 0]", fillcolor="#39e581"] ;
700 -> 701 ;
702 [label="gini = 0.0\nsamples = 1\nvalue = [1, 0, 0]", fillcolor="#e58139"] ;
700 -> 702 ;
703 [label="gini = 0.0\nsamples = 4\nvalue = [0, 0, 4]", fillcolor="#8139e5"] ;
699 -> 703 ;
704 [label="gini = 0.0\nsamples = 5\nvalue = [0, 5, 0]", fillcolor="#39e581"] ;
698 -> 704 ;
705 [label="Escore <= -0.44\ngini = 0.42\nsamples = 33\nvalue = [2, 7, 24]", fillcolor="#ad7eee"] ;
697 -> 705 ;
706 [label="Nscore <= 0.36\ngini = 0.62\nsamples = 4\nvalue = [1, 2, 1]", fillcolor="#bdf6d5"] ;
705 -> 706 ;
707 [label="SS <= -0.07\ngini = 0.5\nsamples = 2\nvalue = [1, 0, 1]", fillcolor="#ffffff"] ;
706 -> 707 ;
708 [label="gini = 0.0\nsamples = 1\nvalue = [0, 0, 1]", fillcolor="#8139e5"] ;
707 -> 708 ;
709 [label="gini = 0.0\nsamples = 1\nvalue = [1, 0, 0]", fillcolor="#e58139"] ;
707 -> 709 ;
710 [label="gini = 0.0\nsamples = 2\nvalue = [0, 2, 0]", fillcolor="#39e581"] ;
706 -> 710 ;
711 [label="Ascore <= -1.92\ngini = 0.34\nsamples = 29\nvalue = [1, 5, 23]", fillcolor="#a06aec"] ;
705 -> 711 ;
712 [label="gini = 0.0\nsamples = 1\nvalue = [1, 0, 0]", fillcolor="#e58139"] ;
711 -> 712 ;
713 [label="Oscore <= 1.34\ngini = 0.29\nsamples = 28\nvalue = [0, 5, 23]", fillcolor="#9c64eb"] ;
711 -> 713 ;
714 [label="asian <= 0.5\ngini = 0.25\nsamples = 27\nvalue = [0, 4, 23]", fillcolor="#975bea"] ;
713 -> 714 ;
715 [label="Age_25-34 <= 0.5\ngini = 0.2\nsamples = 26\nvalue = [0, 3, 23]", fillcolor="#9153e8"] ;
714 -> 715 ;
716 [label="no_degree <= 0.5\ngini = 0.09\nsamples = 20\nvalue = [0, 1, 19]", fillcolor="#8843e6"] ;
715 -> 716 ;
717 [label="gini = 0.0\nsamples = 18\nvalue = [0, 0, 18]", fillcolor="#8139e5"] ;
716 -> 717 ;
718 [label="Escore <= 0.72\ngini = 0.5\nsamples = 2\nvalue = [0, 1, 1]", fillcolor="#ffffff"] ;
716 -> 718 ;
719 [label="gini = 0.0\nsamples = 1\nvalue = [0, 1, 0]", fillcolor="#39e581"] ;
718 -> 719 ;
720 [label="gini = 0.0\nsamples = 1\nvalue = [0, 0, 1]", fillcolor="#8139e5"] ;
718 -> 720 ;
721 [label="Escore <= 0.72\ngini = 0.44\nsamples = 6\nvalue = [0, 2, 4]", fillcolor="#c09cf2"] ;
715 -> 721 ;
722 [label="gini = 0.0\nsamples = 3\nvalue = [0, 0, 3]", fillcolor="#8139e5"] ;
721 -> 722 ;
723 [label="Impulsive <= 0.54\ngini = 0.44\nsamples = 3\nvalue = [0, 2, 1]", fillcolor="#9cf2c0"] ;
721 -> 723 ;
724 [label="gini = 0.0\nsamples = 2\nvalue = [0, 2, 0]", fillcolor="#39e581"] ;
723 -> 724 ;
725 [label="gini = 0.0\nsamples = 1\nvalue = [0, 0, 1]", fillcolor="#8139e5"] ;
723 -> 725 ;
726 [label="gini = 0.0\nsamples = 1\nvalue = [0, 1, 0]", fillcolor="#39e581"] ;
714 -> 726 ;
727 [label="gini = 0.0\nsamples = 1\nvalue = [0, 1, 0]", fillcolor="#39e581"] ;
713 -> 727 ;
728 [label="Escore <= 1.66\ngini = 0.52\nsamples = 25\nvalue = [10, 1, 14]", fillcolor="#ddcaf8"] ;
696 -> 728 ;
729 [label="Age_25-34 <= 0.5\ngini = 0.53\nsamples = 17\nvalue = [10, 1, 6]", fillcolor="#f6d1b7"] ;
728 -> 729 ;
730 [label="Cscore <= 0.67\ngini = 0.18\nsamples = 10\nvalue = [9, 0, 1]", fillcolor="#e88f4f"] ;
729 -> 730 ;
731 [label="Impulsive <= 0.33\ngini = 0.5\nsamples = 2\nvalue = [1, 0, 1]", fillcolor="#ffffff"] ;
730 -> 731 ;
732 [label="gini = 0.0\nsamples = 1\nvalue = [0, 0, 1]", fillcolor="#8139e5"] ;
731 -> 732 ;
733 [label="gini = 0.0\nsamples = 1\nvalue = [1, 0, 0]", fillcolor="#e58139"] ;
731 -> 733 ;
734 [label="gini = 0.0\nsamples = 8\nvalue = [8, 0, 0]", fillcolor="#e58139"] ;
730 -> 734 ;
735 [label="Ascore <= 0.86\ngini = 0.45\nsamples = 7\nvalue = [1, 1, 5]", fillcolor="#ab7bee"] ;
729 -> 735 ;
736 [label="gini = 0.0\nsamples = 5\nvalue = [0, 0, 5]", fillcolor="#8139e5"] ;
735 -> 736 ;
737 [label="Oscore <= 0.84\ngini = 0.5\nsamples = 2\nvalue = [1, 1, 0]", fillcolor="#ffffff"] ;
735 -> 737 ;
738 [label="gini = 0.0\nsamples = 1\nvalue = [1, 0, 0]", fillcolor="#e58139"] ;
737 -> 738 ;
739 [label="gini = 0.0\nsamples = 1\nvalue = [0, 1, 0]", fillcolor="#39e581"] ;
737 -> 739 ;
740 [label="gini = 0.0\nsamples = 8\nvalue = [0, 0, 8]", fillcolor="#8139e5"] ;
728 -> 740 ;
}