digraph Tree {
node [shape=box, style="filled", color="black"] ;
0 [label="Oscore <= -0.1\ngini = 0.56\nsamples = 830\nvalue = [212, 310, 780]", fillcolor="#c3a1f3"] ;
1 [label="UK <= 0.5\ngini = 0.66\nsamples = 340\nvalue = [149, 170, 216]", fillcolor="#efe6fc"] ;
0 -> 1 [labeldistance=2.5, labelangle=45, headlabel="True"] ;
2 [label="Impulsive <= -1.97\ngini = 0.46\nsamples = 97\nvalue = [14, 35, 111]", fillcolor="#b287ef"] ;
1 -> 2 ;
3 [label="Female <= 0.5\ngini = 0.38\nsamples = 3\nvalue = [2, 6, 0]", fillcolor="#7beeab"] ;
2 -> 3 ;
4 [label="gini = 0.0\nsamples = 1\nvalue = [0, 4, 0]", fillcolor="#39e581"] ;
3 -> 4 ;
5 [label="Escore <= 0.21\ngini = 0.5\nsamples = 2\nvalue = [2, 2, 0]", fillcolor="#ffffff"] ;
3 -> 5 ;
6 [label="gini = 0.0\nsamples = 1\nvalue = [2, 0, 0]", fillcolor="#e58139"] ;
5 -> 6 ;
7 [label="gini = 0.0\nsamples = 1\nvalue = [0, 2, 0]", fillcolor="#39e581"] ;
5 -> 7 ;
8 [label="Age_55-64 <= 0.5\ngini = 0.42\nsamples = 94\nvalue = [12, 29, 111]", fillcolor="#ab7bee"] ;
2 -> 8 ;
9 [label="Nscore <= 0.18\ngini = 0.4\nsamples = 90\nvalue = [10, 27, 109]", fillcolor="#a877ed"] ;
8 -> 9 ;
10 [label="australia <= 0.5\ngini = 0.55\nsamples = 38\nvalue = [10, 14, 37]", fillcolor="#c19ef2"] ;
9 -> 10 ;
11 [label="Nscore <= -0.0\ngini = 0.46\nsamples = 33\nvalue = [7, 8, 36]", fillcolor="#ad7eee"] ;
10 -> 11 ;
12 [label="black_white <= 0.5\ngini = 0.41\nsamples = 28\nvalue = [3, 8, 31]", fillcolor="#aa79ed"] ;
11 -> 12 ;
13 [label="Age_45-54 <= 0.5\ngini = 0.37\nsamples = 27\nvalue = [3, 6, 31]", fillcolor="#a26dec"] ;
12 -> 13 ;
14 [label="Ascore <= 0.52\ngini = 0.46\nsamples = 22\nvalue = [3, 6, 21]", fillcolor="#b083ef"] ;
13 -> 14 ;
15 [label="Cscore <= 1.12\ngini = 0.35\nsamples = 20\nvalue = [0, 6, 21]", fillcolor="#a572ec"] ;
14 -> 15 ;
16 [label="Escore <= -0.88\ngini = 0.27\nsamples = 19\nvalue = [0, 4, 21]", fillcolor="#995fea"] ;
15 -> 16 ;
17 [label="Impulsive <= -0.46\ngini = 0.41\nsamples = 4\nvalue = [0, 2, 5]", fillcolor="#b388ef"] ;
16 -> 17 ;
18 [label="gini = 0.0\nsamples = 2\nvalue = [0, 0, 5]", fillcolor="#8139e5"] ;
17 -> 18 ;
19 [label="gini = 0.0\nsamples = 2\nvalue = [0, 2, 0]", fillcolor="#39e581"] ;
17 -> 19 ;
20 [label="Cscore <= -0.34\ngini = 0.2\nsamples = 15\nvalue = [0, 2, 16]", fillcolor="#9152e8"] ;
16 -> 20 ;
21 [label="gini = 0.0\nsamples = 7\nvalue = [0, 0, 8]", fillcolor="#8139e5"] ;
20 -> 21 ;
22 [label="Age_25-34 <= 0.5\ngini = 0.32\nsamples = 8\nvalue = [0, 2, 8]", fillcolor="#a06aec"] ;
20 -> 22 ;
23 [label="Ascore <= -0.31\ngini = 0.5\nsamples = 4\nvalue = [0, 2, 2]", fillcolor="#ffffff"] ;
22 -> 23 ;
24 [label="gini = 0.0\nsamples = 2\nvalue = [0, 2, 0]", fillcolor="#39e581"] ;
23 -> 24 ;
25 [label="gini = 0.0\nsamples = 2\nvalue = [0, 0, 2]", fillcolor="#8139e5"] ;
23 -> 25 ;
26 [label="gini = 0.0\nsamples = 4\nvalue = [0, 0, 6]", fillcolor="#8139e5"] ;
22 -> 26 ;
27 [label="gini = 0.0\nsamples = 1\nvalue = [0, 2, 0]", fillcolor="#39e581"] ;
15 -> 27 ;
28 [label="gini = 0.0\nsamples = 2\nvalue = [3, 0, 0]", fillcolor="#e58139"] ;
14 -> 28 ;
29 [label="gini = 0.0\nsamples = 5\nvalue = [0, 0, 10]", fillcolor="#8139e5"] ;
13 -> 29 ;
30 [label="gini = 0.0\nsamples = 1\nvalue = [0, 2, 0]", fillcolor="#39e581"] ;
12 -> 30 ;
31 [label="Nscore <= 0.09\ngini = 0.49\nsamples = 5\nvalue = [4, 0, 5]", fillcolor="#e6d7fa"] ;
11 -> 31 ;
32 [label="Impulsive <= -0.01\ngini = 0.32\nsamples = 2\nvalue = [4, 0, 1]", fillcolor="#eca06a"] ;
31 -> 32 ;
33 [label="gini = 0.0\nsamples = 1\nvalue = [0, 0, 1]", fillcolor="#8139e5"] ;
32 -> 33 ;
34 [label="gini = 0.0\nsamples = 1\nvalue = [4, 0, 0]", fillcolor="#e58139"] ;
32 -> 34 ;
35 [label="gini = 0.0\nsamples = 3\nvalue = [0, 0, 4]", fillcolor="#8139e5"] ;
31 -> 35 ;
36 [label="Ascore <= -0.23\ngini = 0.54\nsamples = 5\nvalue = [3, 6, 1]", fillcolor="#aaf4c9"] ;
10 -> 36 ;
37 [label="Age_35-44 <= 0.5\ngini = 0.38\nsamples = 2\nvalue = [3, 0, 1]", fillcolor="#eeab7b"] ;
36 -> 37 ;
38 [label="gini = 0.0\nsamples = 1\nvalue = [0, 0, 1]", fillcolor="#8139e5"] ;
37 -> 38 ;
39 [label="gini = 0.0\nsamples = 1\nvalue = [3, 0, 0]", fillcolor="#e58139"] ;
37 -> 39 ;
40 [label="gini = 0.0\nsamples = 3\nvalue = [0, 6, 0]", fillcolor="#39e581"] ;
36 -> 40 ;
41 [label="Impulsive <= -0.46\ngini = 0.26\nsamples = 52\nvalue = [0, 13, 72]", fillcolor="#985dea"] ;
9 -> 41 ;
42 [label="Cscore <= -0.72\ngini = 0.47\nsamples = 14\nvalue = [0, 9, 15]", fillcolor="#cdb0f5"] ;
41 -> 42 ;
43 [label="Nscore <= 0.87\ngini = 0.28\nsamples = 3\nvalue = [0, 5, 1]", fillcolor="#61ea9a"] ;
42 -> 43 ;
44 [label="gini = 0.0\nsamples = 1\nvalue = [0, 0, 1]", fillcolor="#8139e5"] ;
43 -> 44 ;
45 [label="gini = 0.0\nsamples = 2\nvalue = [0, 5, 0]", fillcolor="#39e581"] ;
43 -> 45 ;
46 [label="Oscore <= -0.98\ngini = 0.35\nsamples = 11\nvalue = [0, 4, 14]", fillcolor="#a572ec"] ;
42 -> 46 ;
47 [label="Age_45-54 <= 0.5\ngini = 0.48\nsamples = 3\nvalue = [0, 3, 2]", fillcolor="#bdf6d5"] ;
46 -> 47 ;
48 [label="gini = 0.0\nsamples = 2\nvalue = [0, 0, 2]", fillcolor="#8139e5"] ;
47 -> 48 ;
49 [label="gini = 0.0\nsamples = 1\nvalue = [0, 3, 0]", fillcolor="#39e581"] ;
47 -> 49 ;
50 [label="Cscore <= 0.13\ngini = 0.14\nsamples = 8\nvalue = [0, 1, 12]", fillcolor="#8c49e7"] ;
46 -> 50 ;
51 [label="gini = 0.0\nsamples = 4\nvalue = [0, 0, 7]", fillcolor="#8139e5"] ;
50 -> 51 ;
52 [label="Cscore <= 0.51\ngini = 0.28\nsamples = 4\nvalue = [0, 1, 5]", fillcolor="#9a61ea"] ;
50 -> 52 ;
53 [label="gini = 0.0\nsamples = 1\nvalue = [0, 1, 0]", fillcolor="#39e581"] ;
52 -> 53 ;
54 [label="gini = 0.0\nsamples = 3\nvalue = [0, 0, 5]", fillcolor="#8139e5"] ;
52 -> 54 ;
55 [label="Impulsive <= 1.09\ngini = 0.12\nsamples = 38\nvalue = [0, 4, 57]", fillcolor="#8a47e7"] ;
41 -> 55 ;
56 [label="Ascore <= 1.36\ngini = 0.05\nsamples = 25\nvalue = [0, 1, 41]", fillcolor="#843ee6"] ;
55 -> 56 ;
57 [label="gini = 0.0\nsamples = 22\nvalue = [0, 0, 37]", fillcolor="#8139e5"] ;
56 -> 57 ;
58 [label="Oscore <= -0.38\ngini = 0.32\nsamples = 3\nvalue = [0, 1, 4]", fillcolor="#a06aec"] ;
56 -> 58 ;
59 [label="gini = 0.0\nsamples = 2\nvalue = [0, 0, 4]", fillcolor="#8139e5"] ;
58 -> 59 ;
60 [label="gini = 0.0\nsamples = 1\nvalue = [0, 1, 0]", fillcolor="#39e581"] ;
58 -> 60 ;
61 [label="Ascore <= -0.09\ngini = 0.27\nsamples = 13\nvalue = [0, 3, 16]", fillcolor="#995eea"] ;
55 -> 61 ;
62 [label="Nscore <= 0.92\ngini = 0.12\nsamples = 11\nvalue = [0, 1, 14]", fillcolor="#8a47e7"] ;
61 -> 62 ;
63 [label="Ascore <= -0.61\ngini = 0.32\nsamples = 4\nvalue = [0, 1, 4]", fillcolor="#a06aec"] ;
62 -> 63 ;
64 [label="gini = 0.0\nsamples = 3\nvalue = [0, 0, 4]", fillcolor="#8139e5"] ;
63 -> 64 ;
65 [label="gini = 0.0\nsamples = 1\nvalue = [0, 1, 0]", fillcolor="#39e581"] ;
63 -> 65 ;
66 [label="gini = 0.0\nsamples = 7\nvalue = [0, 0, 10]", fillcolor="#8139e5"] ;
62 -> 66 ;
67 [label="Cscore <= 0.83\ngini = 0.5\nsamples = 2\nvalue = [0, 2, 2]", fillcolor="#ffffff"] ;
61 -> 67 ;
68 [label="gini = 0.0\nsamples = 1\nvalue = [0, 0, 2]", fillcolor="#8139e5"] ;
67 -> 68 ;
69 [label="gini = 0.0\nsamples = 1\nvalue = [0, 2, 0]", fillcolor="#39e581"] ;
67 -> 69 ;
70 [label="university <= 0.5\ngini = 0.67\nsamples = 4\nvalue = [2, 2, 2]", fillcolor="#ffffff"] ;
8 -> 70 ;
71 [label="Nscore <= 0.13\ngini = 0.5\nsamples = 2\nvalue = [2, 2, 0]", fillcolor="#ffffff"] ;
70 -> 71 ;
72 [label="gini = 0.0\nsamples = 1\nvalue = [0, 2, 0]", fillcolor="#39e581"] ;
71 -> 72 ;
73 [label="gini = 0.0\nsamples = 1\nvalue = [2, 0, 0]", fillcolor="#e58139"] ;
71 -> 73 ;
74 [label="gini = 0.0\nsamples = 2\nvalue = [0, 0, 2]", fillcolor="#8139e5"] ;
70 -> 74 ;
75 [label="university <= 0.5\ngini = 0.66\nsamples = 243\nvalue = [135, 135, 105]", fillcolor="#ffffff"] ;
1 -> 75 ;
76 [label="Ascore <= -0.68\ngini = 0.67\nsamples = 162\nvalue = [87, 77, 82]", fillcolor="#fefbf9"] ;
75 -> 76 ;
77 [label="doctorate <= 0.5\ngini = 0.57\nsamples = 39\nvalue = [8, 19, 35]", fillcolor="#d0b5f5"] ;
76 -> 77 ;
78 [label="Nscore <= 0.87\ngini = 0.57\nsamples = 37\nvalue = [8, 17, 34]", fillcolor="#ccaff4"] ;
77 -> 78 ;
79 [label="black_white <= 0.5\ngini = 0.62\nsamples = 27\nvalue = [8, 13, 20]", fillcolor="#e0cef8"] ;
78 -> 79 ;
80 [label="Nscore <= 0.68\ngini = 0.61\nsamples = 26\nvalue = [7, 13, 20]", fillcolor="#deccf8"] ;
79 -> 80 ;
81 [label="diploma <= 0.5\ngini = 0.59\nsamples = 24\nvalue = [7, 9, 20]", fillcolor="#ccaef4"] ;
80 -> 81 ;
82 [label="ls_16 <= 0.5\ngini = 0.5\nsamples = 15\nvalue = [1, 7, 13]", fillcolor="#c9aaf4"] ;
81 -> 82 ;
83 [label="other_e <= 0.5\ngini = 0.54\nsamples = 13\nvalue = [1, 7, 10]", fillcolor="#ddc9f8"] ;
82 -> 83 ;
84 [label="Oscore <= -0.65\ngini = 0.55\nsamples = 12\nvalue = [1, 7, 9]", fillcolor="#e6d7fa"] ;
83 -> 84 ;
85 [label="Age_25-34 <= 0.5\ngini = 0.46\nsamples = 7\nvalue = [1, 2, 7]", fillcolor="#b083ef"] ;
84 -> 85 ;
86 [label="Female <= 0.5\ngini = 0.61\nsamples = 4\nvalue = [1, 2, 3]", fillcolor="#e0cef8"] ;
85 -> 86 ;
87 [label="master <= 0.5\ngini = 0.48\nsamples = 3\nvalue = [0, 2, 3]", fillcolor="#d5bdf6"] ;
86 -> 87 ;
88 [label="Nscore <= 0.18\ngini = 0.44\nsamples = 2\nvalue = [0, 2, 1]", fillcolor="#9cf2c0"] ;
87 -> 88 ;
89 [label="gini = 0.0\nsamples = 1\nvalue = [0, 2, 0]", fillcolor="#39e581"] ;
88 -> 89 ;
90 [label="gini = 0.0\nsamples = 1\nvalue = [0, 0, 1]", fillcolor="#8139e5"] ;
88 -> 90 ;
91 [label="gini = 0.0\nsamples = 1\nvalue = [0, 0, 2]", fillcolor="#8139e5"] ;
87 -> 91 ;
92 [label="gini = 0.0\nsamples = 1\nvalue = [1, 0, 0]", fillcolor="#e58139"] ;
86 -> 92 ;
93 [label="gini = 0.0\nsamples = 3\nvalue = [0, 0, 4]", fillcolor="#8139e5"] ;
85 -> 93 ;
94 [label="Oscore <= -0.38\ngini = 0.41\nsamples = 5\nvalue = [0, 5, 2]", fillcolor="#88efb3"] ;
84 -> 94 ;
95 [label="gini = 0.0\nsamples = 1\nvalue = [0, 1, 0]", fillcolor="#39e581"] ;
94 -> 95 ;
96 [label="SS <= -0.53\ngini = 0.44\nsamples = 4\nvalue = [0, 4, 2]", fillcolor="#9cf2c0"] ;
94 -> 96 ;
97 [label="gini = 0.0\nsamples = 1\nvalue = [0, 0, 2]", fillcolor="#8139e5"] ;
96 -> 97 ;
98 [label="gini = 0.0\nsamples = 3\nvalue = [0, 4, 0]", fillcolor="#39e581"] ;
96 -> 98 ;
99 [label="gini = 0.0\nsamples = 1\nvalue = [0, 0, 1]", fillcolor="#8139e5"] ;
83 -> 99 ;
100 [label="gini = 0.0\nsamples = 2\nvalue = [0, 0, 3]", fillcolor="#8139e5"] ;
82 -> 100 ;
101 [label="SS <= -1.81\ngini = 0.6\nsamples = 9\nvalue = [6, 2, 7]", fillcolor="#f1e9fc"] ;
81 -> 101 ;
102 [label="Age_45-54 <= 0.5\ngini = 0.44\nsamples = 2\nvalue = [1, 2, 0]", fillcolor="#9cf2c0"] ;
101 -> 102 ;
103 [label="gini = 0.0\nsamples = 1\nvalue = [1, 0, 0]", fillcolor="#e58139"] ;
102 -> 103 ;
104 [label="gini = 0.0\nsamples = 1\nvalue = [0, 2, 0]", fillcolor="#39e581"] ;
102 -> 104 ;
105 [label="Age_45-54 <= 0.5\ngini = 0.49\nsamples = 7\nvalue = [5, 0, 7]", fillcolor="#dbc6f8"] ;
101 -> 105 ;
106 [label="Oscore <= -1.34\ngini = 0.47\nsamples = 5\nvalue = [3, 0, 5]", fillcolor="#cdb0f5"] ;
105 -> 106 ;
107 [label="gini = 0.0\nsamples = 2\nvalue = [3, 0, 0]", fillcolor="#e58139"] ;
106 -> 107 ;
108 [label="gini = 0.0\nsamples = 3\nvalue = [0, 0, 5]", fillcolor="#8139e5"] ;
106 -> 108 ;
109 [label="Cscore <= 0.14\ngini = 0.5\nsamples = 2\nvalue = [2, 0, 2]", fillcolor="#ffffff"] ;
105 -> 109 ;
110 [label="gini = 0.0\nsamples = 1\nvalue = [0, 0, 2]", fillcolor="#8139e5"] ;
109 -> 110 ;
111 [label="gini = 0.0\nsamples = 1\nvalue = [2, 0, 0]", fillcolor="#e58139"] ;
109 -> 111 ;
112 [label="gini = 0.0\nsamples = 2\nvalue = [0, 4, 0]", fillcolor="#39e581"] ;
80 -> 112 ;
113 [label="gini = 0.0\nsamples = 1\nvalue = [1, 0, 0]", fillcolor="#e58139"] ;
79 -> 113 ;
114 [label="SS <= -1.2\ngini = 0.35\nsamples = 10\nvalue = [0, 4, 14]", fillcolor="#a572ec"] ;
78 -> 114 ;
115 [label="gini = 0.0\nsamples = 1\nvalue = [0, 3, 0]", fillcolor="#39e581"] ;
114 -> 115 ;
116 [label="Ascore <= -0.84\ngini = 0.12\nsamples = 9\nvalue = [0, 1, 14]", fillcolor="#8a47e7"] ;
114 -> 116 ;
117 [label="gini = 0.0\nsamples = 8\nvalue = [0, 0, 14]", fillcolor="#8139e5"] ;
116 -> 117 ;
118 [label="gini = 0.0\nsamples = 1\nvalue = [0, 1, 0]", fillcolor="#39e581"] ;
116 -> 118 ;
119 [label="Ascore <= -1.13\ngini = 0.44\nsamples = 2\nvalue = [0, 2, 1]", fillcolor="#9cf2c0"] ;
77 -> 119 ;
120 [label="gini = 0.0\nsamples = 1\nvalue = [0, 0, 1]", fillcolor="#8139e5"] ;
119 -> 120 ;
121 [label="gini = 0.0\nsamples = 1\nvalue = [0, 2, 0]", fillcolor="#39e581"] ;
119 -> 121 ;
122 [label="no_degree <= 0.5\ngini = 0.65\nsamples = 123\nvalue = [79, 58, 47]", fillcolor="#fbeade"] ;
76 -> 122 ;
123 [label="Cscore <= 0.19\ngini = 0.64\nsamples = 107\nvalue = [76, 47, 41]", fillcolor="#f9e0ce"] ;
122 -> 123 ;
124 [label="Age_35-44 <= 0.5\ngini = 0.61\nsamples = 41\nvalue = [11, 18, 30]", fillcolor="#dac5f7"] ;
123 -> 124 ;
125 [label="SS <= -0.69\ngini = 0.63\nsamples = 31\nvalue = [10, 14, 22]", fillcolor="#e0cef8"] ;
124 -> 125 ;
126 [label="Ascore <= 1.28\ngini = 0.6\nsamples = 15\nvalue = [3, 10, 7]", fillcolor="#d1f9e2"] ;
125 -> 126 ;
127 [label="Cscore <= -0.34\ngini = 0.51\nsamples = 13\nvalue = [1, 10, 5]", fillcolor="#a5f3c6"] ;
126 -> 127 ;
128 [label="Age_25-34 <= 0.5\ngini = 0.57\nsamples = 7\nvalue = [1, 2, 4]", fillcolor="#cdb0f5"] ;
127 -> 128 ;
129 [label="Impulsive <= 0.36\ngini = 0.61\nsamples = 6\nvalue = [1, 2, 3]", fillcolor="#e0cef8"] ;
128 -> 129 ;
130 [label="Cscore <= -0.9\ngini = 0.48\nsamples = 5\nvalue = [0, 2, 3]", fillcolor="#d5bdf6"] ;
129 -> 130 ;
131 [label="diploma <= 0.5\ngini = 0.38\nsamples = 4\nvalue = [0, 1, 3]", fillcolor="#ab7bee"] ;
130 -> 131 ;
132 [label="gini = 0.0\nsamples = 3\nvalue = [0, 0, 3]", fillcolor="#8139e5"] ;
131 -> 132 ;
133 [label="gini = 0.0\nsamples = 1\nvalue = [0, 1, 0]", fillcolor="#39e581"] ;
131 -> 133 ;
134 [label="gini = 0.0\nsamples = 1\nvalue = [0, 1, 0]", fillcolor="#39e581"] ;
130 -> 134 ;
135 [label="gini = 0.0\nsamples = 1\nvalue = [1, 0, 0]", fillcolor="#e58139"] ;
129 -> 135 ;
136 [label="gini = 0.0\nsamples = 1\nvalue = [0, 0, 1]", fillcolor="#8139e5"] ;
128 -> 136 ;
137 [label="Age_55-64 <= 0.5\ngini = 0.2\nsamples = 6\nvalue = [0, 8, 1]", fillcolor="#52e891"] ;
127 -> 137 ;
138 [label="gini = 0.0\nsamples = 4\nvalue = [0, 6, 0]", fillcolor="#39e581"] ;
137 -> 138 ;
139 [label="Escore <= -0.61\ngini = 0.44\nsamples = 2\nvalue = [0, 2, 1]", fillcolor="#9cf2c0"] ;
137 -> 139 ;
140 [label="gini = 0.0\nsamples = 1\nvalue = [0, 2, 0]", fillcolor="#39e581"] ;
139 -> 140 ;
141 [label="gini = 0.0\nsamples = 1\nvalue = [0, 0, 1]", fillcolor="#8139e5"] ;
139 -> 141 ;
142 [label="Age_25-34 <= 0.5\ngini = 0.5\nsamples = 2\nvalue = [2, 0, 2]", fillcolor="#ffffff"] ;
126 -> 142 ;
143 [label="gini = 0.0\nsamples = 1\nvalue = [0, 0, 2]", fillcolor="#8139e5"] ;
142 -> 143 ;
144 [label="gini = 0.0\nsamples = 1\nvalue = [2, 0, 0]", fillcolor="#e58139"] ;
142 -> 144 ;
145 [label="diploma <= 0.5\ngini = 0.57\nsamples = 16\nvalue = [7, 4, 15]", fillcolor="#caacf4"] ;
125 -> 145 ;
146 [label="Nscore <= 0.47\ngini = 0.48\nsamples = 12\nvalue = [2, 4, 13]", fillcolor="#b388ef"] ;
145 -> 146 ;
147 [label="Impulsive <= -1.05\ngini = 0.34\nsamples = 8\nvalue = [0, 3, 11]", fillcolor="#a36fec"] ;
146 -> 147 ;
148 [label="gini = 0.0\nsamples = 2\nvalue = [0, 3, 0]", fillcolor="#39e581"] ;
147 -> 148 ;
149 [label="gini = 0.0\nsamples = 6\nvalue = [0, 0, 11]", fillcolor="#8139e5"] ;
147 -> 149 ;
150 [label="Age_45-54 <= 0.5\ngini = 0.64\nsamples = 4\nvalue = [2, 1, 2]", fillcolor="#ffffff"] ;
146 -> 150 ;
151 [label="Ascore <= -0.08\ngini = 0.44\nsamples = 3\nvalue = [2, 1, 0]", fillcolor="#f2c09c"] ;
150 -> 151 ;
152 [label="gini = 0.0\nsamples = 1\nvalue = [0, 1, 0]", fillcolor="#39e581"] ;
151 -> 152 ;
153 [label="gini = 0.0\nsamples = 2\nvalue = [2, 0, 0]", fillcolor="#e58139"] ;
151 -> 153 ;
154 [label="gini = 0.0\nsamples = 1\nvalue = [0, 0, 2]", fillcolor="#8139e5"] ;
150 -> 154 ;
155 [label="Age_25-34 <= 0.5\ngini = 0.41\nsamples = 4\nvalue = [5, 0, 2]", fillcolor="#efb388"] ;
145 -> 155 ;
156 [label="gini = 0.0\nsamples = 2\nvalue = [4, 0, 0]", fillcolor="#e58139"] ;
155 -> 156 ;
157 [label="Escore <= -0.48\ngini = 0.44\nsamples = 2\nvalue = [1, 0, 2]", fillcolor="#c09cf2"] ;
155 -> 157 ;
158 [label="gini = 0.0\nsamples = 1\nvalue = [1, 0, 0]", fillcolor="#e58139"] ;
157 -> 158 ;
159 [label="gini = 0.0\nsamples = 1\nvalue = [0, 0, 2]", fillcolor="#8139e5"] ;
157 -> 159 ;
160 [label="SS <= -0.85\ngini = 0.52\nsamples = 10\nvalue = [1, 4, 8]", fillcolor="#c7a7f3"] ;
124 -> 160 ;
161 [label="gini = 0.0\nsamples = 1\nvalue = [0, 1, 0]", fillcolor="#39e581"] ;
160 -> 161 ;
162 [label="Cscore <= -0.21\ngini = 0.49\nsamples = 9\nvalue = [1, 3, 8]", fillcolor="#b991f1"] ;
160 -> 162 ;
163 [label="gini = 0.0\nsamples = 6\nvalue = [0, 0, 8]", fillcolor="#8139e5"] ;
162 -> 163 ;
164 [label="Escore <= 0.91\ngini = 0.38\nsamples = 3\nvalue = [1, 3, 0]", fillcolor="#7beeab"] ;
162 -> 164 ;
165 [label="gini = 0.0\nsamples = 2\nvalue = [0, 3, 0]", fillcolor="#39e581"] ;
164 -> 165 ;
166 [label="gini = 0.0\nsamples = 1\nvalue = [1, 0, 0]", fillcolor="#e58139"] ;
164 -> 166 ;
167 [label="Cscore <= 0.5\ngini = 0.53\nsamples = 66\nvalue = [65, 29, 11]", fillcolor="#f3c3a1"] ;
123 -> 167 ;
168 [label="Age_55-64 <= 0.5\ngini = 0.53\nsamples = 19\nvalue = [16, 17, 1]", fillcolor="#f4fef8"] ;
167 -> 168 ;
169 [label="Age_45-54 <= 0.5\ngini = 0.52\nsamples = 17\nvalue = [13, 17, 1]", fillcolor="#d3f9e3"] ;
168 -> 169 ;
170 [label="asian <= 0.5\ngini = 0.47\nsamples = 12\nvalue = [7, 16, 1]", fillcolor="#96f1bc"] ;
169 -> 170 ;
171 [label="Cscore <= 0.34\ngini = 0.42\nsamples = 11\nvalue = [5, 16, 1]", fillcolor="#7feead"] ;
170 -> 171 ;
172 [label="ls_16 <= 0.5\ngini = 0.17\nsamples = 4\nvalue = [1, 10, 0]", fillcolor="#4de88e"] ;
171 -> 172 ;
173 [label="gini = 0.0\nsamples = 3\nvalue = [0, 10, 0]", fillcolor="#39e581"] ;
172 -> 173 ;
174 [label="gini = 0.0\nsamples = 1\nvalue = [1, 0, 0]", fillcolor="#e58139"] ;
172 -> 174 ;
175 [label="SS <= 0.27\ngini = 0.56\nsamples = 7\nvalue = [4, 6, 1]", fillcolor="#c6f8db"] ;
171 -> 175 ;
176 [label="Ascore <= -0.31\ngini = 0.5\nsamples = 5\nvalue = [4, 1, 1]", fillcolor="#efb388"] ;
175 -> 176 ;
177 [label="gini = 0.0\nsamples = 1\nvalue = [0, 0, 1]", fillcolor="#8139e5"] ;
176 -> 177 ;
178 [label="Impulsive <= -1.05\ngini = 0.32\nsamples = 4\nvalue = [4, 1, 0]", fillcolor="#eca06a"] ;
176 -> 178 ;
179 [label="gini = 0.0\nsamples = 2\nvalue = [3, 0, 0]", fillcolor="#e58139"] ;
178 -> 179 ;
180 [label="Ascore <= 0.51\ngini = 0.5\nsamples = 2\nvalue = [1, 1, 0]", fillcolor="#ffffff"] ;
178 -> 180 ;
181 [label="gini = 0.0\nsamples = 1\nvalue = [1, 0, 0]", fillcolor="#e58139"] ;
180 -> 181 ;
182 [label="gini = 0.0\nsamples = 1\nvalue = [0, 1, 0]", fillcolor="#39e581"] ;
180 -> 182 ;
183 [label="gini = 0.0\nsamples = 2\nvalue = [0, 5, 0]", fillcolor="#39e581"] ;
175 -> 183 ;
184 [label="gini = 0.0\nsamples = 1\nvalue = [2, 0, 0]", fillcolor="#e58139"] ;
170 -> 184 ;
185 [label="diploma <= 0.5\ngini = 0.24\nsamples = 5\nvalue = [6, 1, 0]", fillcolor="#e9965a"] ;
169 -> 185 ;
186 [label="Ascore <= 0.61\ngini = 0.38\nsamples = 3\nvalue = [3, 1, 0]", fillcolor="#eeab7b"] ;
185 -> 186 ;
187 [label="gini = 0.0\nsamples = 1\nvalue = [0, 1, 0]", fillcolor="#39e581"] ;
186 -> 187 ;
188 [label="gini = 0.0\nsamples = 2\nvalue = [3, 0, 0]", fillcolor="#e58139"] ;
186 -> 188 ;
189 [label="gini = 0.0\nsamples = 2\nvalue = [3, 0, 0]", fillcolor="#e58139"] ;
185 -> 189 ;
190 [label="gini = 0.0\nsamples = 2\nvalue = [3, 0, 0]", fillcolor="#e58139"] ;
168 -> 190 ;
191 [label="Age_65+ <= 0.5\ngini = 0.48\nsamples = 47\nvalue = [49, 12, 10]", fillcolor="#efb083"] ;
167 -> 191 ;
192 [label="Nscore <= -2.2\ngini = 0.45\nsamples = 46\nvalue = [49, 10, 10]", fillcolor="#eeac7c"] ;
191 -> 192 ;
193 [label="master <= 0.5\ngini = 0.44\nsamples = 2\nvalue = [0, 1, 2]", fillcolor="#c09cf2"] ;
192 -> 193 ;
194 [label="gini = 0.0\nsamples = 1\nvalue = [0, 0, 2]", fillcolor="#8139e5"] ;
193 -> 194 ;
195 [label="gini = 0.0\nsamples = 1\nvalue = [0, 1, 0]", fillcolor="#39e581"] ;
193 -> 195 ;
196 [label="Impulsive <= -0.46\ngini = 0.42\nsamples = 44\nvalue = [49, 9, 8]", fillcolor="#eda774"] ;
192 -> 196 ;
197 [label="Nscore <= 0.97\ngini = 0.52\nsamples = 28\nvalue = [27, 8, 7]", fillcolor="#f0b990"] ;
196 -> 197 ;
198 [label="Ascore <= 0.51\ngini = 0.56\nsamples = 25\nvalue = [22, 8, 7]", fillcolor="#f2c29f"] ;
197 -> 198 ;
199 [label="Escore <= -0.42\ngini = 0.55\nsamples = 10\nvalue = [9, 1, 7]", fillcolor="#fae6d7"] ;
198 -> 199 ;
200 [label="gini = 0.0\nsamples = 2\nvalue = [3, 0, 0]", fillcolor="#e58139"] ;
199 -> 200 ;
201 [label="SS <= -0.06\ngini = 0.56\nsamples = 8\nvalue = [6, 1, 7]", fillcolor="#efe6fc"] ;
199 -> 201 ;
202 [label="Oscore <= -2.02\ngini = 0.56\nsamples = 7\nvalue = [6, 1, 4]", fillcolor="#f8dbc6"] ;
201 -> 202 ;
203 [label="gini = 0.0\nsamples = 1\nvalue = [0, 0, 2]", fillcolor="#8139e5"] ;
202 -> 203 ;
204 [label="Age_35-44 <= 0.5\ngini = 0.49\nsamples = 6\nvalue = [6, 1, 2]", fillcolor="#f0b78e"] ;
202 -> 204 ;
205 [label="Ascore <= 0.21\ngini = 0.24\nsamples = 5\nvalue = [6, 1, 0]", fillcolor="#e9965a"] ;
204 -> 205 ;
206 [label="Nscore <= -0.57\ngini = 0.44\nsamples = 3\nvalue = [2, 1, 0]", fillcolor="#f2c09c"] ;
205 -> 206 ;
207 [label="gini = 0.0\nsamples = 2\nvalue = [2, 0, 0]", fillcolor="#e58139"] ;
206 -> 207 ;
208 [label="gini = 0.0\nsamples = 1\nvalue = [0, 1, 0]", fillcolor="#39e581"] ;
206 -> 208 ;
209 [label="gini = 0.0\nsamples = 2\nvalue = [4, 0, 0]", fillcolor="#e58139"] ;
205 -> 209 ;
210 [label="gini = 0.0\nsamples = 1\nvalue = [0, 0, 2]", fillcolor="#8139e5"] ;
204 -> 210 ;
211 [label="gini = 0.0\nsamples = 1\nvalue = [0, 0, 3]", fillcolor="#8139e5"] ;
201 -> 211 ;
212 [label="Nscore <= -0.31\ngini = 0.45\nsamples = 15\nvalue = [13, 7, 0]", fillcolor="#f3c5a4"] ;
198 -> 212 ;
213 [label="Age_55-64 <= 0.5\ngini = 0.36\nsamples = 10\nvalue = [10, 3, 0]", fillcolor="#eda774"] ;
212 -> 213 ;
214 [label="Age_45-54 <= 0.5\ngini = 0.28\nsamples = 9\nvalue = [10, 2, 0]", fillcolor="#ea9a61"] ;
213 -> 214 ;
215 [label="Age_35-44 <= 0.5\ngini = 0.35\nsamples = 7\nvalue = [7, 2, 0]", fillcolor="#eca572"] ;
214 -> 215 ;
216 [label="Cscore <= 0.76\ngini = 0.5\nsamples = 2\nvalue = [1, 1, 0]", fillcolor="#ffffff"] ;
215 -> 216 ;
217 [label="gini = 0.0\nsamples = 1\nvalue = [0, 1, 0]", fillcolor="#39e581"] ;
216 -> 217 ;
218 [label="gini = 0.0\nsamples = 1\nvalue = [1, 0, 0]", fillcolor="#e58139"] ;
216 -> 218 ;
219 [label="diploma <= 0.5\ngini = 0.24\nsamples = 5\nvalue = [6, 1, 0]", fillcolor="#e9965a"] ;
215 -> 219 ;
220 [label="ls_16 <= 0.5\ngini = 0.44\nsamples = 3\nvalue = [2, 1, 0]", fillcolor="#f2c09c"] ;
219 -> 220 ;
221 [label="gini = 0.0\nsamples = 1\nvalue = [0, 1, 0]", fillcolor="#39e581"] ;
220 -> 221 ;
222 [label="gini = 0.0\nsamples = 2\nvalue = [2, 0, 0]", fillcolor="#e58139"] ;
220 -> 222 ;
223 [label="gini = 0.0\nsamples = 2\nvalue = [4, 0, 0]", fillcolor="#e58139"] ;
219 -> 223 ;
224 [label="gini = 0.0\nsamples = 2\nvalue = [3, 0, 0]", fillcolor="#e58139"] ;
214 -> 224 ;
225 [label="gini = 0.0\nsamples = 1\nvalue = [0, 1, 0]", fillcolor="#39e581"] ;
213 -> 225 ;
226 [label="master <= 0.5\ngini = 0.49\nsamples = 5\nvalue = [3, 4, 0]", fillcolor="#cef8e0"] ;
212 -> 226 ;
227 [label="SS <= -1.46\ngini = 0.44\nsamples = 4\nvalue = [2, 4, 0]", fillcolor="#9cf2c0"] ;
226 -> 227 ;
228 [label="gini = 0.0\nsamples = 1\nvalue = [0, 1, 0]", fillcolor="#39e581"] ;
227 -> 228 ;
229 [label="Escore <= -0.3\ngini = 0.48\nsamples = 3\nvalue = [2, 3, 0]", fillcolor="#bdf6d5"] ;
227 -> 229 ;
230 [label="gini = 0.0\nsamples = 1\nvalue = [2, 0, 0]", fillcolor="#e58139"] ;
229 -> 230 ;
231 [label="gini = 0.0\nsamples = 2\nvalue = [0, 3, 0]", fillcolor="#39e581"] ;
229 -> 231 ;
232 [label="gini = 0.0\nsamples = 1\nvalue = [1, 0, 0]", fillcolor="#e58139"] ;
226 -> 232 ;
233 [label="gini = 0.0\nsamples = 3\nvalue = [5, 0, 0]", fillcolor="#e58139"] ;
197 -> 233 ;
234 [label="Escore <= -0.08\ngini = 0.16\nsamples = 16\nvalue = [22, 1, 1]", fillcolor="#e78c4a"] ;
196 -> 234 ;
235 [label="Oscore <= -1.06\ngini = 0.44\nsamples = 2\nvalue = [2, 1, 0]", fillcolor="#f2c09c"] ;
234 -> 235 ;
236 [label="gini = 0.0\nsamples = 1\nvalue = [2, 0, 0]", fillcolor="#e58139"] ;
235 -> 236 ;
237 [label="gini = 0.0\nsamples = 1\nvalue = [0, 1, 0]", fillcolor="#39e581"] ;
235 -> 237 ;
238 [label="SS <= 0.58\ngini = 0.09\nsamples = 14\nvalue = [20, 0, 1]", fillcolor="#e68743"] ;
234 -> 238 ;
239 [label="gini = 0.0\nsamples = 11\nvalue = [17, 0, 0]", fillcolor="#e58139"] ;
238 -> 239 ;
240 [label="Nscore <= -0.37\ngini = 0.38\nsamples = 3\nvalue = [3, 0, 1]", fillcolor="#eeab7b"] ;
238 -> 240 ;
241 [label="gini = 0.0\nsamples = 2\nvalue = [3, 0, 0]", fillcolor="#e58139"] ;
240 -> 241 ;
242 [label="gini = 0.0\nsamples = 1\nvalue = [0, 0, 1]", fillcolor="#8139e5"] ;
240 -> 242 ;
243 [label="gini = 0.0\nsamples = 1\nvalue = [0, 2, 0]", fillcolor="#39e581"] ;
191 -> 243 ;
244 [label="Age_55-64 <= 0.5\ngini = 0.58\nsamples = 16\nvalue = [3, 11, 6]", fillcolor="#b8f6d2"] ;
122 -> 244 ;
245 [label="Age_35-44 <= 0.5\ngini = 0.55\nsamples = 15\nvalue = [2, 11, 6]", fillcolor="#b3f5cf"] ;
244 -> 245 ;
246 [label="Age_25-34 <= 0.5\ngini = 0.57\nsamples = 12\nvalue = [2, 9, 5]", fillcolor="#b7f6d1"] ;
245 -> 246 ;
247 [label="Ascore <= -0.38\ngini = 0.38\nsamples = 9\nvalue = [0, 9, 3]", fillcolor="#7beeab"] ;
246 -> 247 ;
248 [label="gini = 0.0\nsamples = 3\nvalue = [0, 5, 0]", fillcolor="#39e581"] ;
247 -> 248 ;
249 [label="Escore <= 0.33\ngini = 0.49\nsamples = 6\nvalue = [0, 4, 3]", fillcolor="#cef8e0"] ;
247 -> 249 ;
250 [label="gini = 0.0\nsamples = 4\nvalue = [0, 4, 0]", fillcolor="#39e581"] ;
249 -> 250 ;
251 [label="gini = 0.0\nsamples = 2\nvalue = [0, 0, 3]", fillcolor="#8139e5"] ;
249 -> 251 ;
252 [label="Nscore <= 0.34\ngini = 0.5\nsamples = 3\nvalue = [2, 0, 2]", fillcolor="#ffffff"] ;
246 -> 252 ;
253 [label="gini = 0.0\nsamples = 2\nvalue = [0, 0, 2]", fillcolor="#8139e5"] ;
252 -> 253 ;
254 [label="gini = 0.0\nsamples = 1\nvalue = [2, 0, 0]", fillcolor="#e58139"] ;
252 -> 254 ;
255 [label="Ascore <= 0.7\ngini = 0.44\nsamples = 3\nvalue = [0, 2, 1]", fillcolor="#9cf2c0"] ;
245 -> 255 ;
256 [label="gini = 0.0\nsamples = 2\nvalue = [0, 2, 0]", fillcolor="#39e581"] ;
255 -> 256 ;
257 [label="gini = 0.0\nsamples = 1\nvalue = [0, 0, 1]", fillcolor="#8139e5"] ;
255 -> 257 ;
258 [label="gini = 0.0\nsamples = 1\nvalue = [1, 0, 0]", fillcolor="#e58139"] ;
244 -> 258 ;
259 [label="Impulsive <= -0.01\ngini = 0.63\nsamples = 81\nvalue = [48, 58, 23]", fillcolor="#e7fcef"] ;
75 -> 259 ;
260 [label="Age_25-34 <= 0.5\ngini = 0.59\nsamples = 62\nvalue = [39, 46, 10]", fillcolor="#e6fcef"] ;
259 -> 260 ;
261 [label="Age_35-44 <= 0.5\ngini = 0.56\nsamples = 44\nvalue = [28, 33, 5]", fillcolor="#e5fcee"] ;
260 -> 261 ;
262 [label="Oscore <= -1.69\ngini = 0.54\nsamples = 29\nvalue = [19, 24, 2]", fillcolor="#d9fae7"] ;
261 -> 262 ;
263 [label="gini = 0.0\nsamples = 1\nvalue = [2, 0, 0]", fillcolor="#e58139"] ;
262 -> 263 ;
264 [label="Escore <= 0.24\ngini = 0.53\nsamples = 28\nvalue = [17, 24, 2]", fillcolor="#caf8dd"] ;
262 -> 264 ;
265 [label="Age_65+ <= 0.5\ngini = 0.53\nsamples = 19\nvalue = [14, 12, 1]", fillcolor="#fceee5"] ;
264 -> 265 ;
266 [label="black_white <= 0.5\ngini = 0.54\nsamples = 18\nvalue = [13, 12, 1]", fillcolor="#fdf6f1"] ;
265 -> 266 ;
267 [label="Escore <= -1.02\ngini = 0.53\nsamples = 17\nvalue = [13, 9, 1]", fillcolor="#f8dbc6"] ;
266 -> 267 ;
268 [label="Ascore <= -0.84\ngini = 0.5\nsamples = 5\nvalue = [1, 4, 1]", fillcolor="#88efb3"] ;
267 -> 268 ;
269 [label="Female <= 0.5\ngini = 0.5\nsamples = 2\nvalue = [1, 0, 1]", fillcolor="#ffffff"] ;
268 -> 269 ;
270 [label="gini = 0.0\nsamples = 1\nvalue = [0, 0, 1]", fillcolor="#8139e5"] ;
269 -> 270 ;
271 [label="gini = 0.0\nsamples = 1\nvalue = [1, 0, 0]", fillcolor="#e58139"] ;
269 -> 271 ;
272 [label="gini = 0.0\nsamples = 3\nvalue = [0, 4, 0]", fillcolor="#39e581"] ;
268 -> 272 ;
273 [label="Nscore <= -0.41\ngini = 0.42\nsamples = 12\nvalue = [12, 5, 0]", fillcolor="#f0b58b"] ;
267 -> 273 ;
274 [label="gini = 0.0\nsamples = 3\nvalue = [0, 3, 0]", fillcolor="#39e581"] ;
273 -> 274 ;
275 [label="SS <= -0.85\ngini = 0.24\nsamples = 9\nvalue = [12, 2, 0]", fillcolor="#e9965a"] ;
273 -> 275 ;
276 [label="Impulsive <= -0.8\ngini = 0.35\nsamples = 5\nvalue = [7, 2, 0]", fillcolor="#eca572"] ;
275 -> 276 ;
277 [label="Nscore <= 0.52\ngini = 0.5\nsamples = 3\nvalue = [2, 2, 0]", fillcolor="#ffffff"] ;
276 -> 277 ;
278 [label="gini = 0.0\nsamples = 1\nvalue = [1, 0, 0]", fillcolor="#e58139"] ;
277 -> 278 ;
279 [label="Female <= 0.5\ngini = 0.44\nsamples = 2\nvalue = [1, 2, 0]", fillcolor="#9cf2c0"] ;
277 -> 279 ;
280 [label="gini = 0.0\nsamples = 1\nvalue = [1, 0, 0]", fillcolor="#e58139"] ;
279 -> 280 ;
281 [label="gini = 0.0\nsamples = 1\nvalue = [0, 2, 0]", fillcolor="#39e581"] ;
279 -> 281 ;
282 [label="gini = 0.0\nsamples = 2\nvalue = [5, 0, 0]", fillcolor="#e58139"] ;
276 -> 282 ;
283 [label="gini = 0.0\nsamples = 4\nvalue = [5, 0, 0]", fillcolor="#e58139"] ;
275 -> 283 ;
284 [label="gini = 0.0\nsamples = 1\nvalue = [0, 3, 0]", fillcolor="#39e581"] ;
266 -> 284 ;
285 [label="gini = 0.0\nsamples = 1\nvalue = [1, 0, 0]", fillcolor="#e58139"] ;
265 -> 285 ;
286 [label="Escore <= 1.04\ngini = 0.4\nsamples = 9\nvalue = [3, 12, 1]", fillcolor="#76eda8"] ;
264 -> 286 ;
287 [label="Ascore <= -0.84\ngini = 0.34\nsamples = 8\nvalue = [2, 12, 1]", fillcolor="#67eb9e"] ;
286 -> 287 ;
288 [label="SS <= -0.38\ngini = 0.44\nsamples = 2\nvalue = [2, 1, 0]", fillcolor="#f2c09c"] ;
287 -> 288 ;
289 [label="gini = 0.0\nsamples = 1\nvalue = [2, 0, 0]", fillcolor="#e58139"] ;
288 -> 289 ;
290 [label="gini = 0.0\nsamples = 1\nvalue = [0, 1, 0]", fillcolor="#39e581"] ;
288 -> 290 ;
291 [label="Impulsive <= -0.8\ngini = 0.15\nsamples = 6\nvalue = [0, 11, 1]", fillcolor="#4be78c"] ;
287 -> 291 ;
292 [label="gini = 0.0\nsamples = 3\nvalue = [0, 8, 0]", fillcolor="#39e581"] ;
291 -> 292 ;
293 [label="Oscore <= -0.92\ngini = 0.38\nsamples = 3\nvalue = [0, 3, 1]", fillcolor="#7beeab"] ;
291 -> 293 ;
294 [label="Nscore <= -0.67\ngini = 0.5\nsamples = 2\nvalue = [0, 1, 1]", fillcolor="#ffffff"] ;
293 -> 294 ;
295 [label="gini = 0.0\nsamples = 1\nvalue = [0, 0, 1]", fillcolor="#8139e5"] ;
294 -> 295 ;
296 [label="gini = 0.0\nsamples = 1\nvalue = [0, 1, 0]", fillcolor="#39e581"] ;
294 -> 296 ;
297 [label="gini = 0.0\nsamples = 1\nvalue = [0, 2, 0]", fillcolor="#39e581"] ;
293 -> 297 ;
298 [label="gini = 0.0\nsamples = 1\nvalue = [1, 0, 0]", fillcolor="#e58139"] ;
286 -> 298 ;
299 [label="Cscore <= -0.34\ngini = 0.61\nsamples = 15\nvalue = [9, 9, 3]", fillcolor="#ffffff"] ;
261 -> 299 ;
300 [label="Escore <= 0.08\ngini = 0.62\nsamples = 4\nvalue = [1, 1, 2]", fillcolor="#d5bdf6"] ;
299 -> 300 ;
301 [label="Nscore <= 1.25\ngini = 0.44\nsamples = 3\nvalue = [0, 1, 2]", fillcolor="#c09cf2"] ;
300 -> 301 ;
302 [label="gini = 0.0\nsamples = 2\nvalue = [0, 0, 2]", fillcolor="#8139e5"] ;
301 -> 302 ;
303 [label="gini = 0.0\nsamples = 1\nvalue = [0, 1, 0]", fillcolor="#39e581"] ;
301 -> 303 ;
304 [label="gini = 0.0\nsamples = 1\nvalue = [1, 0, 0]", fillcolor="#e58139"] ;
300 -> 304 ;
305 [label="white <= 0.5\ngini = 0.55\nsamples = 11\nvalue = [8, 8, 1]", fillcolor="#ffffff"] ;
299 -> 305 ;
306 [label="gini = 0.0\nsamples = 1\nvalue = [2, 0, 0]", fillcolor="#e58139"] ;
305 -> 306 ;
307 [label="Impulsive <= -1.05\ngini = 0.55\nsamples = 10\nvalue = [6, 8, 1]", fillcolor="#d3f9e3"] ;
305 -> 307 ;
308 [label="Ascore <= -0.53\ngini = 0.41\nsamples = 5\nvalue = [5, 2, 0]", fillcolor="#efb388"] ;
307 -> 308 ;
309 [label="Oscore <= -1.92\ngini = 0.44\nsamples = 2\nvalue = [1, 2, 0]", fillcolor="#9cf2c0"] ;
308 -> 309 ;
310 [label="gini = 0.0\nsamples = 1\nvalue = [1, 0, 0]", fillcolor="#e58139"] ;
309 -> 310 ;
311 [label="gini = 0.0\nsamples = 1\nvalue = [0, 2, 0]", fillcolor="#39e581"] ;
309 -> 311 ;
312 [label="gini = 0.0\nsamples = 3\nvalue = [4, 0, 0]", fillcolor="#e58139"] ;
308 -> 312 ;
313 [label="Oscore <= -1.2\ngini = 0.41\nsamples = 5\nvalue = [1, 6, 1]", fillcolor="#72eca5"] ;
307 -> 313 ;
314 [label="gini = 0.0\nsamples = 1\nvalue = [1, 0, 0]", fillcolor="#e58139"] ;
313 -> 314 ;
315 [label="Cscore <= 0.27\ngini = 0.24\nsamples = 4\nvalue = [0, 6, 1]", fillcolor="#5ae996"] ;
313 -> 315 ;
316 [label="gini = 0.0\nsamples = 1\nvalue = [0, 3, 0]", fillcolor="#39e581"] ;
315 -> 316 ;
317 [label="Female <= 0.5\ngini = 0.38\nsamples = 3\nvalue = [0, 3, 1]", fillcolor="#7beeab"] ;
315 -> 317 ;
318 [label="gini = 0.0\nsamples = 1\nvalue = [0, 0, 1]", fillcolor="#8139e5"] ;
317 -> 318 ;
319 [label="gini = 0.0\nsamples = 2\nvalue = [0, 3, 0]", fillcolor="#39e581"] ;
317 -> 319 ;
320 [label="Female <= 0.5\ngini = 0.63\nsamples = 18\nvalue = [11, 13, 5]", fillcolor="#e9fcf1"] ;
260 -> 320 ;
321 [label="gini = 0.0\nsamples = 2\nvalue = [0, 0, 4]", fillcolor="#8139e5"] ;
320 -> 321 ;
322 [label="Nscore <= 0.62\ngini = 0.53\nsamples = 16\nvalue = [11, 13, 1]", fillcolor="#e3fbed"] ;
320 -> 322 ;
323 [label="Cscore <= 1.22\ngini = 0.5\nsamples = 14\nvalue = [11, 12, 0]", fillcolor="#effdf5"] ;
322 -> 323 ;
324 [label="SS <= -0.69\ngini = 0.47\nsamples = 11\nvalue = [7, 12, 0]", fillcolor="#acf4ca"] ;
323 -> 324 ;
325 [label="Impulsive <= -1.05\ngini = 0.48\nsamples = 7\nvalue = [6, 4, 0]", fillcolor="#f6d5bd"] ;
324 -> 325 ;
326 [label="Oscore <= -1.49\ngini = 0.28\nsamples = 4\nvalue = [5, 1, 0]", fillcolor="#ea9a61"] ;
325 -> 326 ;
327 [label="gini = 0.0\nsamples = 1\nvalue = [0, 1, 0]", fillcolor="#39e581"] ;
326 -> 327 ;
328 [label="gini = 0.0\nsamples = 3\nvalue = [5, 0, 0]", fillcolor="#e58139"] ;
326 -> 328 ;
329 [label="Nscore <= -0.36\ngini = 0.38\nsamples = 3\nvalue = [1, 3, 0]", fillcolor="#7beeab"] ;
325 -> 329 ;
330 [label="gini = 0.0\nsamples = 1\nvalue = [0, 2, 0]", fillcolor="#39e581"] ;
329 -> 330 ;
331 [label="SS <= -1.46\ngini = 0.5\nsamples = 2\nvalue = [1, 1, 0]", fillcolor="#ffffff"] ;
329 -> 331 ;
332 [label="gini = 0.0\nsamples = 1\nvalue = [0, 1, 0]", fillcolor="#39e581"] ;
331 -> 332 ;
333 [label="gini = 0.0\nsamples = 1\nvalue = [1, 0, 0]", fillcolor="#e58139"] ;
331 -> 333 ;
334 [label="Cscore <= 0.5\ngini = 0.2\nsamples = 4\nvalue = [1, 8, 0]", fillcolor="#52e891"] ;
324 -> 334 ;
335 [label="gini = 0.0\nsamples = 1\nvalue = [1, 0, 0]", fillcolor="#e58139"] ;
334 -> 335 ;
336 [label="gini = 0.0\nsamples = 3\nvalue = [0, 8, 0]", fillcolor="#39e581"] ;
334 -> 336 ;
337 [label="gini = 0.0\nsamples = 3\nvalue = [4, 0, 0]", fillcolor="#e58139"] ;
323 -> 337 ;
338 [label="Oscore <= -0.78\ngini = 0.5\nsamples = 2\nvalue = [0, 1, 1]", fillcolor="#ffffff"] ;
322 -> 338 ;
339 [label="gini = 0.0\nsamples = 1\nvalue = [0, 0, 1]", fillcolor="#8139e5"] ;
338 -> 339 ;
340 [label="gini = 0.0\nsamples = 1\nvalue = [0, 1, 0]", fillcolor="#39e581"] ;
338 -> 340 ;
341 [label="Escore <= 1.35\ngini = 0.66\nsamples = 19\nvalue = [9, 12, 13]", fillcolor="#f9f6fe"] ;
259 -> 341 ;
342 [label="Impulsive <= 1.58\ngini = 0.64\nsamples = 18\nvalue = [9, 7, 13]", fillcolor="#e6d7fa"] ;
341 -> 342 ;
343 [label="Cscore <= 0.76\ngini = 0.61\nsamples = 17\nvalue = [9, 4, 13]", fillcolor="#e1d0f9"] ;
342 -> 343 ;
344 [label="asian <= 0.5\ngini = 0.48\nsamples = 13\nvalue = [4, 2, 13]", fillcolor="#b388ef"] ;
343 -> 344 ;
345 [label="Age_45-54 <= 0.5\ngini = 0.32\nsamples = 12\nvalue = [1, 2, 13]", fillcolor="#9c63eb"] ;
344 -> 345 ;
346 [label="SS <= -0.85\ngini = 0.15\nsamples = 8\nvalue = [0, 1, 11]", fillcolor="#8c4be7"] ;
345 -> 346 ;
347 [label="gini = 0.0\nsamples = 1\nvalue = [0, 1, 0]", fillcolor="#39e581"] ;
346 -> 347 ;
348 [label="gini = 0.0\nsamples = 7\nvalue = [0, 0, 11]", fillcolor="#8139e5"] ;
346 -> 348 ;
349 [label="SS <= -1.2\ngini = 0.62\nsamples = 4\nvalue = [1, 1, 2]", fillcolor="#d5bdf6"] ;
345 -> 349 ;
350 [label="gini = 0.0\nsamples = 1\nvalue = [1, 0, 0]", fillcolor="#e58139"] ;
349 -> 350 ;
351 [label="Ascore <= 0.07\ngini = 0.44\nsamples = 3\nvalue = [0, 1, 2]", fillcolor="#c09cf2"] ;
349 -> 351 ;
352 [label="gini = 0.0\nsamples = 2\nvalue = [0, 0, 2]", fillcolor="#8139e5"] ;
351 -> 352 ;
353 [label="gini = 0.0\nsamples = 1\nvalue = [0, 1, 0]", fillcolor="#39e581"] ;
351 -> 353 ;
354 [label="gini = 0.0\nsamples = 1\nvalue = [3, 0, 0]", fillcolor="#e58139"] ;
344 -> 354 ;
355 [label="Cscore <= 1.3\ngini = 0.41\nsamples = 4\nvalue = [5, 2, 0]", fillcolor="#efb388"] ;
343 -> 355 ;
356 [label="Nscore <= -0.41\ngini = 0.5\nsamples = 3\nvalue = [2, 2, 0]", fillcolor="#ffffff"] ;
355 -> 356 ;
357 [label="gini = 0.0\nsamples = 1\nvalue = [1, 0, 0]", fillcolor="#e58139"] ;
356 -> 357 ;
358 [label="Age_25-34 <= 0.5\ngini = 0.44\nsamples = 2\nvalue = [1, 2, 0]", fillcolor="#9cf2c0"] ;
356 -> 358 ;
359 [label="gini = 0.0\nsamples = 1\nvalue = [0, 2, 0]", fillcolor="#39e581"] ;
358 -> 359 ;
360 [label="gini = 0.0\nsamples = 1\nvalue = [1, 0, 0]", fillcolor="#e58139"] ;
358 -> 360 ;
361 [label="gini = 0.0\nsamples = 1\nvalue = [3, 0, 0]", fillcolor="#e58139"] ;
355 -> 361 ;
362 [label="gini = 0.0\nsamples = 1\nvalue = [0, 3, 0]", fillcolor="#39e581"] ;
342 -> 362 ;
363 [label="gini = 0.0\nsamples = 1\nvalue = [0, 5, 0]", fillcolor="#39e581"] ;
341 -> 363 ;
364 [label="Age_45-54 <= 0.5\ngini = 0.42\nsamples = 490\nvalue = [63, 140, 564]", fillcolor="#aa79ed"] ;
0 -> 364 [labeldistance=2.5, labelangle=-45, headlabel="False"] ;
365 [label="Cscore <= 0.5\ngini = 0.4\nsamples = 427\nvalue = [49, 121, 501]", fillcolor="#a876ed"] ;
364 -> 365 ;
366 [label="Oscore <= 0.22\ngini = 0.35\nsamples = 313\nvalue = [26, 80, 393]", fillcolor="#a16bec"] ;
365 -> 366 ;
367 [label="white_asian <= 0.5\ngini = 0.47\nsamples = 66\nvalue = [5, 27, 67]", fillcolor="#b991f1"] ;
366 -> 367 ;
368 [label="white <= 0.5\ngini = 0.45\nsamples = 64\nvalue = [3, 27, 64]", fillcolor="#b992f1"] ;
367 -> 368 ;
369 [label="UK <= 0.5\ngini = 0.36\nsamples = 6\nvalue = [0, 3, 10]", fillcolor="#a774ed"] ;
368 -> 369 ;
370 [label="gini = 0.0\nsamples = 4\nvalue = [0, 0, 8]", fillcolor="#8139e5"] ;
369 -> 370 ;
371 [label="Impulsive <= -0.46\ngini = 0.48\nsamples = 2\nvalue = [0, 3, 2]", fillcolor="#bdf6d5"] ;
369 -> 371 ;
372 [label="gini = 0.0\nsamples = 1\nvalue = [0, 0, 2]", fillcolor="#8139e5"] ;
371 -> 372 ;
373 [label="gini = 0.0\nsamples = 1\nvalue = [0, 3, 0]", fillcolor="#39e581"] ;
371 -> 373 ;
374 [label="Age_35-44 <= 0.5\ngini = 0.47\nsamples = 58\nvalue = [3, 24, 54]", fillcolor="#bd97f1"] ;
368 -> 374 ;
375 [label="Cscore <= -0.47\ngini = 0.51\nsamples = 50\nvalue = [3, 23, 40]", fillcolor="#cdb1f5"] ;
374 -> 375 ;
376 [label="Impulsive <= 0.36\ngini = 0.53\nsamples = 23\nvalue = [1, 16, 16]", fillcolor="#ffffff"] ;
375 -> 376 ;
377 [label="SS <= 0.24\ngini = 0.34\nsamples = 9\nvalue = [0, 11, 3]", fillcolor="#6feca3"] ;
376 -> 377 ;
378 [label="gini = 0.0\nsamples = 3\nvalue = [0, 4, 0]", fillcolor="#39e581"] ;
377 -> 378 ;
379 [label="SS <= 0.58\ngini = 0.42\nsamples = 6\nvalue = [0, 7, 3]", fillcolor="#8ef0b7"] ;
377 -> 379 ;
380 [label="gini = 0.0\nsamples = 2\nvalue = [0, 0, 2]", fillcolor="#8139e5"] ;
379 -> 380 ;
381 [label="no_degree <= 0.5\ngini = 0.22\nsamples = 4\nvalue = [0, 7, 1]", fillcolor="#55e993"] ;
379 -> 381 ;
382 [label="Age_25-34 <= 0.5\ngini = 0.38\nsamples = 2\nvalue = [0, 3, 1]", fillcolor="#7beeab"] ;
381 -> 382 ;
383 [label="gini = 0.0\nsamples = 1\nvalue = [0, 3, 0]", fillcolor="#39e581"] ;
382 -> 383 ;
384 [label="gini = 0.0\nsamples = 1\nvalue = [0, 0, 1]", fillcolor="#8139e5"] ;
382 -> 384 ;
385 [label="gini = 0.0\nsamples = 2\nvalue = [0, 4, 0]", fillcolor="#39e581"] ;
381 -> 385 ;
386 [label="Nscore <= -0.82\ngini = 0.46\nsamples = 14\nvalue = [1, 5, 13]", fillcolor="#b78ef0"] ;
376 -> 386 ;
387 [label="gini = 0.0\nsamples = 3\nvalue = [0, 4, 0]", fillcolor="#39e581"] ;
386 -> 387 ;
388 [label="Cscore <= -1.71\ngini = 0.24\nsamples = 11\nvalue = [1, 1, 13]", fillcolor="#9355e9"] ;
386 -> 388 ;
389 [label="gini = 0.0\nsamples = 1\nvalue = [1, 0, 0]", fillcolor="#e58139"] ;
388 -> 389 ;
390 [label="UK <= 0.5\ngini = 0.13\nsamples = 10\nvalue = [0, 1, 13]", fillcolor="#8b48e7"] ;
388 -> 390 ;
391 [label="gini = 0.0\nsamples = 8\nvalue = [0, 0, 12]", fillcolor="#8139e5"] ;
390 -> 391 ;
392 [label="Impulsive <= 0.91\ngini = 0.5\nsamples = 2\nvalue = [0, 1, 1]", fillcolor="#ffffff"] ;
390 -> 392 ;
393 [label="gini = 0.0\nsamples = 1\nvalue = [0, 1, 0]", fillcolor="#39e581"] ;
392 -> 393 ;
394 [label="gini = 0.0\nsamples = 1\nvalue = [0, 0, 1]", fillcolor="#8139e5"] ;
392 -> 394 ;
395 [label="Impulsive <= -0.46\ngini = 0.42\nsamples = 27\nvalue = [2, 7, 24]", fillcolor="#ad7eee"] ;
375 -> 395 ;
396 [label="SS <= -0.37\ngini = 0.22\nsamples = 7\nvalue = [0, 1, 7]", fillcolor="#9355e9"] ;
395 -> 396 ;
397 [label="SS <= -0.85\ngini = 0.5\nsamples = 2\nvalue = [0, 1, 1]", fillcolor="#ffffff"] ;
396 -> 397 ;
398 [label="gini = 0.0\nsamples = 1\nvalue = [0, 0, 1]", fillcolor="#8139e5"] ;
397 -> 398 ;
399 [label="gini = 0.0\nsamples = 1\nvalue = [0, 1, 0]", fillcolor="#39e581"] ;
397 -> 399 ;
400 [label="gini = 0.0\nsamples = 5\nvalue = [0, 0, 6]", fillcolor="#8139e5"] ;
396 -> 400 ;
401 [label="diploma <= 0.5\ngini = 0.47\nsamples = 20\nvalue = [2, 6, 17]", fillcolor="#b68cf0"] ;
395 -> 401 ;
402 [label="Ascore <= 1.61\ngini = 0.48\nsamples = 18\nvalue = [2, 5, 15]", fillcolor="#b58bf0"] ;
401 -> 402 ;
403 [label="Escore <= -0.08\ngini = 0.43\nsamples = 17\nvalue = [1, 5, 15]", fillcolor="#b083ef"] ;
402 -> 403 ;
404 [label="gini = 0.0\nsamples = 7\nvalue = [0, 0, 11]", fillcolor="#8139e5"] ;
403 -> 404 ;
405 [label="university <= 0.5\ngini = 0.58\nsamples = 10\nvalue = [1, 5, 4]", fillcolor="#defbea"] ;
403 -> 405 ;
406 [label="Escore <= 0.16\ngini = 0.45\nsamples = 7\nvalue = [1, 5, 1]", fillcolor="#7beeab"] ;
405 -> 406 ;
407 [label="Female <= 0.5\ngini = 0.5\nsamples = 2\nvalue = [1, 1, 0]", fillcolor="#ffffff"] ;
406 -> 407 ;
408 [label="gini = 0.0\nsamples = 1\nvalue = [1, 0, 0]", fillcolor="#e58139"] ;
407 -> 408 ;
409 [label="gini = 0.0\nsamples = 1\nvalue = [0, 1, 0]", fillcolor="#39e581"] ;
407 -> 409 ;
410 [label="Female <= 0.5\ngini = 0.32\nsamples = 5\nvalue = [0, 4, 1]", fillcolor="#6aeca0"] ;
406 -> 410 ;
411 [label="Nscore <= -0.8\ngini = 0.44\nsamples = 3\nvalue = [0, 2, 1]", fillcolor="#9cf2c0"] ;
410 -> 411 ;
412 [label="gini = 0.0\nsamples = 1\nvalue = [0, 0, 1]", fillcolor="#8139e5"] ;
411 -> 412 ;
413 [label="gini = 0.0\nsamples = 2\nvalue = [0, 2, 0]", fillcolor="#39e581"] ;
411 -> 413 ;
414 [label="gini = 0.0\nsamples = 2\nvalue = [0, 2, 0]", fillcolor="#39e581"] ;
410 -> 414 ;
415 [label="gini = 0.0\nsamples = 3\nvalue = [0, 0, 3]", fillcolor="#8139e5"] ;
405 -> 415 ;
416 [label="gini = 0.0\nsamples = 1\nvalue = [1, 0, 0]", fillcolor="#e58139"] ;
402 -> 416 ;
417 [label="Female <= 0.5\ngini = 0.44\nsamples = 2\nvalue = [0, 1, 2]", fillcolor="#c09cf2"] ;
401 -> 417 ;
418 [label="gini = 0.0\nsamples = 1\nvalue = [0, 0, 2]", fillcolor="#8139e5"] ;
417 -> 418 ;
419 [label="gini = 0.0\nsamples = 1\nvalue = [0, 1, 0]", fillcolor="#39e581"] ;
417 -> 419 ;
420 [label="Nscore <= 1.3\ngini = 0.12\nsamples = 8\nvalue = [0, 1, 14]", fillcolor="#8a47e7"] ;
374 -> 420 ;
421 [label="SS <= -1.46\ngini = 0.24\nsamples = 5\nvalue = [0, 1, 6]", fillcolor="#965ae9"] ;
420 -> 421 ;
422 [label="gini = 0.0\nsamples = 1\nvalue = [0, 1, 0]", fillcolor="#39e581"] ;
421 -> 422 ;
423 [label="gini = 0.0\nsamples = 4\nvalue = [0, 0, 6]", fillcolor="#8139e5"] ;
421 -> 423 ;
424 [label="gini = 0.0\nsamples = 3\nvalue = [0, 0, 8]", fillcolor="#8139e5"] ;
420 -> 424 ;
425 [label="UK <= 0.5\ngini = 0.48\nsamples = 2\nvalue = [2, 0, 3]", fillcolor="#d5bdf6"] ;
367 -> 425 ;
426 [label="gini = 0.0\nsamples = 1\nvalue = [0, 0, 3]", fillcolor="#8139e5"] ;
425 -> 426 ;
427 [label="gini = 0.0\nsamples = 1\nvalue = [2, 0, 0]", fillcolor="#e58139"] ;
425 -> 427 ;
428 [label="Ascore <= 0.51\ngini = 0.32\nsamples = 247\nvalue = [21, 53, 326]", fillcolor="#9c63eb"] ;
366 -> 428 ;
429 [label="SS <= 1.0\ngini = 0.36\nsamples = 175\nvalue = [15, 47, 224]", fillcolor="#a26cec"] ;
428 -> 429 ;
430 [label="Age_55-64 <= 0.5\ngini = 0.43\nsamples = 128\nvalue = [14, 45, 151]", fillcolor="#ae80ee"] ;
429 -> 430 ;
431 [label="Oscore <= 2.02\ngini = 0.41\nsamples = 122\nvalue = [11, 42, 149]", fillcolor="#ab7bee"] ;
430 -> 431 ;
432 [label="Nscore <= 2.13\ngini = 0.39\nsamples = 120\nvalue = [8, 42, 148]", fillcolor="#a978ed"] ;
431 -> 432 ;
433 [label="Cscore <= 0.19\ngini = 0.39\nsamples = 118\nvalue = [8, 40, 147]", fillcolor="#a876ed"] ;
432 -> 433 ;
434 [label="Impulsive <= 1.09\ngini = 0.33\nsamples = 106\nvalue = [1, 34, 133]", fillcolor="#a26dec"] ;
433 -> 434 ;
435 [label="ls_18 <= 0.5\ngini = 0.27\nsamples = 88\nvalue = [1, 21, 115]", fillcolor="#995fea"] ;
434 -> 435 ;
436 [label="white <= 0.5\ngini = 0.26\nsamples = 83\nvalue = [1, 19, 111]", fillcolor="#985cea"] ;
435 -> 436 ;
437 [label="gini = 0.0\nsamples = 3\nvalue = [0, 0, 3]", fillcolor="#8139e5"] ;
436 -> 437 ;
438 [label="Female <= 0.5\ngini = 0.27\nsamples = 80\nvalue = [1, 19, 108]", fillcolor="#985dea"] ;
436 -> 438 ;
439 [label="no_degree <= 0.5\ngini = 0.18\nsamples = 54\nvalue = [0, 9, 80]", fillcolor="#8f4fe8"] ;
438 -> 439 ;
440 [label="Age_35-44 <= 0.5\ngini = 0.13\nsamples = 28\nvalue = [0, 3, 41]", fillcolor="#8a47e7"] ;
439 -> 440 ;
441 [label="SS <= 0.58\ngini = 0.15\nsamples = 22\nvalue = [0, 3, 34]", fillcolor="#8c4ae7"] ;
440 -> 441 ;
442 [label="Escore <= -1.3\ngini = 0.06\nsamples = 17\nvalue = [0, 1, 30]", fillcolor="#8540e6"] ;
441 -> 442 ;
443 [label="UK <= 0.5\ngini = 0.2\nsamples = 5\nvalue = [0, 1, 8]", fillcolor="#9152e8"] ;
442 -> 443 ;
444 [label="gini = 0.0\nsamples = 4\nvalue = [0, 0, 8]", fillcolor="#8139e5"] ;
443 -> 444 ;
445 [label="gini = 0.0\nsamples = 1\nvalue = [0, 1, 0]", fillcolor="#39e581"] ;
443 -> 445 ;
446 [label="gini = 0.0\nsamples = 12\nvalue = [0, 0, 22]", fillcolor="#8139e5"] ;
442 -> 446 ;
447 [label="UK <= 0.5\ngini = 0.44\nsamples = 5\nvalue = [0, 2, 4]", fillcolor="#c09cf2"] ;
441 -> 447 ;
448 [label="gini = 0.0\nsamples = 4\nvalue = [0, 0, 4]", fillcolor="#8139e5"] ;
447 -> 448 ;
449 [label="gini = 0.0\nsamples = 1\nvalue = [0, 2, 0]", fillcolor="#39e581"] ;
447 -> 449 ;
450 [label="gini = 0.0\nsamples = 6\nvalue = [0, 0, 7]", fillcolor="#8139e5"] ;
440 -> 450 ;
451 [label="Ascore <= -0.68\ngini = 0.23\nsamples = 26\nvalue = [0, 6, 39]", fillcolor="#9457e9"] ;
439 -> 451 ;
452 [label="Oscore <= 0.8\ngini = 0.09\nsamples = 13\nvalue = [0, 1, 21]", fillcolor="#8742e6"] ;
451 -> 452 ;
453 [label="gini = 0.0\nsamples = 9\nvalue = [0, 0, 17]", fillcolor="#8139e5"] ;
452 -> 453 ;
454 [label="SS <= -0.06\ngini = 0.32\nsamples = 4\nvalue = [0, 1, 4]", fillcolor="#a06aec"] ;
452 -> 454 ;
455 [label="gini = 0.0\nsamples = 1\nvalue = [0, 1, 0]", fillcolor="#39e581"] ;
454 -> 455 ;
456 [label="gini = 0.0\nsamples = 3\nvalue = [0, 0, 4]", fillcolor="#8139e5"] ;
454 -> 456 ;
457 [label="canada <= 0.5\ngini = 0.34\nsamples = 13\nvalue = [0, 5, 18]", fillcolor="#a470ec"] ;
451 -> 457 ;
458 [label="ireland <= 0.5\ngini = 0.3\nsamples = 12\nvalue = [0, 4, 18]", fillcolor="#9d65eb"] ;
457 -> 458 ;
459 [label="UK <= 0.5\ngini = 0.31\nsamples = 11\nvalue = [0, 4, 17]", fillcolor="#9f68eb"] ;
458 -> 459 ;
460 [label="Ascore <= -0.53\ngini = 0.1\nsamples = 9\nvalue = [0, 1, 17]", fillcolor="#8845e7"] ;
459 -> 460 ;
461 [label="gini = 0.0\nsamples = 1\nvalue = [0, 1, 0]", fillcolor="#39e581"] ;
460 -> 461 ;
462 [label="gini = 0.0\nsamples = 8\nvalue = [0, 0, 17]", fillcolor="#8139e5"] ;
460 -> 462 ;
463 [label="gini = 0.0\nsamples = 2\nvalue = [0, 3, 0]", fillcolor="#39e581"] ;
459 -> 463 ;
464 [label="gini = 0.0\nsamples = 1\nvalue = [0, 0, 1]", fillcolor="#8139e5"] ;
458 -> 464 ;
465 [label="gini = 0.0\nsamples = 1\nvalue = [0, 1, 0]", fillcolor="#39e581"] ;
457 -> 465 ;
466 [label="Age_35-44 <= 0.5\ngini = 0.42\nsamples = 26\nvalue = [1, 10, 28]", fillcolor="#b184ef"] ;
438 -> 466 ;
467 [label="Cscore <= -1.45\ngini = 0.48\nsamples = 21\nvalue = [1, 10, 20]", fillcolor="#c3a1f3"] ;
466 -> 467 ;
468 [label="Cscore <= -2.44\ngini = 0.32\nsamples = 4\nvalue = [0, 4, 1]", fillcolor="#6aeca0"] ;
467 -> 468 ;
469 [label="gini = 0.0\nsamples = 1\nvalue = [0, 0, 1]", fillcolor="#8139e5"] ;
468 -> 469 ;
470 [label="gini = 0.0\nsamples = 3\nvalue = [0, 4, 0]", fillcolor="#39e581"] ;
468 -> 470 ;
471 [label="Cscore <= -0.27\ngini = 0.41\nsamples = 17\nvalue = [1, 6, 19]", fillcolor="#ad7eee"] ;
467 -> 471 ;
472 [label="Escore <= 0.48\ngini = 0.13\nsamples = 9\nvalue = [1, 0, 13]", fillcolor="#8b48e7"] ;
471 -> 472 ;
473 [label="Oscore <= 1.36\ngini = 0.24\nsamples = 5\nvalue = [1, 0, 6]", fillcolor="#965ae9"] ;
472 -> 473 ;
474 [label="gini = 0.0\nsamples = 4\nvalue = [0, 0, 6]", fillcolor="#8139e5"] ;
473 -> 474 ;
475 [label="gini = 0.0\nsamples = 1\nvalue = [1, 0, 0]", fillcolor="#e58139"] ;
473 -> 475 ;
476 [label="gini = 0.0\nsamples = 4\nvalue = [0, 0, 7]", fillcolor="#8139e5"] ;
472 -> 476 ;
477 [label="Impulsive <= -0.01\ngini = 0.5\nsamples = 8\nvalue = [0, 6, 6]", fillcolor="#ffffff"] ;
471 -> 477 ;
478 [label="Escore <= 0.48\ngini = 0.47\nsamples = 5\nvalue = [0, 3, 5]", fillcolor="#cdb0f5"] ;
477 -> 478 ;
479 [label="gini = 0.0\nsamples = 2\nvalue = [0, 2, 0]", fillcolor="#39e581"] ;
478 -> 479 ;
480 [label="Age_25-34 <= 0.5\ngini = 0.28\nsamples = 3\nvalue = [0, 1, 5]", fillcolor="#9a61ea"] ;
478 -> 480 ;
481 [label="gini = 0.0\nsamples = 1\nvalue = [0, 0, 4]", fillcolor="#8139e5"] ;
480 -> 481 ;
482 [label="Ascore <= -0.89\ngini = 0.5\nsamples = 2\nvalue = [0, 1, 1]", fillcolor="#ffffff"] ;
480 -> 482 ;
483 [label="gini = 0.0\nsamples = 1\nvalue = [0, 1, 0]", fillcolor="#39e581"] ;
482 -> 483 ;
484 [label="gini = 0.0\nsamples = 1\nvalue = [0, 0, 1]", fillcolor="#8139e5"] ;
482 -> 484 ;
485 [label="master <= 0.5\ngini = 0.38\nsamples = 3\nvalue = [0, 3, 1]", fillcolor="#7beeab"] ;
477 -> 485 ;
486 [label="gini = 0.0\nsamples = 2\nvalue = [0, 3, 0]", fillcolor="#39e581"] ;
485 -> 486 ;
487 [label="gini = 0.0\nsamples = 1\nvalue = [0, 0, 1]", fillcolor="#8139e5"] ;
485 -> 487 ;
488 [label="gini = 0.0\nsamples = 5\nvalue = [0, 0, 8]", fillcolor="#8139e5"] ;
466 -> 488 ;
489 [label="Nscore <= -0.41\ngini = 0.44\nsamples = 5\nvalue = [0, 2, 4]", fillcolor="#c09cf2"] ;
435 -> 489 ;
490 [label="gini = 0.0\nsamples = 2\nvalue = [0, 2, 0]", fillcolor="#39e581"] ;
489 -> 490 ;
491 [label="gini = 0.0\nsamples = 3\nvalue = [0, 0, 4]", fillcolor="#8139e5"] ;
489 -> 491 ;
492 [label="UK <= 0.5\ngini = 0.49\nsamples = 18\nvalue = [0, 13, 18]", fillcolor="#dcc8f8"] ;
434 -> 492 ;
493 [label="Cscore <= -1.32\ngini = 0.42\nsamples = 13\nvalue = [0, 7, 16]", fillcolor="#b890f0"] ;
492 -> 493 ;
494 [label="Escore <= 0.16\ngini = 0.22\nsamples = 5\nvalue = [0, 7, 1]", fillcolor="#55e993"] ;
493 -> 494 ;
495 [label="gini = 0.0\nsamples = 3\nvalue = [0, 5, 0]", fillcolor="#39e581"] ;
494 -> 495 ;
496 [label="Oscore <= 1.36\ngini = 0.44\nsamples = 2\nvalue = [0, 2, 1]", fillcolor="#9cf2c0"] ;
494 -> 496 ;
497 [label="gini = 0.0\nsamples = 1\nvalue = [0, 2, 0]", fillcolor="#39e581"] ;
496 -> 497 ;
498 [label="gini = 0.0\nsamples = 1\nvalue = [0, 0, 1]", fillcolor="#8139e5"] ;
496 -> 498 ;
499 [label="gini = 0.0\nsamples = 8\nvalue = [0, 0, 15]", fillcolor="#8139e5"] ;
493 -> 499 ;
500 [label="Nscore <= -0.82\ngini = 0.38\nsamples = 5\nvalue = [0, 6, 2]", fillcolor="#7beeab"] ;
492 -> 500 ;
501 [label="gini = 0.0\nsamples = 1\nvalue = [0, 0, 1]", fillcolor="#8139e5"] ;
500 -> 501 ;
502 [label="Nscore <= 0.52\ngini = 0.24\nsamples = 4\nvalue = [0, 6, 1]", fillcolor="#5ae996"] ;
500 -> 502 ;
503 [label="gini = 0.0\nsamples = 3\nvalue = [0, 6, 0]", fillcolor="#39e581"] ;
502 -> 503 ;
504 [label="gini = 0.0\nsamples = 1\nvalue = [0, 0, 1]", fillcolor="#8139e5"] ;
502 -> 504 ;
505 [label="Age_35-44 <= 0.5\ngini = 0.61\nsamples = 12\nvalue = [7, 6, 14]", fillcolor="#d3baf6"] ;
433 -> 505 ;
506 [label="SS <= 0.24\ngini = 0.48\nsamples = 8\nvalue = [0, 6, 9]", fillcolor="#d5bdf6"] ;
505 -> 506 ;
507 [label="gini = 0.0\nsamples = 4\nvalue = [0, 0, 5]", fillcolor="#8139e5"] ;
506 -> 507 ;
508 [label="Nscore <= 0.03\ngini = 0.48\nsamples = 4\nvalue = [0, 6, 4]", fillcolor="#bdf6d5"] ;
506 -> 508 ;
509 [label="gini = 0.0\nsamples = 2\nvalue = [0, 0, 4]", fillcolor="#8139e5"] ;
508 -> 509 ;
510 [label="gini = 0.0\nsamples = 2\nvalue = [0, 6, 0]", fillcolor="#39e581"] ;
508 -> 510 ;
511 [label="university <= 0.5\ngini = 0.49\nsamples = 4\nvalue = [7, 0, 5]", fillcolor="#f8dbc6"] ;
505 -> 511 ;
512 [label="Oscore <= 0.8\ngini = 0.41\nsamples = 3\nvalue = [2, 0, 5]", fillcolor="#b388ef"] ;
511 -> 512 ;
513 [label="gini = 0.0\nsamples = 1\nvalue = [2, 0, 0]", fillcolor="#e58139"] ;
512 -> 513 ;
514 [label="gini = 0.0\nsamples = 2\nvalue = [0, 0, 5]", fillcolor="#8139e5"] ;
512 -> 514 ;
515 [label="gini = 0.0\nsamples = 1\nvalue = [5, 0, 0]", fillcolor="#e58139"] ;
511 -> 515 ;
516 [label="Oscore <= 0.89\ngini = 0.44\nsamples = 2\nvalue = [0, 2, 1]", fillcolor="#9cf2c0"] ;
432 -> 516 ;
517 [label="gini = 0.0\nsamples = 1\nvalue = [0, 2, 0]", fillcolor="#39e581"] ;
516 -> 517 ;
518 [label="gini = 0.0\nsamples = 1\nvalue = [0, 0, 1]", fillcolor="#8139e5"] ;
516 -> 518 ;
519 [label="Ascore <= -0.61\ngini = 0.38\nsamples = 2\nvalue = [3, 0, 1]", fillcolor="#eeab7b"] ;
431 -> 519 ;
520 [label="gini = 0.0\nsamples = 1\nvalue = [0, 0, 1]", fillcolor="#8139e5"] ;
519 -> 520 ;
521 [label="gini = 0.0\nsamples = 1\nvalue = [3, 0, 0]", fillcolor="#e58139"] ;
519 -> 521 ;
522 [label="other_c <= 0.5\ngini = 0.66\nsamples = 6\nvalue = [3, 3, 2]", fillcolor="#ffffff"] ;
430 -> 522 ;
523 [label="Cscore <= -1.02\ngini = 0.5\nsamples = 5\nvalue = [3, 3, 0]", fillcolor="#ffffff"] ;
522 -> 523 ;
524 [label="gini = 0.0\nsamples = 1\nvalue = [0, 1, 0]", fillcolor="#39e581"] ;
523 -> 524 ;
525 [label="Ascore <= -0.45\ngini = 0.48\nsamples = 4\nvalue = [3, 2, 0]", fillcolor="#f6d5bd"] ;
523 -> 525 ;
526 [label="gini = 0.0\nsamples = 1\nvalue = [0, 1, 0]", fillcolor="#39e581"] ;
525 -> 526 ;
527 [label="Escore <= 0.56\ngini = 0.38\nsamples = 3\nvalue = [3, 1, 0]", fillcolor="#eeab7b"] ;
525 -> 527 ;
528 [label="gini = 0.0\nsamples = 2\nvalue = [3, 0, 0]", fillcolor="#e58139"] ;
527 -> 528 ;
529 [label="gini = 0.0\nsamples = 1\nvalue = [0, 1, 0]", fillcolor="#39e581"] ;
527 -> 529 ;
530 [label="gini = 0.0\nsamples = 1\nvalue = [0, 0, 2]", fillcolor="#8139e5"] ;
522 -> 530 ;
531 [label="Oscore <= 2.68\ngini = 0.08\nsamples = 47\nvalue = [1, 2, 73]", fillcolor="#8641e6"] ;
429 -> 531 ;
532 [label="Nscore <= -0.2\ngini = 0.05\nsamples = 46\nvalue = [1, 1, 73]", fillcolor="#843ee6"] ;
531 -> 532 ;
533 [label="Escore <= 1.28\ngini = 0.1\nsamples = 12\nvalue = [1, 0, 18]", fillcolor="#8844e6"] ;
532 -> 533 ;
534 [label="gini = 0.0\nsamples = 8\nvalue = [0, 0, 15]", fillcolor="#8139e5"] ;
533 -> 534 ;
535 [label="SS <= 1.57\ngini = 0.38\nsamples = 4\nvalue = [1, 0, 3]", fillcolor="#ab7bee"] ;
533 -> 535 ;
536 [label="gini = 0.0\nsamples = 1\nvalue = [1, 0, 0]", fillcolor="#e58139"] ;
535 -> 536 ;
537 [label="gini = 0.0\nsamples = 3\nvalue = [0, 0, 3]", fillcolor="#8139e5"] ;
535 -> 537 ;
538 [label="Escore <= 1.37\ngini = 0.04\nsamples = 34\nvalue = [0, 1, 55]", fillcolor="#833de5"] ;
532 -> 538 ;
539 [label="gini = 0.0\nsamples = 30\nvalue = [0, 0, 52]", fillcolor="#8139e5"] ;
538 -> 539 ;
540 [label="Ascore <= -1.27\ngini = 0.38\nsamples = 4\nvalue = [0, 1, 3]", fillcolor="#ab7bee"] ;
538 -> 540 ;
541 [label="gini = 0.0\nsamples = 1\nvalue = [0, 1, 0]", fillcolor="#39e581"] ;
540 -> 541 ;
542 [label="gini = 0.0\nsamples = 3\nvalue = [0, 0, 3]", fillcolor="#8139e5"] ;
540 -> 542 ;
543 [label="gini = 0.0\nsamples = 1\nvalue = [0, 1, 0]", fillcolor="#39e581"] ;
531 -> 543 ;
544 [label="SS <= -0.07\ngini = 0.19\nsamples = 72\nvalue = [6, 6, 102]", fillcolor="#8f4fe8"] ;
428 -> 544 ;
545 [label="Age_55-64 <= 0.5\ngini = 0.33\nsamples = 19\nvalue = [4, 2, 25]", fillcolor="#9d65eb"] ;
544 -> 545 ;
546 [label="asian <= 0.5\ngini = 0.36\nsamples = 18\nvalue = [4, 2, 22]", fillcolor="#a06bec"] ;
545 -> 546 ;
547 [label="university <= 0.5\ngini = 0.31\nsamples = 17\nvalue = [4, 1, 22]", fillcolor="#9c64eb"] ;
546 -> 547 ;
548 [label="Age_25-34 <= 0.5\ngini = 0.1\nsamples = 11\nvalue = [0, 1, 17]", fillcolor="#8845e7"] ;
547 -> 548 ;
549 [label="Impulsive <= -0.46\ngini = 0.13\nsamples = 9\nvalue = [0, 1, 13]", fillcolor="#8b48e7"] ;
548 -> 549 ;
550 [label="Nscore <= -0.75\ngini = 0.18\nsamples = 6\nvalue = [0, 1, 9]", fillcolor="#8f4fe8"] ;
549 -> 550 ;
551 [label="Nscore <= -1.12\ngini = 0.38\nsamples = 3\nvalue = [0, 1, 3]", fillcolor="#ab7bee"] ;
550 -> 551 ;
552 [label="gini = 0.0\nsamples = 2\nvalue = [0, 0, 3]", fillcolor="#8139e5"] ;
551 -> 552 ;
553 [label="gini = 0.0\nsamples = 1\nvalue = [0, 1, 0]", fillcolor="#39e581"] ;
551 -> 553 ;
554 [label="gini = 0.0\nsamples = 3\nvalue = [0, 0, 6]", fillcolor="#8139e5"] ;
550 -> 554 ;
555 [label="gini = 0.0\nsamples = 3\nvalue = [0, 0, 4]", fillcolor="#8139e5"] ;
549 -> 555 ;
556 [label="gini = 0.0\nsamples = 2\nvalue = [0, 0, 4]", fillcolor="#8139e5"] ;
548 -> 556 ;
557 [label="Cscore <= 0.06\ngini = 0.49\nsamples = 6\nvalue = [4, 0, 5]", fillcolor="#e6d7fa"] ;
547 -> 557 ;
558 [label="Escore <= -0.84\ngini = 0.44\nsamples = 4\nvalue = [4, 0, 2]", fillcolor="#f2c09c"] ;
557 -> 558 ;
559 [label="Cscore <= -1.33\ngini = 0.44\nsamples = 2\nvalue = [1, 0, 2]", fillcolor="#c09cf2"] ;
558 -> 559 ;
560 [label="gini = 0.0\nsamples = 1\nvalue = [1, 0, 0]", fillcolor="#e58139"] ;
559 -> 560 ;
561 [label="gini = 0.0\nsamples = 1\nvalue = [0, 0, 2]", fillcolor="#8139e5"] ;
559 -> 561 ;
562 [label="gini = 0.0\nsamples = 2\nvalue = [3, 0, 0]", fillcolor="#e58139"] ;
558 -> 562 ;
563 [label="gini = 0.0\nsamples = 2\nvalue = [0, 0, 3]", fillcolor="#8139e5"] ;
557 -> 563 ;
564 [label="gini = 0.0\nsamples = 1\nvalue = [0, 1, 0]", fillcolor="#39e581"] ;
546 -> 564 ;
565 [label="gini = 0.0\nsamples = 1\nvalue = [0, 0, 3]", fillcolor="#8139e5"] ;
545 -> 565 ;
566 [label="Oscore <= 0.37\ngini = 0.14\nsamples = 53\nvalue = [2, 4, 77]", fillcolor="#8b48e7"] ;
544 -> 566 ;
567 [label="no_degree <= 0.5\ngini = 0.48\nsamples = 4\nvalue = [2, 0, 3]", fillcolor="#d5bdf6"] ;
566 -> 567 ;
568 [label="Escore <= 1.04\ngini = 0.44\nsamples = 2\nvalue = [2, 0, 1]", fillcolor="#f2c09c"] ;
567 -> 568 ;
569 [label="gini = 0.0\nsamples = 1\nvalue = [2, 0, 0]", fillcolor="#e58139"] ;
568 -> 569 ;
570 [label="gini = 0.0\nsamples = 1\nvalue = [0, 0, 1]", fillcolor="#8139e5"] ;
568 -> 570 ;
571 [label="gini = 0.0\nsamples = 2\nvalue = [0, 0, 2]", fillcolor="#8139e5"] ;
567 -> 571 ;
572 [label="university <= 0.5\ngini = 0.1\nsamples = 49\nvalue = [0, 4, 74]", fillcolor="#8844e6"] ;
566 -> 572 ;
573 [label="Ascore <= 0.85\ngini = 0.06\nsamples = 37\nvalue = [0, 2, 58]", fillcolor="#8540e6"] ;
572 -> 573 ;
574 [label="ls_17 <= 0.5\ngini = 0.19\nsamples = 13\nvalue = [0, 2, 17]", fillcolor="#9050e8"] ;
573 -> 574 ;
575 [label="Oscore <= 1.7\ngini = 0.1\nsamples = 12\nvalue = [0, 1, 17]", fillcolor="#8845e7"] ;
574 -> 575 ;
576 [label="gini = 0.0\nsamples = 10\nvalue = [0, 0, 16]", fillcolor="#8139e5"] ;
575 -> 576 ;
577 [label="Cscore <= -0.39\ngini = 0.5\nsamples = 2\nvalue = [0, 1, 1]", fillcolor="#ffffff"] ;
575 -> 577 ;
578 [label="gini = 0.0\nsamples = 1\nvalue = [0, 1, 0]", fillcolor="#39e581"] ;
577 -> 578 ;
579 [label="gini = 0.0\nsamples = 1\nvalue = [0, 0, 1]", fillcolor="#8139e5"] ;
577 -> 579 ;
580 [label="gini = 0.0\nsamples = 1\nvalue = [0, 1, 0]", fillcolor="#39e581"] ;
574 -> 580 ;
581 [label="gini = 0.0\nsamples = 24\nvalue = [0, 0, 41]", fillcolor="#8139e5"] ;
573 -> 581 ;
582 [label="Age_55-64 <= 0.5\ngini = 0.2\nsamples = 12\nvalue = [0, 2, 16]", fillcolor="#9152e8"] ;
572 -> 582 ;
583 [label="Cscore <= 0.06\ngini = 0.11\nsamples = 11\nvalue = [0, 1, 16]", fillcolor="#8945e7"] ;
582 -> 583 ;
584 [label="gini = 0.0\nsamples = 7\nvalue = [0, 0, 10]", fillcolor="#8139e5"] ;
583 -> 584 ;
585 [label="Female <= 0.5\ngini = 0.24\nsamples = 4\nvalue = [0, 1, 6]", fillcolor="#965ae9"] ;
583 -> 585 ;
586 [label="gini = 0.0\nsamples = 1\nvalue = [0, 0, 3]", fillcolor="#8139e5"] ;
585 -> 586 ;
587 [label="australia <= 0.5\ngini = 0.38\nsamples = 3\nvalue = [0, 1, 3]", fillcolor="#ab7bee"] ;
585 -> 587 ;
588 [label="gini = 0.0\nsamples = 1\nvalue = [0, 1, 0]", fillcolor="#39e581"] ;
587 -> 588 ;
589 [label="gini = 0.0\nsamples = 2\nvalue = [0, 0, 3]", fillcolor="#8139e5"] ;
587 -> 589 ;
590 [label="gini = 0.0\nsamples = 1\nvalue = [0, 1, 0]", fillcolor="#39e581"] ;
582 -> 590 ;
591 [label="Ascore <= 0.85\ngini = 0.53\nsamples = 114\nvalue = [23, 41, 108]", fillcolor="#bf9af2"] ;
365 -> 591 ;
592 [label="Female <= 0.5\ngini = 0.47\nsamples = 88\nvalue = [15, 26, 93]", fillcolor="#b184ef"] ;
591 -> 592 ;
593 [label="doctorate <= 0.5\ngini = 0.37\nsamples = 46\nvalue = [6, 11, 58]", fillcolor="#a26eec"] ;
592 -> 593 ;
594 [label="Impulsive <= -1.97\ngini = 0.36\nsamples = 45\nvalue = [6, 10, 58]", fillcolor="#a06aec"] ;
593 -> 594 ;
595 [label="gini = 0.0\nsamples = 1\nvalue = [0, 1, 0]", fillcolor="#39e581"] ;
594 -> 595 ;
596 [label="white <= 0.5\ngini = 0.35\nsamples = 44\nvalue = [6, 9, 58]", fillcolor="#9f67eb"] ;
594 -> 596 ;
597 [label="Nscore <= -0.87\ngini = 0.42\nsamples = 8\nvalue = [0, 3, 7]", fillcolor="#b78ef0"] ;
596 -> 597 ;
598 [label="SS <= 0.58\ngini = 0.44\nsamples = 3\nvalue = [0, 2, 1]", fillcolor="#9cf2c0"] ;
597 -> 598 ;
599 [label="gini = 0.0\nsamples = 2\nvalue = [0, 2, 0]", fillcolor="#39e581"] ;
598 -> 599 ;
600 [label="gini = 0.0\nsamples = 1\nvalue = [0, 0, 1]", fillcolor="#8139e5"] ;
598 -> 600 ;
601 [label="Oscore <= 1.45\ngini = 0.24\nsamples = 5\nvalue = [0, 1, 6]", fillcolor="#965ae9"] ;
597 -> 601 ;
602 [label="Oscore <= 1.06\ngini = 0.44\nsamples = 3\nvalue = [0, 1, 2]", fillcolor="#c09cf2"] ;
601 -> 602 ;
603 [label="gini = 0.0\nsamples = 2\nvalue = [0, 0, 2]", fillcolor="#8139e5"] ;
602 -> 603 ;
604 [label="gini = 0.0\nsamples = 1\nvalue = [0, 1, 0]", fillcolor="#39e581"] ;
602 -> 604 ;
605 [label="gini = 0.0\nsamples = 2\nvalue = [0, 0, 4]", fillcolor="#8139e5"] ;
601 -> 605 ;
606 [label="Impulsive <= 1.09\ngini = 0.33\nsamples = 36\nvalue = [6, 6, 51]", fillcolor="#9c63ea"] ;
596 -> 606 ;
607 [label="UK <= 0.5\ngini = 0.31\nsamples = 35\nvalue = [6, 5, 51]", fillcolor="#9a60ea"] ;
606 -> 607 ;
608 [label="other_c <= 0.5\ngini = 0.06\nsamples = 18\nvalue = [0, 1, 32]", fillcolor="#853fe6"] ;
607 -> 608 ;
609 [label="gini = 0.0\nsamples = 17\nvalue = [0, 0, 32]", fillcolor="#8139e5"] ;
608 -> 609 ;
610 [label="gini = 0.0\nsamples = 1\nvalue = [0, 1, 0]", fillcolor="#39e581"] ;
608 -> 610 ;
611 [label="Age_55-64 <= 0.5\ngini = 0.51\nsamples = 17\nvalue = [6, 4, 19]", fillcolor="#b88ff0"] ;
607 -> 611 ;
612 [label="Ascore <= 0.36\ngini = 0.36\nsamples = 12\nvalue = [1, 3, 14]", fillcolor="#a36eec"] ;
611 -> 612 ;
613 [label="Nscore <= -1.87\ngini = 0.4\nsamples = 9\nvalue = [0, 3, 8]", fillcolor="#b083ef"] ;
612 -> 613 ;
614 [label="gini = 0.0\nsamples = 1\nvalue = [0, 1, 0]", fillcolor="#39e581"] ;
613 -> 614 ;
615 [label="SS <= -0.38\ngini = 0.32\nsamples = 8\nvalue = [0, 2, 8]", fillcolor="#a06aec"] ;
613 -> 615 ;
616 [label="gini = 0.0\nsamples = 2\nvalue = [0, 2, 0]", fillcolor="#39e581"] ;
615 -> 616 ;
617 [label="gini = 0.0\nsamples = 6\nvalue = [0, 0, 8]", fillcolor="#8139e5"] ;
615 -> 617 ;
618 [label="Nscore <= -1.12\ngini = 0.24\nsamples = 3\nvalue = [1, 0, 6]", fillcolor="#965ae9"] ;
612 -> 618 ;
619 [label="gini = 0.0\nsamples = 1\nvalue = [0, 0, 2]", fillcolor="#8139e5"] ;
618 -> 619 ;
620 [label="diploma <= 0.5\ngini = 0.32\nsamples = 2\nvalue = [1, 0, 4]", fillcolor="#a06aec"] ;
618 -> 620 ;
621 [label="gini = 0.0\nsamples = 1\nvalue = [0, 0, 4]", fillcolor="#8139e5"] ;
620 -> 621 ;
622 [label="gini = 0.0\nsamples = 1\nvalue = [1, 0, 0]", fillcolor="#e58139"] ;
620 -> 622 ;
623 [label="Ascore <= -1.2\ngini = 0.58\nsamples = 5\nvalue = [5, 1, 5]", fillcolor="#ffffff"] ;
611 -> 623 ;
624 [label="Escore <= 0.16\ngini = 0.32\nsamples = 2\nvalue = [0, 1, 4]", fillcolor="#a06aec"] ;
623 -> 624 ;
625 [label="gini = 0.0\nsamples = 1\nvalue = [0, 1, 0]", fillcolor="#39e581"] ;
624 -> 625 ;
626 [label="gini = 0.0\nsamples = 1\nvalue = [0, 0, 4]", fillcolor="#8139e5"] ;
624 -> 626 ;
627 [label="Ascore <= 0.21\ngini = 0.28\nsamples = 3\nvalue = [5, 0, 1]", fillcolor="#ea9a61"] ;
623 -> 627 ;
628 [label="gini = 0.0\nsamples = 2\nvalue = [5, 0, 0]", fillcolor="#e58139"] ;
627 -> 628 ;
629 [label="gini = 0.0\nsamples = 1\nvalue = [0, 0, 1]", fillcolor="#8139e5"] ;
627 -> 629 ;
630 [label="gini = 0.0\nsamples = 1\nvalue = [0, 1, 0]", fillcolor="#39e581"] ;
606 -> 630 ;
631 [label="gini = 0.0\nsamples = 1\nvalue = [0, 1, 0]", fillcolor="#39e581"] ;
593 -> 631 ;
632 [label="canada <= 0.5\ngini = 0.56\nsamples = 42\nvalue = [9, 15, 35]", fillcolor="#c6a5f3"] ;
592 -> 632 ;
633 [label="Age_35-44 <= 0.5\ngini = 0.58\nsamples = 39\nvalue = [9, 15, 31]", fillcolor="#cdb0f5"] ;
632 -> 633 ;
634 [label="SS <= -0.69\ngini = 0.57\nsamples = 29\nvalue = [8, 9, 24]", fillcolor="#c4a2f3"] ;
633 -> 634 ;
635 [label="Oscore <= 0.86\ngini = 0.44\nsamples = 4\nvalue = [4, 2, 0]", fillcolor="#f2c09c"] ;
634 -> 635 ;
636 [label="Ascore <= 0.22\ngini = 0.32\nsamples = 3\nvalue = [4, 1, 0]", fillcolor="#eca06a"] ;
635 -> 636 ;
637 [label="gini = 0.0\nsamples = 2\nvalue = [4, 0, 0]", fillcolor="#e58139"] ;
636 -> 637 ;
638 [label="gini = 0.0\nsamples = 1\nvalue = [0, 1, 0]", fillcolor="#39e581"] ;
636 -> 638 ;
639 [label="gini = 0.0\nsamples = 1\nvalue = [0, 1, 0]", fillcolor="#39e581"] ;
635 -> 639 ;
640 [label="Ascore <= -1.81\ngini = 0.48\nsamples = 25\nvalue = [4, 7, 24]", fillcolor="#b287ef"] ;
634 -> 640 ;
641 [label="gini = 0.0\nsamples = 1\nvalue = [0, 2, 0]", fillcolor="#39e581"] ;
640 -> 641 ;
642 [label="Impulsive <= -1.05\ngini = 0.43\nsamples = 24\nvalue = [4, 5, 24]", fillcolor="#aa79ed"] ;
640 -> 642 ;
643 [label="master <= 0.5\ngini = 0.5\nsamples = 2\nvalue = [1, 1, 0]", fillcolor="#ffffff"] ;
642 -> 643 ;
644 [label="gini = 0.0\nsamples = 1\nvalue = [0, 1, 0]", fillcolor="#39e581"] ;
643 -> 644 ;
645 [label="gini = 0.0\nsamples = 1\nvalue = [1, 0, 0]", fillcolor="#e58139"] ;
643 -> 645 ;
646 [label="Nscore <= -1.6\ngini = 0.37\nsamples = 22\nvalue = [3, 4, 24]", fillcolor="#a26cec"] ;
642 -> 646 ;
647 [label="gini = 0.0\nsamples = 1\nvalue = [2, 0, 0]", fillcolor="#e58139"] ;
646 -> 647 ;
648 [label="ls_16 <= 0.5\ngini = 0.29\nsamples = 21\nvalue = [1, 4, 24]", fillcolor="#9a61ea"] ;
646 -> 648 ;
649 [label="Age_55-64 <= 0.5\ngini = 0.24\nsamples = 20\nvalue = [0, 4, 24]", fillcolor="#965ae9"] ;
648 -> 649 ;
650 [label="Oscore <= 1.55\ngini = 0.26\nsamples = 19\nvalue = [0, 4, 22]", fillcolor="#985dea"] ;
649 -> 650 ;
651 [label="no_degree <= 0.5\ngini = 0.22\nsamples = 17\nvalue = [0, 3, 21]", fillcolor="#9355e9"] ;
650 -> 651 ;
652 [label="Nscore <= 0.36\ngini = 0.1\nsamples = 12\nvalue = [0, 1, 18]", fillcolor="#8844e6"] ;
651 -> 652 ;
653 [label="gini = 0.0\nsamples = 8\nvalue = [0, 0, 14]", fillcolor="#8139e5"] ;
652 -> 653 ;
654 [label="Impulsive <= -0.01\ngini = 0.32\nsamples = 4\nvalue = [0, 1, 4]", fillcolor="#a06aec"] ;
652 -> 654 ;
655 [label="master <= 0.5\ngini = 0.44\nsamples = 2\nvalue = [0, 1, 2]", fillcolor="#c09cf2"] ;
654 -> 655 ;
656 [label="gini = 0.0\nsamples = 1\nvalue = [0, 1, 0]", fillcolor="#39e581"] ;
655 -> 656 ;
657 [label="gini = 0.0\nsamples = 1\nvalue = [0, 0, 2]", fillcolor="#8139e5"] ;
655 -> 657 ;
658 [label="gini = 0.0\nsamples = 2\nvalue = [0, 0, 2]", fillcolor="#8139e5"] ;
654 -> 658 ;
659 [label="Age_25-34 <= 0.5\ngini = 0.48\nsamples = 5\nvalue = [0, 2, 3]", fillcolor="#d5bdf6"] ;
651 -> 659 ;
660 [label="UK <= 0.5\ngini = 0.44\nsamples = 3\nvalue = [0, 2, 1]", fillcolor="#9cf2c0"] ;
659 -> 660 ;
661 [label="gini = 0.0\nsamples = 1\nvalue = [0, 0, 1]", fillcolor="#8139e5"] ;
660 -> 661 ;
662 [label="gini = 0.0\nsamples = 2\nvalue = [0, 2, 0]", fillcolor="#39e581"] ;
660 -> 662 ;
663 [label="gini = 0.0\nsamples = 2\nvalue = [0, 0, 2]", fillcolor="#8139e5"] ;
659 -> 663 ;
664 [label="Oscore <= 2.28\ngini = 0.5\nsamples = 2\nvalue = [0, 1, 1]", fillcolor="#ffffff"] ;
650 -> 664 ;
665 [label="gini = 0.0\nsamples = 1\nvalue = [0, 1, 0]", fillcolor="#39e581"] ;
664 -> 665 ;
666 [label="gini = 0.0\nsamples = 1\nvalue = [0, 0, 1]", fillcolor="#8139e5"] ;
664 -> 666 ;
667 [label="gini = 0.0\nsamples = 1\nvalue = [0, 0, 2]", fillcolor="#8139e5"] ;
649 -> 667 ;
668 [label="gini = 0.0\nsamples = 1\nvalue = [1, 0, 0]", fillcolor="#e58139"] ;
648 -> 668 ;
669 [label="other_e <= 0.5\ngini = 0.56\nsamples = 10\nvalue = [1, 6, 7]", fillcolor="#efe6fc"] ;
633 -> 669 ;
670 [label="Escore <= 1.12\ngini = 0.51\nsamples = 9\nvalue = [1, 3, 7]", fillcolor="#c09cf2"] ;
669 -> 670 ;
671 [label="master <= 0.5\ngini = 0.22\nsamples = 7\nvalue = [0, 1, 7]", fillcolor="#9355e9"] ;
670 -> 671 ;
672 [label="gini = 0.0\nsamples = 6\nvalue = [0, 0, 7]", fillcolor="#8139e5"] ;
671 -> 672 ;
673 [label="gini = 0.0\nsamples = 1\nvalue = [0, 1, 0]", fillcolor="#39e581"] ;
671 -> 673 ;
674 [label="Ascore <= -0.38\ngini = 0.44\nsamples = 2\nvalue = [1, 2, 0]", fillcolor="#9cf2c0"] ;
670 -> 674 ;
675 [label="gini = 0.0\nsamples = 1\nvalue = [0, 2, 0]", fillcolor="#39e581"] ;
674 -> 675 ;
676 [label="gini = 0.0\nsamples = 1\nvalue = [1, 0, 0]", fillcolor="#e58139"] ;
674 -> 676 ;
677 [label="gini = 0.0\nsamples = 1\nvalue = [0, 3, 0]", fillcolor="#39e581"] ;
669 -> 677 ;
678 [label="gini = 0.0\nsamples = 3\nvalue = [0, 0, 4]", fillcolor="#8139e5"] ;
632 -> 678 ;
679 [label="Age_25-34 <= 0.5\ngini = 0.64\nsamples = 26\nvalue = [8, 15, 15]", fillcolor="#ffffff"] ;
591 -> 679 ;
680 [label="SS <= 0.58\ngini = 0.57\nsamples = 17\nvalue = [4, 6, 14]", fillcolor="#c7a7f3"] ;
679 -> 680 ;
681 [label="SS <= -0.69\ngini = 0.5\nsamples = 15\nvalue = [4, 3, 14]", fillcolor="#b58bf0"] ;
680 -> 681 ;
682 [label="Escore <= 0.88\ngini = 0.65\nsamples = 5\nvalue = [3, 2, 2]", fillcolor="#fae6d7"] ;
681 -> 682 ;
683 [label="SS <= -1.2\ngini = 0.38\nsamples = 3\nvalue = [3, 1, 0]", fillcolor="#eeab7b"] ;
682 -> 683 ;
684 [label="Nscore <= -0.51\ngini = 0.5\nsamples = 2\nvalue = [1, 1, 0]", fillcolor="#ffffff"] ;
683 -> 684 ;
685 [label="gini = 0.0\nsamples = 1\nvalue = [1, 0, 0]", fillcolor="#e58139"] ;
684 -> 685 ;
686 [label="gini = 0.0\nsamples = 1\nvalue = [0, 1, 0]", fillcolor="#39e581"] ;
684 -> 686 ;
687 [label="gini = 0.0\nsamples = 1\nvalue = [2, 0, 0]", fillcolor="#e58139"] ;
683 -> 687 ;
688 [label="SS <= -1.01\ngini = 0.44\nsamples = 2\nvalue = [0, 1, 2]", fillcolor="#c09cf2"] ;
682 -> 688 ;
689 [label="gini = 0.0\nsamples = 1\nvalue = [0, 0, 2]", fillcolor="#8139e5"] ;
688 -> 689 ;
690 [label="gini = 0.0\nsamples = 1\nvalue = [0, 1, 0]", fillcolor="#39e581"] ;
688 -> 690 ;
691 [label="Nscore <= 0.36\ngini = 0.26\nsamples = 10\nvalue = [1, 1, 12]", fillcolor="#9457e9"] ;
681 -> 691 ;
692 [label="Cscore <= 1.56\ngini = 0.17\nsamples = 7\nvalue = [1, 0, 10]", fillcolor="#8e4de8"] ;
691 -> 692 ;
693 [label="Ascore <= 1.2\ngini = 0.32\nsamples = 4\nvalue = [1, 0, 4]", fillcolor="#a06aec"] ;
692 -> 693 ;
694 [label="gini = 0.0\nsamples = 1\nvalue = [1, 0, 0]", fillcolor="#e58139"] ;
693 -> 694 ;
695 [label="gini = 0.0\nsamples = 3\nvalue = [0, 0, 4]", fillcolor="#8139e5"] ;
693 -> 695 ;
696 [label="gini = 0.0\nsamples = 3\nvalue = [0, 0, 6]", fillcolor="#8139e5"] ;
692 -> 696 ;
697 [label="Cscore <= 0.95\ngini = 0.44\nsamples = 3\nvalue = [0, 1, 2]", fillcolor="#c09cf2"] ;
691 -> 697 ;
698 [label="other_c <= 0.5\ngini = 0.5\nsamples = 2\nvalue = [0, 1, 1]", fillcolor="#ffffff"] ;
697 -> 698 ;
699 [label="gini = 0.0\nsamples = 1\nvalue = [0, 1, 0]", fillcolor="#39e581"] ;
698 -> 699 ;
700 [label="gini = 0.0\nsamples = 1\nvalue = [0, 0, 1]", fillcolor="#8139e5"] ;
698 -> 700 ;
701 [label="gini = 0.0\nsamples = 1\nvalue = [0, 0, 1]", fillcolor="#8139e5"] ;
697 -> 701 ;
702 [label="gini = 0.0\nsamples = 2\nvalue = [0, 3, 0]", fillcolor="#39e581"] ;
680 -> 702 ;
703 [label="Nscore <= 0.34\ngini = 0.5\nsamples = 9\nvalue = [4, 9, 1]", fillcolor="#9cf2c0"] ;
679 -> 703 ;
704 [label="Impulsive <= 0.91\ngini = 0.43\nsamples = 8\nvalue = [4, 9, 0]", fillcolor="#91f1b9"] ;
703 -> 704 ;
705 [label="Oscore <= 0.14\ngini = 0.48\nsamples = 7\nvalue = [4, 6, 0]", fillcolor="#bdf6d5"] ;
704 -> 705 ;
706 [label="gini = 0.0\nsamples = 1\nvalue = [0, 3, 0]", fillcolor="#39e581"] ;
705 -> 706 ;
707 [label="Nscore <= -0.99\ngini = 0.49\nsamples = 6\nvalue = [4, 3, 0]", fillcolor="#f8e0ce"] ;
705 -> 707 ;
708 [label="gini = 0.0\nsamples = 2\nvalue = [2, 0, 0]", fillcolor="#e58139"] ;
707 -> 708 ;
709 [label="Ascore <= 1.2\ngini = 0.48\nsamples = 4\nvalue = [2, 3, 0]", fillcolor="#bdf6d5"] ;
707 -> 709 ;
710 [label="gini = 0.0\nsamples = 2\nvalue = [2, 0, 0]", fillcolor="#e58139"] ;
709 -> 710 ;
711 [label="gini = 0.0\nsamples = 2\nvalue = [0, 3, 0]", fillcolor="#39e581"] ;
709 -> 711 ;
712 [label="gini = 0.0\nsamples = 1\nvalue = [0, 3, 0]", fillcolor="#39e581"] ;
704 -> 712 ;
713 [label="gini = 0.0\nsamples = 1\nvalue = [0, 0, 1]", fillcolor="#8139e5"] ;
703 -> 713 ;
714 [label="Impulsive <= -0.01\ngini = 0.51\nsamples = 63\nvalue = [14, 19, 63]", fillcolor="#b78ef0"] ;
364 -> 714 ;
715 [label="black_white <= 0.5\ngini = 0.63\nsamples = 31\nvalue = [10, 14, 22]", fillcolor="#e0cef8"] ;
714 -> 715 ;
716 [label="SS <= -1.01\ngini = 0.63\nsamples = 30\nvalue = [10, 13, 22]", fillcolor="#dcc7f8"] ;
715 -> 716 ;
717 [label="Nscore <= -0.75\ngini = 0.46\nsamples = 7\nvalue = [0, 4, 7]", fillcolor="#c9aaf4"] ;
716 -> 717 ;
718 [label="Impulsive <= -0.46\ngini = 0.38\nsamples = 5\nvalue = [0, 2, 6]", fillcolor="#ab7bee"] ;
717 -> 718 ;
719 [label="gini = 0.0\nsamples = 4\nvalue = [0, 0, 6]", fillcolor="#8139e5"] ;
718 -> 719 ;
720 [label="gini = 0.0\nsamples = 1\nvalue = [0, 2, 0]", fillcolor="#39e581"] ;
718 -> 720 ;
721 [label="Female <= 0.5\ngini = 0.44\nsamples = 2\nvalue = [0, 2, 1]", fillcolor="#9cf2c0"] ;
717 -> 721 ;
722 [label="gini = 0.0\nsamples = 1\nvalue = [0, 2, 0]", fillcolor="#39e581"] ;
721 -> 722 ;
723 [label="gini = 0.0\nsamples = 1\nvalue = [0, 0, 1]", fillcolor="#8139e5"] ;
721 -> 723 ;
724 [label="Impulsive <= -1.97\ngini = 0.65\nsamples = 23\nvalue = [10, 9, 15]", fillcolor="#e5d6fa"] ;
716 -> 724 ;
725 [label="gini = 0.0\nsamples = 1\nvalue = [3, 0, 0]", fillcolor="#e58139"] ;
724 -> 725 ;
726 [label="Ascore <= 0.06\ngini = 0.63\nsamples = 22\nvalue = [7, 9, 15]", fillcolor="#ddc9f8"] ;
724 -> 726 ;
727 [label="Cscore <= 0.59\ngini = 0.32\nsamples = 6\nvalue = [2, 0, 8]", fillcolor="#a06aec"] ;
726 -> 727 ;
728 [label="Impulsive <= -0.46\ngini = 0.48\nsamples = 3\nvalue = [2, 0, 3]", fillcolor="#d5bdf6"] ;
727 -> 728 ;
729 [label="gini = 0.0\nsamples = 1\nvalue = [2, 0, 0]", fillcolor="#e58139"] ;
728 -> 729 ;
730 [label="gini = 0.0\nsamples = 2\nvalue = [0, 0, 3]", fillcolor="#8139e5"] ;
728 -> 730 ;
731 [label="gini = 0.0\nsamples = 3\nvalue = [0, 0, 5]", fillcolor="#8139e5"] ;
727 -> 731 ;
732 [label="white <= 0.5\ngini = 0.65\nsamples = 16\nvalue = [5, 9, 7]", fillcolor="#e3fbed"] ;
726 -> 732 ;
733 [label="gini = 0.0\nsamples = 1\nvalue = [0, 2, 0]", fillcolor="#39e581"] ;
732 -> 733 ;
734 [label="SS <= -0.07\ngini = 0.66\nsamples = 15\nvalue = [5, 7, 7]", fillcolor="#ffffff"] ;
732 -> 734 ;
735 [label="university <= 0.5\ngini = 0.6\nsamples = 11\nvalue = [5, 7, 2]", fillcolor="#d3f9e3"] ;
734 -> 735 ;
736 [label="diploma <= 0.5\ngini = 0.66\nsamples = 7\nvalue = [3, 3, 2]", fillcolor="#ffffff"] ;
735 -> 736 ;
737 [label="SS <= -0.69\ngini = 0.61\nsamples = 6\nvalue = [1, 3, 2]", fillcolor="#cef8e0"] ;
736 -> 737 ;
738 [label="ls_16 <= 0.5\ngini = 0.5\nsamples = 2\nvalue = [1, 1, 0]", fillcolor="#ffffff"] ;
737 -> 738 ;
739 [label="gini = 0.0\nsamples = 1\nvalue = [1, 0, 0]", fillcolor="#e58139"] ;
738 -> 739 ;
740 [label="gini = 0.0\nsamples = 1\nvalue = [0, 1, 0]", fillcolor="#39e581"] ;
738 -> 740 ;
741 [label="Escore <= -0.22\ngini = 0.5\nsamples = 4\nvalue = [0, 2, 2]", fillcolor="#ffffff"] ;
737 -> 741 ;
742 [label="gini = 0.0\nsamples = 1\nvalue = [0, 1, 0]", fillcolor="#39e581"] ;
741 -> 742 ;
743 [label="Oscore <= 0.6\ngini = 0.44\nsamples = 3\nvalue = [0, 1, 2]", fillcolor="#c09cf2"] ;
741 -> 743 ;
744 [label="gini = 0.0\nsamples = 1\nvalue = [0, 1, 0]", fillcolor="#39e581"] ;
743 -> 744 ;
745 [label="gini = 0.0\nsamples = 2\nvalue = [0, 0, 2]", fillcolor="#8139e5"] ;
743 -> 745 ;
746 [label="gini = 0.0\nsamples = 1\nvalue = [2, 0, 0]", fillcolor="#e58139"] ;
736 -> 746 ;
747 [label="Ascore <= 0.28\ngini = 0.44\nsamples = 4\nvalue = [2, 4, 0]", fillcolor="#9cf2c0"] ;
735 -> 747 ;
748 [label="gini = 0.0\nsamples = 2\nvalue = [0, 4, 0]", fillcolor="#39e581"] ;
747 -> 748 ;
749 [label="gini = 0.0\nsamples = 2\nvalue = [2, 0, 0]", fillcolor="#e58139"] ;
747 -> 749 ;
750 [label="gini = 0.0\nsamples = 4\nvalue = [0, 0, 5]", fillcolor="#8139e5"] ;
734 -> 750 ;
751 [label="gini = 0.0\nsamples = 1\nvalue = [0, 1, 0]", fillcolor="#39e581"] ;
715 -> 751 ;
752 [label="Female <= 0.5\ngini = 0.31\nsamples = 32\nvalue = [4, 5, 41]", fillcolor="#9a61ea"] ;
714 -> 752 ;
753 [label="Nscore <= -1.31\ngini = 0.43\nsamples = 15\nvalue = [4, 2, 16]", fillcolor="#ab7bee"] ;
752 -> 753 ;
754 [label="Impulsive <= 0.36\ngini = 0.48\nsamples = 2\nvalue = [3, 2, 0]", fillcolor="#f6d5bd"] ;
753 -> 754 ;
755 [label="gini = 0.0\nsamples = 1\nvalue = [0, 2, 0]", fillcolor="#39e581"] ;
754 -> 755 ;
756 [label="gini = 0.0\nsamples = 1\nvalue = [3, 0, 0]", fillcolor="#e58139"] ;
754 -> 756 ;
757 [label="Oscore <= 0.06\ngini = 0.11\nsamples = 13\nvalue = [1, 0, 16]", fillcolor="#8945e7"] ;
753 -> 757 ;
758 [label="gini = 0.0\nsamples = 4\nvalue = [0, 0, 8]", fillcolor="#8139e5"] ;
757 -> 758 ;
759 [label="Ascore <= -0.23\ngini = 0.2\nsamples = 9\nvalue = [1, 0, 8]", fillcolor="#9152e8"] ;
757 -> 759 ;
760 [label="master <= 0.5\ngini = 0.38\nsamples = 4\nvalue = [1, 0, 3]", fillcolor="#ab7bee"] ;
759 -> 760 ;
761 [label="gini = 0.0\nsamples = 3\nvalue = [0, 0, 3]", fillcolor="#8139e5"] ;
760 -> 761 ;
762 [label="gini = 0.0\nsamples = 1\nvalue = [1, 0, 0]", fillcolor="#e58139"] ;
760 -> 762 ;
763 [label="gini = 0.0\nsamples = 5\nvalue = [0, 0, 5]", fillcolor="#8139e5"] ;
759 -> 763 ;
764 [label="Nscore <= 0.92\ngini = 0.19\nsamples = 17\nvalue = [0, 3, 25]", fillcolor="#9051e8"] ;
752 -> 764 ;
765 [label="Nscore <= 0.04\ngini = 0.08\nsamples = 14\nvalue = [0, 1, 22]", fillcolor="#8742e6"] ;
764 -> 765 ;
766 [label="gini = 0.0\nsamples = 10\nvalue = [0, 0, 17]", fillcolor="#8139e5"] ;
765 -> 766 ;
767 [label="Impulsive <= 0.36\ngini = 0.28\nsamples = 4\nvalue = [0, 1, 5]", fillcolor="#9a61ea"] ;
765 -> 767 ;
768 [label="gini = 0.0\nsamples = 1\nvalue = [0, 1, 0]", fillcolor="#39e581"] ;
767 -> 768 ;
769 [label="gini = 0.0\nsamples = 3\nvalue = [0, 0, 5]", fillcolor="#8139e5"] ;
767 -> 769 ;
770 [label="Cscore <= -0.59\ngini = 0.48\nsamples = 3\nvalue = [0, 2, 3]", fillcolor="#d5bdf6"] ;
764 -> 770 ;
771 [label="gini = 0.0\nsamples = 2\nvalue = [0, 0, 3]", fillcolor="#8139e5"] ;
770 -> 771 ;
772 [label="gini = 0.0\nsamples = 1\nvalue = [0, 2, 0]", fillcolor="#39e581"] ;
770 -> 772 ;
}